tree
version=v4
num_class=1
num_tree_per_iteration=1
label_index=0
max_feature_idx=15
objective=regression_l1
feature_names=poi_influence_score accessibility_weighted_score commercial_score accessibility_score mobility_score restaurant public_transit_facility_or_service train_station ground_transport_facility_or_service air_transport_facility_or_service competitor_count_500m competitor_count_1km nearest_competitor_distance saturation_score outlet_type master_completeness_score
feature_infos=[0:105.45138463923777] [0:12.522943042705821] [0:227.01200000000244] [0:40] [0:0.70992770939902561] [0:73.010000000002037] none none none none [0:10] [0:27] [0:990.72250346119711] [0:3.4596291562988695] [0:9] [0.75:1]
tree_sizes=5253 5660 5680 5668 5674 5665 5665 5633 5636 5659 5632 5682 5623 5672 5618 5637 5627 5587 5643 5632 5658 5659 5626 5679 5692 5712 5714 5695 5707 5682 5676 5730 5711 5677 5709 5677 5650 5694 5684 5671 5680 5717 5686 5691 5656 5654 5666 5639 5701 5707 5596 5613 5736 5641 5653 5700 5696 5674 5697 5662 5675 5676 5664 5669 5668 5683 5635 5685 5685 5706 5661 5661 5689 5670 5663 5666 5688 5610 5704 5622 5610 5654 5720 5633 5657 5649 5627 5702 5648 5669 5655 5631 5641 5633

Tree=0
num_leaves=63
num_cat=0
split_feature=15 13 13 5 2 4 13 12 0 13 12 11 10 0 0 0 0 0 2 4 3 13 4 13 13 0 12 4 13 0 12 12 10 12 0 5 12 4 4 12 13 2 0 10 12 12 12 13 13 0 12 10 0 0 12 13 0 2 5 0 0 0
split_gain=103.442 7.46447 9.15683 6.95808 8.80361 7.76603 5.74228 6.28538 9.78091 5.49428 4.49578 5.29378 5.42429 5.82473 5.40287 4.8038 4.82908 5.45032 4.25937 6.71609 9.51707 6.48832 5.46874 8.36597 4.13016 6.87128 4.32234 4.31885 3.99973 5.68095 6.20628 4.39726 3.89977 3.82078 6.81294 9.09224 4.36281 9.12226 10.8087 7.8634 3.7951 3.83197 3.74281 3.67064 3.60825 16.8929 5.5321 6.52149 6.28883 3.74537 3.71314 3.69706 5.10876 3.63735 3.60489 8.9792 4.97931 4.7692 6.67528 5.15711 7.49757 4.83379
threshold=0.87500000000000011 1.4773508540412459 1.0268291355494279 25.500000000000004 47.500000000000007 0.12459979346001435 0.48572695775001984 788.78653139312803 0.046531674917563097 1.433418810946955 93.276196572516554 15.500000000000002 1.5000000000000002 0.20126460579392177 0.72357910410693971 0.026065033866013051 0.075941471509847744 0.050243986527101707 1.0000000180025095e-35 0.00040166583392171488 1.0000000180025095e-35 1.7414158361769407 0.0020448959633649027 1.5888695570664169 2.3798848576582636 0.028842721533273181 47.92413279961675 0.0016091761035998448 1.2482360612827585 0.72357910410693971 198.23641897561876 123.53047335893143 7.5000000000000009 301.86889573360219 4.4994171266032916 6.5000000000000009 193.07423356543882 0.0171748236672053 0.0079001107597254268 137.70956299302989 2.2688439007931058 1.0000000180025095e-35 0.037118352876434807 6.5000000000000009 252.67816076682593 231.08092557237163 268.88086656555612 1.0526238059729922 1.0973219865299362 1.6693733349401174 71.954570975073793 1.5000000000000002 0.13369594130303122 0.32227127693247859 160.54143922951815 2.7051494478031266 1.0916475342739596 15.500000000000002 1.5000000000000002 1.4645533635495278 2.3121440407143914 13.8020261405883
decision_type=2 2 2 2 2 2 2 2 2 2 2 2 2 2 2 2 2 2 2 2 2 2 2 2 2 2 2 2 2 2 2 2 2 2 2 2 2 2 2 2 2 2 2 2 2 2 2 2 2 2 2 2 2 2 2 2 2 2 2 2 2 2
left_child=-1 2 6 4 10 -6 7 -2 -9 28 24 15 -13 32 40 -12 17 42 19 -18 21 -21 23 -20 26 -26 -3 43 44 31 -31 -30 -14 36 -35 -36 37 38 -24 -39 41 -15 -17 -27 45 50 -46 -48 -49 -50 -4 52 -52 -53 -16 56 -56 58 59 -58 -61 -59
right_child=1 3 9 -5 5 -7 -8 8 -10 -11 11 12 13 14 54 16 18 -19 22 20 -22 -23 33 -25 25 27 -28 -29 29 30 -32 -33 -34 34 35 -37 -38 39 -40 -41 -42 -43 -44 -45 46 -47 47 48 49 -51 51 53 -54 -55 55 -57 57 61 -60 60 -62 -63
leaf_value=5.0662931823730473 5.0708311510086057 5.0808687210083008 5.0850837945938112 5.0683078670501711 5.0859852170944215 5.0755112457275393 5.0790754127502442 5.0719132041931152 5.0856920099258422 5.0693123435974119 5.0737016010284428 5.0678591966629032 5.0811634206771847 5.084297962188721 5.0824929714202884 5.0825493335723877 5.071102685928345 5.0860614871978758 5.084604024887085 5.0822522449493412 5.0687835502624514 5.0853561449050906 5.0720852994918824 5.0820669746398925 5.0862521457672116 5.0681419181823735 5.0684846878051761 5.0811212348937991 5.0859637308120726 5.0666925668716427 5.0705055332183839 5.0729840850830081 5.0657275581359862 5.0686337089538576 5.0833615589141843 5.0685760974884033 5.0831104850769044 5.0809820365905765 5.0849745082855229 5.0687310600280764 5.0688126850128175 5.0712121152877812 5.0703905200958248 5.0834665966033938 5.069100713729858 5.086532783508301 5.0688903236389162 5.081165642738342 5.0700173425674437 5.0848153972625729 5.080904350280762 5.0691496658325192 5.0692299747467038 5.0789612674713132 5.0836870956420901 5.0649709320068359 5.0670201969146724 5.085864915847778 5.0684891462326052 5.0850936698913571 5.0713146591186522 5.0702131271362303
leaf_weight=122 878 101 48 87 72 60 4261 267 92 150 634 82 534 34 251 37 215 59 68 45 30 60 82 495 32 90 269 122 92 32 127 421 40 115 57 37 294 56 48 73 181 94 42 35 52 68 83 128 290 46 100 224 31 43 75 34 59 59 164 73 90 42
leaf_count=122 878 101 48 87 72 60 4261 267 92 150 634 82 534 34 251 37 215 59 68 45 30 60 82 495 32 90 269 122 92 32 127 421 40 115 57 37 294 56 48 73 181 94 42 35 52 68 83 128 290 46 100 224 31 43 75 34 59 59 164 73 90 42
internal_value=5.07276 5.07294 5.07253 5.07352 5.07362 5.0787 5.07295 5.07175 5.07397 5.07135 5.07348 5.07372 5.0729 5.07314 5.07232 5.07433 5.07485 5.07844 5.07455 5.07259 5.07607 5.07891 5.07507 5.07656 5.07194 5.07377 5.07055 5.07263 5.07166 5.07288 5.06959 5.0739 5.07479 5.07396 5.07166 5.07563 5.07483 5.07293 5.07666 5.06918 5.07006 5.0727 5.07493 5.07002 5.07093 5.07216 5.06987 5.07048 5.07142 5.06998 5.07074 5.0701 5.07284 5.06875 5.07315 5.0723 5.07291 5.07217 5.07116 5.07341 5.07525 5.07602
internal_weight=12682 12560 7433 5127 5040 132 5498 1237 359 1935 4908 4259 1812 1730 1156 2447 1813 138 1675 350 135 105 1325 563 649 279 370 247 1785 672 159 513 574 762 209 94 553 259 130 129 309 128 79 125 1113 514 599 547 464 336 446 398 131 267 847 596 562 487 386 222 163 101
internal_count=12682 12560 7433 5127 5040 132 5498 1237 359 1935 4908 4259 1812 1730 1156 2447 1813 138 1675 350 135 105 1325 563 649 279 370 247 1785 672 159 513 574 762 209 94 553 259 130 129 309 128 79 125 1113 514 599 547 464 336 446 398 131 267 847 596 562 487 386 222 163 101
is_linear=0
shrinkage=1


Tree=1
num_leaves=63
num_cat=0
split_feature=15 13 13 14 3 2 11 13 12 2 1 1 14 13 12 12 1 11 2 12 12 13 10 13 2 13 13 13 12 12 12 13 14 13 11 11 13 13 13 14 10 12 10 11 13 12 13 13 2 12 14 13 12 1 1 1 12 1 1 14 1 1
split_gain=103.12 7.79993 9.21396 6.01144 5.74835 6.45294 5.71649 5.39901 5.6739 5.1319 4.70674 4.52286 7.29869 4.43056 4.22813 8.70259 3.94184 5.34867 6.92379 7.47472 8.38447 6.8148 6.68099 4.60027 4.39426 4.08872 4.00669 3.86207 4.33728 5.46558 4.18623 4.338 4.90719 3.83781 3.76483 5.8464 3.56273 4.68873 4.11121 3.97462 3.49436 4.37237 3.4909 3.69114 5.18225 4.75144 3.32558 5.53627 3.28173 3.23234 3.08242 3.60686 3.09043 3.04182 3.00106 4.20338 3.59759 2.97674 5.49987 6.72395 9.83187 5.0305
threshold=0.87500000000000011 1.4773508540412459 1.0268291355494279 7.5000000000000009 12.500000000000002 19.500000000000004 10.500000000000002 0.48572695775001984 788.78653139312803 21.500000000000004 0.39014841898683295 0.043838257636157417 4.5000000000000009 0.41471588677684812 361.57805232281959 301.86889573360219 0.029454136754002935 18.500000000000004 1.5000000000000002 105.10798234187089 202.14263425260853 1.6742692351483037 6.5000000000000009 2.3929809138623908 2.5000000000000004 1.5773095291055694 1.6383791002021817 1.0973219865299362 380.68957610398195 460.07533087447752 299.45453091743974 1.0881833158998269 1.0000000180025095e-35 1.8208257134522301 16.500000000000004 15.500000000000002 1.9339987003859795 1.8877656212921121 1.8298448728079382 3.5000000000000004 4.5000000000000009 165.93743530040175 6.5000000000000009 13.500000000000002 1.7827605163603357 283.53461904317697 1.8298448728079382 1.9886120318010541 3.5000000000000004 348.67273354063803 1.0000000180025095e-35 2.2145143422358031 177.67184213722911 0.92962469569425155 0.052613141622500866 0.074903346097585019 241.06366409523929 0.026883024687919303 0.22545869461403298 2.5000000000000004 0.11973317705817646 0.50521808441682448
decision_type=2 2 2 2 2 2 2 2 2 2 2 2 2 2 2 2 2 2 2 2 2 2 2 2 2 2 2 2 2 2 2 2 2 2 2 2 2 2 2 2 2 2 2 2 2 2 2 2 2 2 2 2 2 2 2 2 2 2 2 2 2 2
left_child=-1 2 7 6 5 11 27 8 -2 -7 -11 16 54 -10 15 40 17 18 19 46 25 -20 -22 24 -18 -21 -27 28 30 -30 31 32 -4 -28 35 36 37 38 48 -38 41 -12 43 44 45 -14 -3 -48 -23 -19 -35 -52 -53 -29 -13 56 -56 -9 59 -59 -61 -60
right_child=1 4 3 -5 -6 9 -8 57 13 10 14 12 42 -15 -16 -17 23 49 21 20 22 34 -24 -25 -26 26 33 53 29 -31 -32 -33 -34 50 -36 -37 39 -39 -40 -41 -42 -43 -44 -45 -46 -47 47 -49 -50 -51 51 52 -54 -55 55 -57 -58 58 61 60 -62 -63
leaf_value=-0.0062810409545898515 -0.0018338316917419384 -0.004605082130432132 0.012305767822265619 -0.0043465901374816875 -0.0042299745559692429 0.013079568672180183 -0.0051952754974365243 0.002583859825134276 -0.00041606826782226492 -0.0032530278205871533 -0.0038167028427124093 -0.0041894298553466847 0.0091539161682128879 0.011911295223236085 0.013190852546691901 -0.0065484288215637235 0.010700550937652587 -0.00079718875885010482 0.01197824001312256 0.013286633491516113 0.0057369515419006412 0.010067525672912598 -0.0068460051536560051 0.012536906051635741 -0.0046575023651123006 -0.0055436082839965903 0.010419741439819337 -0.0010582829475402811 0.012175949192047125 -0.0031713054656982466 -0.0048642442703247116 -0.0063306348323822004 -0.0024428625106811454 -0.0024875664234161386 0.012583706665039057 -0.0041750198364257866 0.015624919700622559 -0.005971349906921386 0.01146288471221924 0.007612028884887696 0.012732960700988763 0.0098115153312683129 -0.0060280960083007786 -0.00098865795135498762 -0.0066153638839721741 -0.0052892047882080106 0.013958002090454098 -0.0023913936614990308 -0.0061148445129394526 -0.0031592946052551342 0.0080561117172241129 0.0079422797203063927 0.012439282798767088 0.011098248291015623 0.011890491628646851 0.0022059299468994097 0.0061916893005371067 0.013027609252929687 -0.0046295467376709001 -0.0017292610168457047 0.013988092803955077 0.0098183998107910144
leaf_weight=122 878 78 37 59 89 38 50 3936 239 40 71 59 50 120 39 32 64 413 65 47 997 56 30 38 46 33 99 1411 62 47 50 32 147 62 90 81 68 36 38 61 107 94 51 265 42 35 38 221 38 51 272 118 35 40 50 851 39 85 49 94 37 60
leaf_count=122 878 78 37 59 89 38 50 3936 239 40 71 59 50 120 39 32 64 413 65 47 997 56 30 38 46 33 99 1411 62 47 50 32 147 62 90 81 68 36 38 61 107 94 51 265 42 35 38 221 38 51 272 118 35 40 50 851 39 85 49 94 37 60
internal_value=2.82268e-05 0.000206831 -0.000206887 -0.0013936 0.000806942 0.000896606 -0.00119233 0.000210584 -0.000951535 0.0032654 0.00254688 0.000679515 -0.000248094 0.00116111 0.00330814 0.00248525 0.00110139 0.000943857 0.00130187 0.00076711 0.00130933 0.00332959 0.000173152 0.00428188 0.00214414 0.00305547 0.00260968 -0.00100602 -0.00281383 0.000527273 -0.00418727 -0.00294009 -0.00171892 0.00299489 0.00246908 0.00157784 0.00287919 0.000934911 0.00269173 0.00536923 0.00365568 0.00179518 -0.00238288 -0.00172519 -0.00451562 -0.00160465 -0.00194675 -0.000838462 0.0004 -0.00102796 0.00225 0.00285915 0.00531169 -0.000535813 0.000698 0.000975558 0.00508889 0.000548569 0.0023865 0.00423041 0.00134848 -0.00125455
internal_weight=12682 12560 7433 1935 5127 5038 1876 5498 1237 421 383 4617 1442 359 343 304 3175 3027 2563 2030 1693 533 1027 148 110 666 619 1826 375 109 266 216 184 586 468 378 297 168 132 129 272 165 443 392 127 85 337 259 94 464 487 425 153 1451 999 940 89 4261 325 216 131 109
internal_count=12682 12560 7433 1935 5127 5038 1876 5498 1237 421 383 4617 1442 359 343 304 3175 3027 2563 2030 1693 533 1027 148 110 666 619 1826 375 109 266 216 184 586 468 378 297 168 132 129 272 165 443 392 127 85 337 259 94 464 487 425 153 1451 999 940 89 4261 325 216 131 109
is_linear=0
shrinkage=0.02


Tree=2
num_leaves=63
num_cat=0
split_feature=13 13 5 2 1 14 12 13 12 0 12 11 10 0 0 0 1 1 10 0 12 0 11 12 10 0 12 2 14 0 14 10 13 13 13 0 1 5 0 0 2 12 10 13 12 13 0 1 13 1 14 1 0 12 13 1 14 13 12 12 14 10
split_gain=7.71997 8.73953 6.4344 8.95486 8.3973 5.71914 4.88702 4.58915 5.94642 8.88038 3.78849 4.70543 4.90839 5.99575 5.14174 4.51135 5.54782 8.00506 5.15259 7.81234 7.40878 5.29924 4.69655 4.29908 5.24137 6.61102 3.87858 3.63957 5.66912 4.98525 5.48046 4.58952 3.53037 4.59275 5.5175 5.28143 4.87911 4.47857 4.45144 3.51717 3.90779 4.84549 3.52574 3.4917 8.40921 3.55556 3.48934 6.32543 6.32422 5.44494 6.48311 10.1686 6.19021 4.72814 5.09186 4.64585 4.5665 4.54384 4.92856 4.97799 4.27562 4.9162
threshold=1.4773508540412459 1.0268291355494279 25.500000000000004 47.500000000000007 2.1979084574027339 7.5000000000000009 460.07533087447752 0.48572695775001984 788.78653139312803 0.046531674917563097 93.276196572516554 15.500000000000002 1.5000000000000002 0.19745970961464951 0.72357910410693971 0.009954179796955202 0.036071441272739917 0.0070852824784943856 2.5000000000000004 0.075941471509847744 270.52822087350518 0.59417737048321551 14.500000000000002 47.92413279961675 6.5000000000000009 0.42352844927146155 126.36060516686231 1.0000000180025095e-35 3.5000000000000004 0.37848423342802212 5.5000000000000009 3.5000000000000004 1.9886120318010541 1.8780722307799971 1.8113292089754534 5.0268355802480036 0.13284894654743518 1.0000000180025095e-35 1.4334573844520608 2.357869001514358 9.5000000000000018 265.08308539690557 3.5000000000000004 2.2145143422358031 326.49835591879747 2.260487658480796 1.0000000180025095e-35 0.026883024687919303 1.0142869489224795 0.22545869461403298 2.5000000000000004 0.11973317705817646 0.40496495826061646 213.19601507753649 0.87428541589389075 0.50521808441682448 2.5000000000000004 0.52945045926135659 329.15463673980702 301.86889573360219 1.5000000000000002 1.0000000180025095e-35
decision_type=2 2 2 2 2 2 2 2 2 2 2 2 2 2 2 2 2 2 2 2 2 2 2 2 2 2 2 2 2 2 2 2 2 2 2 2 2 2 2 2 2 2 2 2 2 2 2 2 2 2 2 2 2 2 2 2 2 2 2 2 2 2
left_child=1 7 3 10 -5 6 -3 8 -1 -10 23 15 -13 43 -15 26 17 18 19 -17 -21 -22 32 -2 -25 -26 -12 -20 31 -30 -31 -29 33 34 37 36 -36 -18 -35 42 -41 -42 -24 44 -14 -45 48 53 57 50 52 -52 -49 54 -48 -51 -56 -9 59 -59 -55 -62
right_child=2 5 -4 4 -6 -7 -8 46 9 -11 11 12 13 14 -16 16 22 -19 27 20 21 -23 39 24 25 -27 -28 28 29 30 -32 -33 -34 38 35 -37 -38 -39 -40 40 41 -43 -44 45 -46 -47 47 49 -50 55 51 -53 -54 60 56 -57 -58 58 -60 -61 61 -63
leaf_value=-0.0018718039150238041 0.0082001761808395378 -0.0013028736891746461 -0.0042220504798889278 0.012762493858337401 0.00065111484146116892 -0.004259658334732048 -0.0032965612792968725 0.011577621395111084 -0.00091204203701019889 0.012614857777595514 0.010497375957489013 -0.0048610859813690331 -0.0028820890035629355 -0.0029049004516601596 0.0011709721422195419 0.012419030364990232 -0.0033329651870727516 0.011873349041938779 -0.0010095393667221143 0.011758303770065304 -0.0040099182071685925 0.011883371719360358 -0.0038150448684692328 -0.0035016644859314108 0.013310423955917363 -0.0049359637641906854 -0.0013154861392975015 0.0019424143638610758 0.010935084239959725 -0.0051965594005584674 0.0097354585704803407 0.010803699822425843 -0.0045485427284240746 -0.0042906373348236123 -0.0066907826080322332 -0.006768815784454354 0.0086090599975585918 0.0077303999862670912 0.012158531471252445 0.011643686290740973 -0.0022782334775924705 0.013896644363403326 0.010887742134094243 0.012721184761047369 0.011061632257461547 0.0073761344566345248 -0.0042917242698669433 0.00817701304626464 0.011717692310333252 -0.0045369558029174865 -0.0018262160949707074 0.013708330947875975 0.013732280380249016 -0.0027141657524108885 0.012172575885772705 0.009268161422729496 -0.0032351008110046387 0.0074804124183654791 -0.00029820353317260739 0.012151242191314698 -0.001768459384918213 0.00834404080581665
leaf_weight=884 198 1704 87 72 61 59 190 146 268 92 60 84 126 320 856 63 125 238 274 74 68 37 42 385 32 39 512 51 50 54 43 90 47 30 31 36 33 295 80 37 36 32 37 53 46 346 42 32 55 49 95 37 54 383 31 61 52 524 1618 103 400 623
leaf_count=884 198 1704 87 72 61 59 190 146 268 92 60 84 126 320 856 63 125 238 274 74 68 37 42 385 32 39 512 51 50 54 43 90 47 30 31 36 33 295 80 37 36 32 37 53 46 346 42 32 55 49 95 37 54 383 31 61 52 524 1618 103 400 623
internal_value=1.56114e-05 -0.000394242 0.000609535 0.000702395 0.00580597 -0.00154452 -0.00134987 1.04505e-05 -0.00105863 0.00110249 0.000563999 0.000779661 9.82533e-06 0.00023913 -0.000576041 0.00134814 0.00181618 0.0027977 0.00183602 0.0042716 0.0021 -0.00130189 0.00062413 -0.000851908 -0.00192123 0.00302778 -0.000205934 0.000777975 0.00234602 -0.000391892 -0.00304082 0.00519718 -0.000144543 0.000250396 -0.000533589 -0.00473267 -0.0012 0.000470309 0.00394595 0.00344865 0.00583019 0.00286957 0.000225 0.00191958 -0.000450867 0.002945 0.000320019 -0.000332258 0.00081651 0.00218237 0.00400913 0.00118797 0.00825287 -0.000873368 -0.0045873 -0.00142342 -0.00164286 0.000659699 0.000435441 0.00193949 -0.000538735 0.000134766
internal_weight=12682 7502 5180 5093 133 1953 1894 5549 1244 360 4960 4306 1831 1747 1176 2475 1903 1042 804 242 179 105 861 654 456 71 572 562 288 147 97 141 677 630 520 100 64 420 110 184 105 68 79 571 172 399 4305 1859 2446 328 218 132 86 1531 125 110 83 2391 2245 627 1406 1023
internal_count=12682 7502 5180 5093 133 1953 1894 5549 1244 360 4960 4306 1831 1747 1176 2475 1903 1042 804 242 179 105 861 654 456 71 572 562 288 147 97 141 677 630 520 100 64 420 110 184 105 68 79 571 172 399 4305 1859 2446 328 218 132 86 1531 125 110 83 2391 2245 627 1406 1023
is_linear=0
shrinkage=0.02


Tree=3
num_leaves=63
num_cat=0
split_feature=13 13 5 2 1 14 12 3 12 11 12 14 1 2 0 0 0 1 1 11 0 12 13 1 0 13 0 14 13 11 0 13 12 0 12 5 3 14 0 14 13 13 13 0 1 5 0 0 2 12 12 0 13 1 12 1 14 1 0 13 14 13
split_gain=7.41197 8.27284 6.36032 9.06592 8.3973 5.75813 4.9557 4.69202 4.28383 5.01773 4.98167 6.78811 5.56745 5.51231 7.24728 6.67014 4.51135 5.54782 8.00506 4.69655 4.50523 4.15383 4.12669 7.69226 7.11044 4.09062 5.28079 4.03875 3.99545 5.57415 3.94494 3.88175 6.20487 8.51646 3.87858 3.86337 3.73722 3.69758 3.64624 3.55595 3.53037 4.59275 5.5175 5.28143 4.87911 4.47857 4.45144 3.51717 3.90779 4.84549 3.52574 3.45245 6.41865 5.9369 5.29509 5.0857 7.05915 8.49193 6.19021 4.76259 6.52453 4.67937
threshold=1.4773508540412459 1.0268291355494279 25.500000000000004 47.500000000000007 2.1979084574027339 7.5000000000000009 460.07533087447752 1.0000000180025095e-35 93.276196572516554 15.500000000000002 154.90355959669282 1.5000000000000002 0.010319573831634765 14.500000000000002 4.6828711275075117 3.5862138123568488 0.009954179796955202 0.036071441272739917 0.0070852824784943856 14.500000000000002 12.160608398502257 21.645386778242774 2.3524520811474763 0.020827878643257122 0.63945650554518829 2.3023001864645365 0.50419260911908947 3.5000000000000004 2.3798848576582636 17.500000000000004 2.1370197540243496 0.48572695775001984 788.78653139312803 0.046531674917563097 126.36060516686231 1.5000000000000002 1.0000000180025095e-35 5.5000000000000009 0.12248021710778645 4.5000000000000009 1.9886120318010541 1.8780722307799971 1.8113292089754534 5.0268355802480036 0.13284894654743518 1.0000000180025095e-35 1.4334573844520608 2.357869001514358 9.5000000000000018 265.08308539690557 239.51476764622075 1.0000000180025095e-35 1.0142869489224795 0.026883024687919303 226.10958987870154 0.22545869461403298 2.5000000000000004 0.11973317705817646 0.40496495826061646 0.87428541589389075 2.5000000000000004 0.52945045926135659
decision_type=2 2 2 2 2 2 2 2 2 2 2 2 2 2 2 2 2 2 2 2 2 2 2 2 2 2 2 2 2 2 2 2 2 2 2 2 2 2 2 2 2 2 2 2 2 2 2 2 2 2 2 2 2 2 2 2 2 2 2 2 2 2
left_child=1 31 3 8 -5 6 -3 27 21 16 11 -11 -12 14 15 25 34 18 -18 40 -15 -2 24 -24 -13 35 -27 -8 37 -30 36 32 -1 -34 -10 -14 -28 -23 -31 -25 41 42 45 44 -44 -19 -43 50 -49 -50 -21 52 61 54 59 56 58 -58 -55 -53 -61 -33
right_child=2 5 -4 4 -6 -7 7 -9 9 10 12 22 13 20 -16 -17 17 19 -20 47 -22 28 23 39 -26 26 30 -29 29 38 -32 51 33 -35 -36 -37 -38 -39 -40 -41 -42 46 43 -45 -46 -47 -48 48 49 -51 -52 53 -54 55 -56 -57 57 -59 -60 60 -62 -63
leaf_value=-0.0018343678367233275 0.010036908150882731 -0.0012768162153911611 -0.0041376094702911459 0.012507243981170646 0.00063809254463194516 -0.0041744651680374117 0.0010748938081741244 -0.0053219809028625508 0.010287428438339231 -0.0030394568413352994 0.0053771271133804359 0.010682406983680731 0.0083117795744991254 0.010162506837177289 -0.0054866102978706355 0.010822772722530374 0.0078821872488307951 -0.0032663058833312954 0.0116358820611 0.010669987291412362 -0.0025247598483085555 -0.0040952945663452226 0.007022027214736948 0.013408668737697606 -0.0034062160546302778 -0.0061180753968047875 -0.0033336739787006488 -0.0041044578048706091 0.0095495574505043024 0.0094531991832733208 -0.0066867045685768114 0.011346068967208857 -0.00089380119627000096 0.012362560622043599 -0.0012891764165115483 -0.0057388546654701146 0.014438539152431496 0.0088900878894805756 -0.0037192765895843571 0.01150431845979691 -0.0044575718738555994 -0.004204824588127147 -0.0065569669558715842 -0.0066334394687652676 0.0084368787976074177 0.0075757919865417555 0.011915360841827401 0.011410812564926154 -0.0022326688080406233 0.013618711476135257 -0.0029661342106628388 -0.0032125843874359107 0.011483338464126582 0.0080134727853393532 -0.00078014544166565619 -0.0011462697550201461 -0.0017896917730712936 0.013434164328918464 0.013457634772644039 0.011995211709365848 -0.0034012022844695979 0.0028773448117828337
leaf_weight=884 43 1704 87 72 61 59 72 30 60 128 672 48 184 62 98 47 804 125 238 37 60 284 127 64 60 53 58 88 99 35 45 146 268 92 512 48 37 63 130 40 47 30 31 36 33 295 80 37 36 32 42 53 55 32 1379 110 95 37 54 41 58 2245
leaf_count=884 43 1704 87 72 61 59 72 30 60 128 672 48 184 62 98 47 804 125 238 37 60 284 127 64 60 53 58 88 99 35 45 146 268 92 512 48 37 63 130 40 47 30 31 36 33 295 80 37 36 32 42 53 55 32 1379 110 95 37 54 41 58 2245
internal_value=-2.99614e-06 -0.000404905 0.000578653 0.000670985 0.00580597 -0.00152405 -0.00132876 -0.00438743 0.000531748 0.000761087 -3.16594e-05 0.00174786 -0.000643223 -0.00190188 -0.00272855 -0.0016871 0.00134814 0.00181618 0.0027977 0.00062413 0.00193496 -0.000974046 0.00322941 0.00473276 0 -0.00248357 -0.00462887 -0.00296894 -0.00140196 0.000445283 -0.00253901 -1.04505e-05 -0.000994378 0.0012133 -0.000205934 -0.000678112 -0.0001875 -0.00281034 -0.00179518 0.00874286 -0.000144543 0.000250396 -0.000533589 -0.00473267 -0.0012 0.000470309 0.00394595 0.00344865 0.00583019 0.00286957 0.000225 0.000273572 0.00076747 -0.000375269 -0.000899478 0.00206079 0.00382648 0.000887218 0.00825287 -0.00443137 -0.00178 0.000609532
internal_weight=12682 7502 5180 5093 133 1953 1894 190 4960 4306 1831 467 1364 692 570 472 2475 1903 1042 861 122 654 339 231 108 425 193 160 611 264 140 5549 1244 360 572 232 95 347 165 104 677 630 520 100 64 420 110 184 105 68 79 4305 2446 1859 1531 328 218 132 86 152 99 2391
internal_count=12682 7502 5180 5093 133 1953 1894 190 4960 4306 1831 467 1364 692 570 472 2475 1903 1042 861 122 654 339 231 108 425 193 160 611 264 140 5549 1244 360 572 232 95 347 165 104 677 630 520 100 64 420 110 184 105 68 79 4305 2446 1859 1531 328 218 132 86 152 99 2391
is_linear=0
shrinkage=0.02


Tree=4
num_leaves=63
num_cat=0
split_feature=15 13 13 5 0 14 13 0 12 3 13 12 0 14 0 13 13 10 12 12 0 0 13 12 13 10 10 12 4 0 0 0 13 0 4 13 13 4 0 10 4 4 14 0 5 5 10 10 12 4 12 11 10 12 13 12 0 11 13 14 14 12
split_gain=102.549 7.11202 8.10677 6.72599 6.92972 6.09221 5.67007 8.26036 5.25302 4.80911 4.05426 5.75009 8.33397 3.81746 3.63587 3.514 3.43818 9.63523 5.83977 6.85427 5.26557 8.35361 7.60166 6.43412 4.81354 6.57562 4.62952 4.55016 7.5957 6.52928 5.61913 5.25149 5.8221 5.32986 5.03366 5.58464 4.99148 4.57141 5.96498 4.8662 4.52132 4.48195 4.35202 4.25395 4.49091 4.68167 4.88313 6.44517 4.10534 4.04793 3.8751 3.68193 9.27972 4.07158 3.67763 3.52555 5.06626 4.14959 4.60671 3.51404 5.70339 3.58259
threshold=0.87500000000000011 1.4773508540412459 1.0268291355494279 25.500000000000004 17.245211283772353 7.5000000000000009 2.3389662179531832 33.200221425871895 460.07533087447752 1.0000000180025095e-35 0.48572695775001984 788.78653139312803 0.046531674917563097 3.5000000000000004 22.609134373283542 1.2261584123283578 1.9886120318010541 1.5000000000000002 105.10798234187089 47.92413279961675 0.20126460579392177 0.7397038692845036 2.1653065129670921 326.49835591879747 2.1237230861892855 4.5000000000000009 2.5000000000000004 202.14263425260853 0.019598340646665675 7.601976078316544 0.0083441282716020856 0.072013935346428262 1.7613576966239102 0.18538392708878318 0.0082307821903506648 1.5773095291055694 1.9165747549132688 0.00082561370615119546 1.1556768992476474 5.5000000000000009 0.0014869239051811976 0.00044412248455241428 2.5000000000000004 13.8020261405883 7.5000000000000009 1.5000000000000002 6.5000000000000009 3.5000000000000004 464.26358112991562 0.0028963891281080802 231.08092557237163 20.500000000000004 5.5000000000000009 299.45453091743974 1.7613576966239102 245.43658317578578 2.2307915107757892 18.500000000000004 2.3524520811474763 3.5000000000000004 5.5000000000000009 131.53080699774176
decision_type=2 2 2 2 2 2 2 2 2 2 2 2 2 2 2 2 2 2 2 2 2 2 2 2 2 2 2 2 2 2 2 2 2 2 2 2 2 2 2 2 2 2 2 2 2 2 2 2 2 2 2 2 2 2 2 2 2 2 2 2 2 2
left_child=-1 2 10 4 16 8 7 14 -4 13 11 -2 -13 -10 -6 -15 18 -18 19 -3 22 24 23 59 25 -22 -21 28 34 -30 36 32 -32 41 35 -20 50 38 39 -37 51 54 -35 44 45 -23 47 49 -44 -47 -29 53 -53 -24 -33 56 -49 58 -58 61 -61 -19
right_child=1 3 5 -5 6 -7 -8 -9 9 -11 -12 12 -14 15 -16 -17 17 20 27 26 21 43 40 -25 -26 -27 -28 30 29 -31 31 33 -34 42 -36 37 -38 -39 -40 -41 -42 -43 48 -45 -46 46 -48 55 -50 -51 -52 52 -54 -55 -56 -57 57 -59 -60 60 -62 -63
leaf_value=-0.0061038874616741361 -0.00172303162287216 0.012492252534099198 -0.00099559915501842519 -0.0040548572808853222 0.010130251780470846 -0.0040909758646766646 0.012887714077905673 -0.0035113813195053111 0.0010533959320106411 -0.0052155412848053032 0.0060731974116256639 -0.00077632173396722235 0.012115309409602731 -0.0024721485884246874 0.012063124930859743 -0.0069992578003463899 -0.0048769905671318271 -0.0060382102785903951 0.012265889004981424 0.0096800270779266295 -0.0032301081897322791 0.0084204753985397396 0.0086629557729545684 0.010703510545433526 -0.0032622632906780247 0.011684083953493697 -0.0044130159848175237 -0.0058694109545875681 -0.0045122230978790158 0.0086049418730766367 0.010896544583785417 -0.0022268975845838668 0.0068702749393342796 0.0096434034894334886 0.012169522843283095 0.0075271412013315246 0.013019924418337237 -0.0044289007330718813 0.032510134296229086 0.012003341262993707 0.012388171238054291 0.013096519342888061 0.0068392669807800215 -0.0047701573925743018 0.011848550419143686 0.007822810506343085 -0.0053019979136524143 -0.0050777898621566743 -0.0066499629061336661 -0.0045529820557651491 -0.0019255003558326855 -0.0044851053667838946 0.011453776110322203 0.011593070352782444 -0.0046923233166528888 -0.0032025089351425074 0.0090810940763116754 -0.0022984623632059174 0.012980050905127341 0.010042102207545476 -0.0034773633719612108 -0.0025911213260848952
leaf_weight=122 878 45 1687 87 58 59 56 47 72 30 4261 267 92 55 47 32 81 39 62 36 78 693 428 32 364 44 115 41 39 34 74 49 53 354 43 254 47 91 34 38 39 30 429 42 44 35 59 35 35 83 226 48 55 30 42 66 84 42 34 70 46 90
leaf_count=122 878 45 1687 87 58 59 56 47 72 30 4261 267 92 55 47 32 81 39 62 36 78 693 428 32 364 44 115 41 39 34 74 49 53 354 43 254 47 91 34 38 39 30 429 42 44 35 59 35 35 83 226 48 55 30 42 66 84 42 34 70 46 90
internal_value=-2.19191e-05 0.000155879 -0.000239171 0.000728939 0.000824836 -0.00135227 0.00439234 0.00233987 -0.00114971 -0.00430526 0.000152391 -0.000854604 0.00127222 -0.0028625 0.00545283 -0.00565909 0.000669977 0.000187077 0.00126059 -0.0020203 0.00040217 -0.000245305 0.00166059 -0.00107194 -0.00245996 0.00095935 -0.00406579 0.00158806 0.00305034 -0.00294595 0.000954381 0.00164761 0.00545312 0.00112553 0.00389675 0.0032875 -0.00139048 0.00243541 0.00354128 0.00258703 0.00292512 -0.00277049 0.00170696 0.000638752 0.000865646 0.000616608 -0.000997722 -0.000152632 0.000425806 -0.00401681 -0.00245522 0.00245196 -0.000942308 0.00322004 -0.00497826 0.00159542 0.00294898 0.00445963 0.00636975 -0.00218699 0.000324786 -0.00444615
internal_weight=12682 12560 7433 5127 5040 1935 208 152 1876 189 5498 1237 359 159 105 87 4832 2661 2171 196 2580 1703 877 277 486 122 151 1975 595 73 1380 1066 127 939 522 479 314 417 326 292 600 121 818 1217 1175 1131 438 379 464 118 267 561 103 458 91 261 195 160 118 245 116 129
internal_count=12682 12560 7433 5127 5040 1935 208 152 1876 189 5498 1237 359 159 105 87 4832 2661 2171 196 2580 1703 877 277 486 122 151 1975 595 73 1380 1066 127 939 522 479 314 417 326 292 600 121 818 1217 1175 1131 438 379 464 118 267 561 103 458 91 261 195 160 118 245 116 129
is_linear=0
shrinkage=0.02


Tree=5
num_leaves=63
num_cat=0
split_feature=10 0 2 13 1 5 2 0 0 3 13 13 13 1 0 14 0 13 0 13 0 10 2 0 2 13 14 0 11 1 1 13 2 10 13 14 11 0 1 1 13 13 13 11 1 1 13 1 1 1 2 14 14 2 1 2 0 0 13 11 1 0
split_gain=6.5679 5.64618 5.68993 7.71227 5.94806 5.42359 13.4538 4.79922 4.62967 4.5574 5.40059 4.47752 6.617 6.21897 8.79931 5.15568 4.28068 9.12333 8.94863 4.41545 5.86984 4.01081 3.81296 7.4369 7.27393 7.56117 4.89531 7.92276 5.13613 4.50289 6.99919 4.48988 4.24967 3.76711 3.74371 3.71567 6.68483 7.75941 3.52711 4.5998 3.47472 3.47169 3.44467 7.67938 3.41064 7.795 3.27144 3.04959 10.2831 5.3036 6.20656 4.49538 4.47333 4.06379 6.47292 3.85929 4.53636 3.50307 3.77833 3.45024 2.9277 4.64311
threshold=4.5000000000000009 0.0089188362719521668 1.0000000180025095e-35 2.6457673218608475 0.065550134028673976 18.500000000000004 43.500000000000007 0.24705744307605901 0.3373143427545568 3.5000000000000004 2.4258362434905405 2.3023001864645365 1.4773508540412459 0.019187110837966606 7.601976078316544 2.5000000000000004 0.11939539548136281 0.33406147007955611 0.28616464741653824 1.325191918881389 0.17225366820617996 3.5000000000000004 18.500000000000004 29.232369976313191 39.500000000000007 1.8113292089754534 4.5000000000000009 1.856139241575919 16.500000000000004 0.17320403446871899 0.0078342069261432782 2.1413793344415741 81.500000000000014 5.5000000000000009 1.4484191614580699 1.0000000180025095e-35 12.500000000000002 0.72357910410693971 0.043838257636157417 0.068956914227205443 1.8877656212921121 2.1840850950931925 2.260487658480796 19.500000000000004 0.05635452509594456 1.0000000180025095e-35 2.617937844322157 0.016179889417426836 0.22545869461403298 0.75152061132890202 30.500000000000004 1.0000000180025095e-35 3.5000000000000004 3.5000000000000004 0.062053933249629885 3.5000000000000004 2.0101261900206908 0.72357910410693971 1.1070203004240617 4.5000000000000009 0.24121584078501399 3.5862138123568488
decision_type=2 2 2 2 2 2 2 2 2 2 2 2 2 2 2 2 2 2 2 2 2 2 2 2 2 2 2 2 2 2 2 2 2 2 2 2 2 2 2 2 2 2 2 2 2 2 2 2 2 2 2 2 2 2 2 2 2 2 2 2 2 2
left_child=11 46 4 5 42 6 7 -4 -9 10 41 12 16 -13 15 21 -1 -18 19 20 -19 -15 26 24 25 -24 35 29 60 30 -28 -27 -25 -5 47 36 37 -14 40 -40 -32 -10 -3 -44 45 -38 -2 51 52 -50 -51 -20 53 54 -49 57 -57 59 -59 -53 61 -29
right_child=1 2 3 33 -6 -7 -8 8 9 -11 -12 13 22 14 -16 -17 17 18 34 -21 -22 -23 23 32 -26 31 27 28 -30 -31 38 -33 -34 -35 -36 -37 44 -39 39 -41 -42 -43 43 -45 -46 -47 -48 48 49 50 -52 55 -54 -55 -56 56 -58 58 -60 -61 -62 -63
leaf_value=-0.00035610360312087863 0.0089525528498572721 0.0087913250209728493 0.013803872716137412 0.0093325092512991682 -0.004697807859392427 -0.0039006736516112995 0.012980846358369469 -0.0055382630408859603 0.0077012173605895563 -0.0050146785346863523 0.010798947369903597 -0.0036340331402600866 -0.0013179922068692208 -0.0061682997409716923 -0.0056743101588023846 0.012158953999961888 0.011938349240326326 -0.0010415886148138754 -0.0041382404522018494 -0.00449651065061679 -0.003016786224259427 0.008377303717318086 0.012752581441390038 -0.005705408324157695 0.01228141795421025 -0.0038034222831960477 -0.0015026125886634122 -0.0015527235132545237 -0.0069884601788716876 -0.0046888223540340144 0.012098774194207422 0.0095172915142325825 0.0095602183269516243 -0.0037467040231805538 -0.0036234685439883664 0.0075448431647971064 -0.0039181163710549074 0.0122507576088866 -0.0031746087783734024 0.013571299997261069 0.010797496483641674 -0.00061308920386800032 -0.0044200843072837873 0.0085771840114410216 -0.0063431836377714481 0.011433311555234402 0.011302769054904047 0.013424049671234988 -0.0037209510944796521 0.011937574422331761 -0.0039490708947458762 -0.0023819824522867705 0.0037397267161034622 0.013733873877707428 -0.0018777474801589024 0.014616030262011392 -0.0022285293502188708 -0.0021871234244242289 -0.0055861756146534701 0.007545660121979614 0.00015584118713917404 -0.0056263298715156116
leaf_weight=5555 302 155 42 54 43 45 33 34 333 44 157 262 75 38 78 111 66 224 70 44 289 42 54 33 46 62 464 57 31 34 35 33 50 150 42 1400 114 38 30 43 56 243 95 72 62 32 48 60 177 48 51 171 162 49 66 45 32 113 33 184 65 33
leaf_count=5555 302 155 42 54 43 45 33 34 333 44 157 262 75 38 78 111 66 224 70 44 289 42 54 33 46 62 464 57 31 34 35 33 50 150 42 1400 114 38 30 43 56 243 95 72 62 32 48 60 177 48 51 171 162 49 66 45 32 113 33 184 65 33
internal_value=-8.63887e-05 0.00101459 0.000478348 0.00117782 -0.00168852 0.00195064 0.00229763 0.00180094 0.00145074 0.00177121 0.00214986 -0.000274217 -0.000181818 -0.00206391 6.66667e-05 0.00238542 -0.000494253 -0.00130669 -0.00156797 -0.00368817 -0.00314786 -0.00145679 0.000638343 0.00286022 0.0049898 0.00278667 0.000396109 -0.000845701 -0.00448128 0.000177979 0.000569157 -0.000604167 -0.00211905 -0.00233171 -0.000657975 0.00100929 -0.000925466 0.00296491 0.00410909 0.000783784 0.00671739 0.00124437 -0.000736842 -0.00272619 -0.00305263 -0.00134694 0.00329915 -0.000458003 0.000550489 -0.00230325 0.00138 -0.00141448 0.00289349 0.00510227 0.00313386 -0.000825561 0.00330769 -0.00147012 -0.00406803 -0.00038764 -0.0029359 -0.00525275
internal_weight=12709 1850 1500 1135 365 931 886 853 811 777 733 10859 10328 531 269 191 7481 1926 1860 557 513 80 2847 278 195 149 2569 848 186 662 628 95 83 204 1303 1721 321 113 164 73 91 576 322 167 208 146 350 1261 613 276 99 648 337 175 126 578 77 501 146 355 155 90
internal_count=12709 1850 1500 1135 365 931 886 853 811 777 733 10859 10328 531 269 191 7481 1926 1860 557 513 80 2847 278 195 149 2569 848 186 662 628 95 83 204 1303 1721 321 113 164 73 91 576 322 167 208 146 350 1261 613 276 99 648 337 175 126 578 77 501 146 355 155 90
is_linear=0
shrinkage=0.02


Tree=6
num_leaves=63
num_cat=0
split_feature=15 13 12 12 13 1 1 1 12 2 10 12 12 1 2 13 2 13 12 13 1 12 13 2 12 14 1 12 3 12 12 5 2 12 11 14 12 13 13 12 14 12 12 13 13 13 13 1 1 10 1 13 12 12 14 10 12 13 13 14 10 13
split_gain=110.918 6.9451 7.51133 6.3222 7.33967 8.96119 9.18037 6.27713 6.25776 6.55614 6.21122 5.95388 5.16556 4.05173 8.05733 6.96441 4.88325 4.07379 7.16832 4.50083 4.0732 4.11219 6.57633 6.03153 4.01009 3.97219 3.87229 4.8865 5.56689 3.86918 3.84452 3.6193 3.57227 4.33404 3.47159 3.39109 3.78757 4.57071 4.88745 4.81266 3.73051 4.09581 3.38447 3.27867 4.677 3.13825 7.01915 3.86938 6.3661 5.97806 3.20614 3.31077 3.13213 9.94218 7.20591 5.4481 5.42942 4.46393 6.66401 3.606 10.0614 6.72901
threshold=0.87500000000000011 1.4773508540412459 95.9226994014751 202.14263425260853 2.1737762270490188 0.0078342069261432782 0.025336727169367839 1.3007851244699362 231.08092557237163 8.5000000000000018 2.5000000000000004 193.07423356543882 228.07971717178944 0.29031718396564338 8.5000000000000018 2.3132209454018962 14.500000000000002 2.1737762270490188 182.91351558326195 2.8807543706005769 0.14235788568736171 148.42844442151039 1.8493816574988 1.5000000000000002 213.19601507753649 1.0000000180025095e-35 1.0000000180025095e-35 353.36827132954835 1.5000000000000002 329.15463673980702 21.645386778242774 26.500000000000004 31.500000000000004 143.19032832170905 16.500000000000004 2.5000000000000004 309.07112513061048 1.8011940974429013 1.6036241188663036 402.34183646719856 5.5000000000000009 254.0202498999225 247.49763857160556 1.750802854340705 1.9433365594072181 2.2385436355515296 1.8387495799863955 0.012529819062721548 0.063976798905908655 6.5000000000000009 0.044730513706002055 1.9886120318010541 222.49180027206873 252.67816076682593 1.5000000000000002 3.5000000000000004 237.83188763253466 1.0142869489224795 0.80082003366056009 5.5000000000000009 2.5000000000000004 1.043595059032373
decision_type=2 2 2 2 2 2 2 2 2 2 2 2 2 2 2 2 2 2 2 2 2 2 2 2 2 2 2 2 2 2 2 2 2 2 2 2 2 2 2 2 2 2 2 2 2 2 2 2 2 2 2 2 2 2 2 2 2 2 2 2 2 2
left_child=-1 52 30 11 5 12 -7 10 43 42 -6 13 24 16 15 -15 17 20 19 -19 21 22 23 -4 -5 29 -12 28 -28 -14 -3 32 33 -16 -13 -27 40 38 -38 -40 -37 -42 -10 -8 -45 46 -32 49 -49 -47 51 -48 55 54 56 59 -54 58 -56 -2 61 -61
right_child=1 2 3 4 7 6 8 -9 9 -11 26 34 25 14 31 -17 -18 18 -20 -21 -22 -23 -24 -25 -26 35 27 -29 -30 -31 45 -33 -34 -35 -36 36 37 -39 39 -41 41 -43 -44 44 -46 47 50 48 -50 -51 -52 -53 53 -55 57 -57 -58 -59 -60 60 -62 -63
leaf_value=-0.0068486909752942535 -0.00043675808866329826 0.0094204969569940296 -0.0037659236387488273 0.00016145354616458718 -0.0048313836949206747 0.011914344073557298 0.014300022573474678 -0.0065031411639711757 -0.0063600660380090804 0.0098684153293953168 0.008539861803227326 0.0091221204097957729 -0.0016744107219936577 -0.0055464140706355195 0.010633573994408287 0.0025613518790778577 0.014067521819013785 0.0054925508023019633 -0.0067688238108145086 0.010700746449976465 0.011491605661881437 0.0098958928569348546 0.0085606230414523223 -0.0062622943707833214 -0.004443083017475695 0.0090487718984033991 -0.0026812299402518927 -0.0054202087532553376 0.0093269456839479223 -0.0050873614821749236 -0.0032633918086937188 -0.0047918013490145482 0.010149835097207634 -0.0023824555515419379 0.013089404994168987 0.0093376830852292345 -0.0032636532947633336 -0.0049625256402463869 0.011270073825407075 -0.0005868049823977195 -0.0071790702075384691 0.0058261395217501823 -0.0010396489592796954 -0.0051871112829880864 0.011796357351456512 -0.0051852857251650872 0.012726680834162245 0.012014637152576047 -0.0023058288622150071 0.0079215711605560742 -0.0037485830721148083 0.0079667146105103729 0.008008981121011614 -0.00055369927248165144 0.011267106668424277 -0.0045042283822500553 -0.0041445141058923515 0.01335952480492951 -0.0002684894543210348 -0.0027890181446591634 -0.0055480110635190713 0.011432871867040416
leaf_weight=131 1152 42 103 62 98 122 42 33 34 278 198 106 78 56 56 42 32 517 60 45 38 334 198 30 82 226 197 33 45 41 97 36 96 63 55 179 63 127 45 33 30 50 357 36 48 148 35 52 158 53 66 85 62 5539 33 69 34 136 111 174 38 90
leaf_count=131 1152 42 103 62 98 122 42 33 34 278 198 106 78 56 56 42 32 517 60 45 38 334 198 30 82 226 197 33 45 41 97 36 96 63 55 179 63 127 45 33 30 50 357 36 48 148 35 52 158 53 66 85 62 5539 33 69 34 136 111 174 38 90
internal_value=-8.00944e-05 0.000111138 0.000676522 0.00098933 0.000338061 0.000940021 0.00237255 -0.00158347 0.0015804 0.000802985 -0.00108042 0.00187259 -0.000352016 0.00152197 -0.000394286 -0.00523232 0.0020162 0.00182353 0.000638844 0.00134636 0.00286648 0.00248949 0.00089759 -0.00252239 -0.00384828 0.000226804 -0.000122363 -0.00165942 -0.000650206 -0.00315 -0.00119132 0.0015 0.00249074 0.00015 0.00554321 0.000766578 -0.000109848 -0.00177695 0.000690141 0.00402532 0.00160769 -0.00195062 -0.000862245 0.00565354 0.00327059 -0.00155108 6.33803e-05 -0.00266505 -0.000748815 -0.00464356 0.00234225 0.00428099 -0.000279339 -7.06558e-05 0.00307162 -0.00108793 -0.00162887 0.00469039 0.0021931 -0.000823368 -0.00276568 -0.00135094
internal_weight=12709 12578 5140 4404 2537 1933 917 604 795 669 571 1867 1016 1706 349 98 1357 1325 622 562 703 665 331 133 144 872 473 275 242 119 736 251 215 119 161 753 527 268 141 78 259 80 391 126 84 694 283 411 210 201 186 120 7438 5915 376 1523 96 280 144 1454 302 264
internal_count=12709 12578 5140 4404 2537 1933 917 604 795 669 571 1867 1016 1706 349 98 1357 1325 622 562 703 665 331 133 144 872 473 275 242 119 736 251 215 119 161 753 527 268 141 78 259 80 391 126 84 694 283 411 210 201 186 120 7438 5915 376 1523 96 280 144 1454 302 264
is_linear=0
shrinkage=0.02


Tree=7
num_leaves=63
num_cat=0
split_feature=15 13 12 12 13 1 1 12 1 12 2 10 12 12 1 12 3 12 1 2 13 2 13 12 13 12 13 2 13 5 2 12 12 10 12 11 12 5 2 13 13 13 13 1 1 10 1 13 13 10 2 1 5 2 12 12 12 13 13 10 12 12
split_gain=107.263 6.27547 7.26317 5.63532 6.84365 8.67697 9.33947 6.41419 6.37812 6.23761 6.09572 5.33344 5.16556 4.01009 3.87229 4.8865 5.56689 3.84452 3.66598 8.05733 6.96441 5.03853 4.59122 6.74997 4.83003 4.35978 4.95302 4.93043 4.88364 3.6193 3.57227 4.33404 3.54676 5.55819 3.58609 3.47159 3.38447 3.35019 6.08864 3.27867 4.677 3.13825 7.01915 3.86938 6.3661 5.97806 3.20614 3.31077 3.11334 5.93029 2.93093 2.92688 2.88209 2.74981 2.74437 2.66576 9.94218 4.51167 6.33762 4.50746 3.93927 3.63389
threshold=0.87500000000000011 1.4773508540412459 95.9226994014751 202.14263425260853 2.1737762270490188 0.0078342069261432782 0.025336727169367839 231.08092557237163 1.3007851244699362 193.07423356543882 8.5000000000000018 2.5000000000000004 228.07971717178944 213.19601507753649 1.0000000180025095e-35 353.36827132954835 1.5000000000000002 21.645386778242774 0.29031718396564338 8.5000000000000018 2.3132209454018962 14.500000000000002 2.1737762270490188 182.91351558326195 2.8807543706005769 148.42844442151039 1.8493816574988 3.5000000000000004 1.8011940974429013 26.500000000000004 31.500000000000004 143.19032832170905 156.60385809002796 5.5000000000000009 185.53923539496924 16.500000000000004 247.49763857160556 4.5000000000000009 13.500000000000002 1.750802854340705 1.9433365594072181 2.2385436355515296 1.8387495799863955 0.012529819062721548 0.063976798905908655 6.5000000000000009 0.044730513706002055 1.9886120318010541 2.260487658480796 5.5000000000000009 18.500000000000004 1.7185897099977807 2.5000000000000004 3.5000000000000004 237.83188763253466 222.49180027206873 252.67816076682593 1.0142869489224795 0.71903026741185527 3.5000000000000004 154.90355959669282 242.37009404797945
decision_type=2 2 2 2 2 2 2 2 2 2 2 2 2 2 2 2 2 2 2 2 2 2 2 2 2 2 2 2 2 2 2 2 2 2 2 2 2 2 2 2 2 2 2 2 2 2 2 2 2 2 2 2 2 2 2 2 2 2 2 2 2 2
left_child=-1 55 17 9 5 12 -7 39 11 18 36 -6 13 -5 54 16 48 -3 21 20 -20 22 25 24 -24 26 28 32 -4 30 31 -21 -27 34 -34 -11 -9 38 52 -8 -41 42 -19 45 -45 -43 47 -44 -16 53 -39 -32 -12 -50 -13 59 57 58 -57 -2 -61 -59
right_child=1 2 3 4 8 6 7 10 -10 35 37 14 -14 -15 15 -17 -18 41 19 29 -22 -23 23 -25 -26 27 -28 -29 -30 -31 51 -33 33 -35 -36 -37 -38 50 -40 40 -42 43 46 44 -46 -47 -48 -49 49 -51 -52 -53 -54 -55 -56 56 -58 61 -60 60 -62 -63
leaf_value=-0.0067117171557883638 -0.0010398521610064826 0.0092320870178541452 0.0061744033842929015 0.00015822447524129756 -0.0047347560210222643 0.011676057192086154 0.014014022122005176 -0.0062328647172489047 -0.0063730783406917447 0.0089396780015998621 0.010072149393095912 -0.0031423213529177653 0.00079522733512315646 -0.0043542213571261803 -0.0063957809597425808 -0.0053118045781902273 0.0091404067702689669 -0.0031981239725198487 -0.0054354857892228116 0.010420902514520129 0.0025101248414962996 0.013786171382633512 0.005382699786255927 -0.0066334473345982213 0.010486731520976936 0.012739618050209369 0.0083290015824083949 0.01245837034060167 -0.0077710136551118495 -0.004695965322034255 0.012450339063408498 -0.0023348064405110946 -0.0019646493069254058 0.012867509385572334 0.010982480888008296 0.012827616894285613 -0.0010188559800941022 -0.0030790965443901717 -0.0025274953365582854 -0.0050833690573283173 0.011560430204427386 -0.0050815800106617818 0.012472147217479001 0.011774344409524531 -0.0022597122849707051 0.0077631397373449573 -0.0036736114106725106 0.0078073803183001727 0.012506102735271085 -0.0041094722958027498 0.009739287458782827 0.0061122351329519374 0.023085934927758966 -0.0019188092977540183 0.0088672180055254478 0.011294641008596286 -0.000542625287032017 0.010160089587230256 -0.0014113945310998766 -0.00051611420949804199 -0.0067480344796593704 0.015427166770408328
leaf_weight=131 1454 42 108 62 98 122 42 34 33 106 33 55 872 82 48 33 45 97 56 56 42 32 517 60 45 43 207 56 32 36 42 63 175 33 49 55 357 41 37 36 48 148 35 52 158 53 66 85 44 63 137 54 30 42 143 33 5539 131 160 31 38 52
leaf_count=131 1454 42 108 62 98 122 42 34 33 106 33 55 872 82 48 33 45 97 56 56 42 32 517 60 45 43 207 56 32 36 42 63 175 33 49 55 357 41 37 36 48 148 35 52 158 53 66 85 44 63 137 54 30 42 143 33 5539 131 160 31 38 52
internal_value=-8.00944e-05 0.000107958 0.0006454 0.000953008 0.000338061 0.000919338 0.00232898 0.00153015 -0.00151736 0.00178694 0.000743284 -0.00101049 -0.000352016 -0.00384828 -0.000122363 -0.00165942 -0.000650206 -0.00119132 0.00142824 -0.000394286 -0.00523232 0.00189838 0.00170287 0.000446228 0.00113321 0.00280966 0.00120115 0.00436415 -0.00168794 0.0015 0.00249074 0.00015 0.00331561 0.00239535 0.00123556 0.00554321 -0.000862245 0.00300358 0.00592079 0.00565354 0.00327059 -0.00155108 6.33803e-05 -0.00266505 -0.000748815 -0.00464356 0.00234225 0.00428099 -0.00211111 -0.000653333 0.00132961 0.00534021 0.00965625 0.00273563 0.002 -0.000263207 -7.06558e-05 0.00307162 0.000917526 -0.00100919 -0.00597143 0.00531522
internal_weight=12709 12578 5140 4404 2537 1933 917 795 604 1867 669 571 1016 144 473 275 242 736 1706 349 98 1357 1325 622 562 703 347 356 140 251 215 119 300 257 224 161 391 278 100 126 84 694 283 411 210 201 186 120 197 149 178 96 63 86 198 7438 5915 376 193 1523 69 183
internal_count=12709 12578 5140 4404 2537 1933 917 795 604 1867 669 571 1016 144 473 275 242 736 1706 349 98 1357 1325 622 562 703 347 356 140 251 215 119 300 257 224 161 391 278 100 126 84 694 283 411 210 201 186 120 197 149 178 96 63 86 198 7438 5915 376 193 1523 69 183
is_linear=0
shrinkage=0.02


Tree=8
num_leaves=63
num_cat=0
split_feature=15 13 12 12 13 1 1 0 12 12 2 12 1 3 11 11 12 12 14 0 0 0 12 0 13 12 13 0 13 12 13 13 1 2 13 0 13 13 0 12 5 0 12 1 14 14 14 1 1 14 2 1 1 0 14 13 11 5 2 0 5 12
split_gain=107.3 6.20146 6.84064 5.75898 6.72788 8.39733 9.4999 7.75732 6.23761 5.61598 6.09572 5.16556 4.50114 5.58565 4.08177 5.89746 4.05402 4.01009 3.97219 4.87174 4.41031 3.89164 8.52965 8.1915 5.778 4.11814 4.64737 4.27616 4.02081 3.7729 3.77082 3.90447 3.66598 8.05733 6.96441 5.68961 5.48846 6.32261 5.71191 3.6303 3.6193 4.8952 3.96009 3.60822 3.57151 4.39 3.55094 3.54647 9.02739 6.23742 6.01863 5.15476 4.35245 4.34234 4.15472 3.47595 3.47159 3.38923 4.10775 4.89048 3.88312 4.49801
threshold=0.87500000000000011 1.4773508540412459 95.9226994014751 202.14263425260853 2.1737762270490188 0.0078342069261432782 0.025336727169367839 0.19745970961464951 193.07423356543882 231.08092557237163 8.5000000000000018 228.07971717178944 1.3007851244699362 1.5000000000000002 21.500000000000004 17.500000000000004 338.81098383506622 213.19601507753649 1.0000000180025095e-35 0.068134108205340646 0.18123423036948519 0.11939539548136281 788.78653139312803 0.28616464741653824 0.42405252879456473 602.82497256440354 1.3483428560598445 0.17225366820617996 1.4484191614580699 21.645386778242774 1.750802854340705 1.9433365594072181 0.29031718396564338 8.5000000000000018 2.3132209454018962 2.2307915107757892 2.1737762270490188 2.8807543706005769 1.1808650227325579 243.85803396612388 26.500000000000004 11.535073110961347 146.6551239224645 0.025336727169367839 3.5000000000000004 2.5000000000000004 2.5000000000000004 0.016179889417426836 0.22545869461403298 3.5000000000000004 3.5000000000000004 0.75152061132890202 0.062053933249629885 15.966107418679107 1.0000000180025095e-35 2.4778962122365007 16.500000000000004 20.500000000000004 44.500000000000007 10.180479666851317 4.5000000000000009 346.12646495770281
decision_type=2 2 2 2 2 2 2 2 2 2 2 2 2 2 2 2 2 2 2 2 2 2 2 2 2 2 2 2 2 2 2 2 2 2 2 2 2 2 2 2 2 2 2 2 2 2 2 2 2 2 2 2 2 2 2 2 2 2 2 2 2 2
left_child=-1 21 29 8 5 11 -7 16 32 30 -11 17 13 14 15 -9 55 -5 20 -20 -13 -2 23 25 -24 26 27 -23 47 -3 -8 -32 35 34 -34 36 -4 38 -38 -21 41 42 -35 -40 45 -17 -41 54 49 50 52 -50 -49 -53 -25 -6 -10 58 59 60 61 -12
right_child=1 2 3 4 7 6 9 12 56 10 57 18 -14 -15 -16 44 -18 -19 19 39 -22 22 24 28 -26 -27 -28 -29 -30 -31 31 -33 33 40 -36 -37 37 -39 43 46 -42 -43 -44 -45 -46 -47 -48 48 51 -51 -52 53 -54 -55 -56 -57 -58 -59 -60 -61 -62 -63
leaf_value=-0.0065774828126725993 3.7210907337392744e-05 0.0090474452774970612 0.0082956792135048651 0.00015505998573647872 0.008191720207052269 0.011442536048244429 0.013733741679565075 -0.0065632251791081144 0.0087608844415678708 -0.0018751496878598852 0.0097956467156516784 -0.0047363678720862088 -0.0062456167738779026 0.0085754427196732055 -0.0066413012399850844 -0.001846881700487053 -0.0037821596743059871 -0.0042671369299836486 0.0088716963348239378 -0.0052019552326443199 0.0069560355419275056 0.0075954109735532965 0.013417431678484882 -0.0044734053106828325 -0.00055899261171811433 -0.004131545870776545 -0.0044543537457349385 -0.0026479067295312221 -0.0034714825935714443 -0.0019258998946637719 -0.004981701676181745 0.011329221600338847 -0.0053267760734383622 0.008898356665089242 0.0024599223446663742 0.0098671330864580752 4.8107373084675945e-05 0.010652964114386893 -0.0029176021409512655 0.0090865197734778212 -0.0046020460155935614 0.0099606737006403458 -0.0024372417939217518 -0.0052027428365630617 -0.0035789878473435621 0.013210579553477438 -0.0023130606673730904 0.013177495169000571 -0.0035341799709470577 0.00037427453517290487 0.013609588098634209 0.012090379284999724 -0.001547246033468852 -0.0034084416795731442 -0.001123266922783781 0.013346935049223792 0.0125710645563999 -0.0027766143277401767 0.0114506455881628 -0.0025274209343478129 0.0040170483518754095 0.013138051412023852
leaf_weight=131 5531 42 627 62 94 122 42 50 106 391 60 84 33 64 50 89 37 82 379 44 35 181 45 71 39 81 41 239 42 694 36 48 56 50 42 191 428 44 32 93 36 117 48 35 115 35 237 60 172 160 46 49 63 48 570 37 55 35 31 62 58 32
leaf_count=131 5531 42 627 62 94 122 42 50 106 391 60 84 33 64 50 89 37 82 379 44 35 181 45 71 39 81 41 239 42 694 36 48 56 50 42 191 428 44 32 93 36 117 48 35 115 35 237 60 172 160 46 49 63 48 570 37 55 35 31 62 58 32
internal_value=-7.69473e-05 0.000111138 0.0006454 0.000943927 0.000322301 0.000898656 0.0022854 -0.00151736 0.00178694 0.0014799 0.000743284 -0.000352016 -0.00292449 -0.00232178 -0.00334706 -0.0024069 0.00211834 -0.00384828 0.000226804 0.000766578 -0.00315 -0.00025783 -0.00103669 -0.00132566 0.00515294 -0.0033849 -0.00263636 -0.0019905 -0.000450858 -0.00113704 0.00533858 0.0028 0.00142824 -0.000394286 -0.00523232 0.00189838 0.00136932 -0.000107407 -0.000762097 -0.000848 0.0015 0.00249074 -0.000787879 -0.00614706 -0.001075 0.001264 -0.000114804 -0.000240323 0.000864775 0.00308485 0.00575294 -0.00184444 0.00337097 0.00181633 -0.00127414 0.00377273 0.00554321 0.00300358 0.00384426 0.00280751 0.00475497 0.00729032
internal_weight=12709 12578 5140 4404 2537 1933 917 604 1867 795 669 1016 436 403 339 289 168 144 872 753 119 7438 1907 1823 84 542 461 420 1281 736 126 84 1706 349 98 1357 1166 539 495 374 251 215 98 67 239 124 330 1239 598 329 169 269 123 97 641 131 161 278 243 212 150 92
internal_count=12709 12578 5140 4404 2537 1933 917 604 1867 795 669 1016 436 403 339 289 168 144 872 753 119 7438 1907 1823 84 542 461 420 1281 736 126 84 1706 349 98 1357 1166 539 495 374 251 215 98 67 239 124 330 1239 598 329 169 269 123 97 641 131 161 278 243 212 150 92
is_linear=0
shrinkage=0.02


Tree=9
num_leaves=63
num_cat=0
split_feature=15 13 12 12 13 1 1 0 10 12 12 1 12 12 1 3 11 11 12 14 0 0 1 0 13 1 0 13 13 0 5 0 12 0 13 12 13 0 13 1 12 13 13 1 12 1 0 1 12 14 14 14 1 1 14 1 0 0 14 11 0 1
split_gain=107.188 5.88504 6.66269 5.54807 6.6131 8.12227 9.66167 7.75732 7.63727 6.3819 5.76425 5.24117 5.39633 5.16556 4.50114 5.58565 4.08177 5.89746 4.01009 3.97219 4.87174 4.41031 3.94146 7.33499 6.29932 5.70823 5.06842 5.48846 6.32261 5.71191 3.94857 3.89164 8.52965 8.1915 5.778 4.11814 4.64737 4.27616 4.02081 3.81641 3.7729 3.77082 3.90447 3.76503 3.6303 3.60822 3.60465 7.04493 3.68541 3.57151 4.39 3.55094 3.54647 9.02739 6.23742 5.15476 4.43572 4.34234 4.15472 3.47159 3.45411 4.38282
threshold=0.87500000000000011 1.4773508540412459 95.9226994014751 202.14263425260853 2.1737762270490188 0.0078342069261432782 0.025336727169367839 0.19745970961464951 2.5000000000000004 193.07423356543882 231.08092557237163 0.068956914227205443 316.28009265625303 228.07971717178944 1.3007851244699362 1.5000000000000002 21.500000000000004 17.500000000000004 213.19601507753649 1.0000000180025095e-35 0.068134108205340646 0.18123423036948519 0.29031718396564338 9.2843047257245725 2.4258362434905405 2.1979084574027339 2.2307915107757892 2.1737762270490188 2.8807543706005769 1.1808650227325579 1.5000000000000002 0.11939539548136281 788.78653139312803 0.28616464741653824 0.42405252879456473 602.82497256440354 1.3483428560598445 0.17225366820617996 1.4484191614580699 0.089887053869716252 21.645386778242774 1.750802854340705 1.9433365594072181 0.20771325241079561 243.85803396612388 0.025336727169367839 3.4724814873566108 0.16297907832935055 152.54952770325735 3.5000000000000004 2.5000000000000004 2.5000000000000004 0.016179889417426836 0.22545869461403298 3.5000000000000004 0.75152061132890202 1.6693733349401174 15.966107418679107 1.0000000180025095e-35 16.500000000000004 2.0101261900206908 0.57530716708894658
decision_type=2 2 2 2 2 2 2 2 2 2 2 2 2 2 2 2 2 2 2 2 2 2 2 2 2 2 2 2 2 2 2 2 2 2 2 2 2 2 2 2 2 2 2 2 2 2 2 2 2 2 2 2 2 2 2 2 2 2 2 2 2 2
left_child=-1 31 40 9 5 13 -7 8 -6 22 41 12 -12 18 15 16 17 -9 -5 21 -21 -15 26 24 30 -25 27 -4 29 -29 -24 -2 33 35 -34 36 37 -33 52 -13 -3 -8 -43 -41 -22 -31 48 -48 -28 50 -19 -46 58 54 56 -55 -54 -57 -35 -11 -45 -62
right_child=1 2 3 4 7 6 10 14 -10 59 11 39 -14 19 -16 -17 -18 49 -20 20 44 -23 23 25 -26 -27 46 28 -30 45 -32 32 34 38 -36 -37 -38 -39 -40 43 -42 42 -44 60 51 -47 47 -49 -50 -51 -52 -53 53 55 -56 57 -58 -59 -60 -61 61 -63
leaf_value=-0.0064459331564191485 3.6466689190639555e-05 0.0088664963719471152 0.008129765629234776 0.00015195878602174419 -0.0061244657568280125 0.011213685327279536 0.013459066845973772 -0.0064319606755259516 0.0089264775499897208 0.0085856667527365177 -0.0054998250629658329 0.012786084205991673 0.004671131048886226 -0.0046416405146444892 -0.0061207044384003415 0.0084039338652797477 -0.0065084752151853831 -0.0018099440664773071 -0.0041817941913839807 0.0086942624081274653 -0.0050979161279914292 0.0068169148310889584 -0.0049079137378468122 0.010742795506100675 0.0092098380608868179 -0.002045442564214124 0.010613319570602187 4.7145225622990949e-05 0.010439904832099157 -0.0028592500981322378 -0.0025376284402642037 0.0074435027540822318 0.01314908304491519 -0.0043839372044691769 -0.00054781275948375448 -0.0040489149533610201 -0.0043652666708202401 -0.0025949485949406004 -0.0034020529417000136 -0.0024555609525627807 -0.0018873818967704993 -0.0048820676426581059 0.011102637168332067 -0.0044331585723199575 0.008904789378008272 -0.0050986879798318088 -0.0055231463817830397 0.011899827808092045 0.010457501184060778 -0.0035074080903966911 0.012946367962407895 -0.002266799454025623 0.010781048168534646 -0.0034634963715281233 0.0003667890444694422 0.011848571699299733 0.012779500690498633 -0.0033402728459816801 -0.0011008015843280994 0.012319643265271907 0.011146741744221238 0.0067636318860465486
leaf_weight=131 5531 42 627 62 35 122 42 50 133 106 65 34 62 84 33 64 50 89 82 379 44 35 58 102 45 71 52 428 44 32 73 181 45 71 39 81 41 239 42 134 694 36 48 49 93 35 57 50 32 115 35 237 123 172 160 49 46 48 570 55 127 198
leaf_count=131 5531 42 627 62 35 122 42 50 133 106 65 34 62 84 33 64 50 89 82 379 44 35 58 102 45 71 52 428 44 32 73 181 45 71 39 81 41 239 42 134 694 36 48 49 93 35 57 50 32 115 35 237 123 172 160 49 46 48 570 55 127 198
internal_value=-8.63887e-05 0.000101598 0.000622058 0.000916686 0.000306541 0.000877973 0.00224183 -0.00151736 0.00211834 0.00174411 0.00142965 0.000683582 -0.00295313 -0.000352016 -0.00292449 -0.00232178 -0.00334706 -0.0024069 -0.00384828 0.000226804 0.000766578 -0.00315 0.00138137 -0.000508571 -0.00337853 0.0024023 0.00186892 0.00136932 -0.000107407 -0.000762097 -0.00559091 -0.00025783 -0.00103669 -0.00132566 0.00515294 -0.0033849 -0.00263636 -0.0019905 -0.000450858 0.00154328 -0.00113704 0.00533858 0.0028 0.00109627 -0.000848 -0.00614706 0.00488542 0.00238889 0.00797647 -0.001075 0.001264 -0.000114804 -0.000240323 0.000864775 0.00308485 -0.00184444 0.00575294 0.00181633 -0.00127414 0.00554321 0.002128 0.0028773
internal_weight=12709 12578 5140 4404 2537 1933 917 604 168 1867 795 669 127 1016 436 403 339 289 144 872 753 119 1706 349 176 173 1357 1166 539 495 131 7438 1907 1823 84 542 461 420 1281 542 736 126 84 508 374 67 191 107 84 239 124 330 1239 598 329 269 169 97 641 161 374 325
internal_count=12709 12578 5140 4404 2537 1933 917 604 168 1867 795 669 127 1016 436 403 339 289 144 872 753 119 1706 349 176 173 1357 1166 539 495 131 7438 1907 1823 84 542 461 420 1281 542 736 126 84 508 374 67 191 107 84 239 124 330 1239 598 329 269 169 97 641 161 374 325
is_linear=0
shrinkage=0.02


Tree=10
num_leaves=63
num_cat=0
split_feature=15 0 1 5 2 2 0 5 10 0 1 1 12 2 12 12 14 1 1 0 1 1 0 5 12 10 0 1 12 5 0 0 2 1 2 12 12 0 3 3 10 12 12 0 10 10 14 0 12 1 2 2 12 10 14 14 0 0 0 0 12 10
split_gain=101.367 5.71657 6.81053 5.42467 6.01424 12.1216 5.05282 4.42606 3.90773 8.92035 3.87856 8.36363 6.15067 4.74781 4.0443 3.99122 5.44549 7.90952 6.88531 5.81853 4.37413 6.03684 7.07026 5.07603 4.26029 9.037 3.88859 3.84428 3.73738 3.72355 3.70442 7.27562 18.114 5.95436 3.49933 6.20201 5.87892 5.44174 3.9211 5.11481 6.19714 4.72775 3.79201 3.38834 4.01304 3.21655 2.73812 2.63236 2.58158 2.57775 3.68732 2.8093 2.4358 2.68334 2.43197 4.10895 4.16067 2.40467 7.29595 6.34678 4.34384 3.71519
threshold=0.87500000000000011 0.75506957711051448 0.22944705603805676 25.500000000000004 49.500000000000007 61.500000000000007 0.72357910410693971 18.500000000000004 4.5000000000000009 0.017986400311000742 0.27560474050650791 0.33861456625005698 544.06154494873408 5.5000000000000009 191.31933384869993 121.44736071663975 3.5000000000000004 0.16686065035881389 0.025336727169367839 0.83136345313637106 0.11973317705817646 0.018813639325348196 3.0166403429930866 1.5000000000000002 343.68132310384129 3.5000000000000004 1.2057748116851346 0.010853456729120017 228.07971717178944 2.5000000000000004 1.0691217939737245 2.6015153511364111 7.5000000000000009 0.0083869906468266534 6.5000000000000009 353.36827132954835 202.14263425260853 2.357869001514358 2.5000000000000004 1.5000000000000002 5.5000000000000009 179.88927253701783 252.67816076682593 1.5402078177410752 3.5000000000000004 2.5000000000000004 1.0000000180025095e-35 1.2057748116851346 265.08308539690557 0.88384761738484252 38.500000000000007 23.500000000000004 196.75615208540702 5.5000000000000009 1.5000000000000002 1.0000000180025095e-35 1.2958241375028334 0.22669296517129009 0.15100066722293168 0.27105293125921787 243.85803396612388 6.5000000000000009
decision_type=2 2 2 2 2 2 2 2 2 2 2 2 2 2 2 2 2 2 2 2 2 2 2 2 2 2 2 2 2 2 2 2 2 2 2 2 2 2 2 2 2 2 2 2 2 2 2 2 2 2 2 2 2 2 2 2 2 2 2 2 2 2
left_child=-1 2 6 4 10 -6 8 -7 46 28 15 13 34 -12 -15 30 17 19 -18 -17 21 27 23 43 25 -19 -20 54 52 -28 33 47 -33 -3 35 36 37 -13 39 -36 41 -41 -43 44 -23 -38 -2 -32 -5 51 -51 -40 53 -10 55 56 -21 58 60 -59 -11 -61
right_child=1 3 -4 48 5 7 -8 -9 9 57 11 12 -14 14 -16 16 18 24 26 20 -22 22 -24 -25 -26 -27 29 -29 -30 -31 31 32 -34 -35 38 -37 45 -39 49 40 -42 42 -44 -45 -46 -47 -48 -49 -50 50 -52 -53 -54 -55 -56 -57 -58 59 -60 61 -62 -63
leaf_value=-0.0064451863660380318 -0.0015437993583385179 -0.0059842652047679048 -0.0046250434397584602 -0.0043564796912284546 0.012277027646113953 0.0102489949493064 -0.0058706175876165646 -0.0043062062059107831 0.0060340312934048512 0.00036539868956168674 -0.0054467810619931887 0.0037148474131691155 -0.0054259553251062801 0.0067629903022178263 -0.0049144494709358888 0.011808379390243734 0.0086058307849538902 -0.0010539443084949518 -0.004273316245733039 0.0088342858686805848 -0.0029558136736107079 0.0097743844722383774 0.0127681143069589 -0.0060180843259344564 0.012884281157601133 0.012770951373353458 0.0077772987155945474 -0.0039540981373268023 0.011837903174341396 -0.0034634240501094917 0.014799556727422232 -0.005371389614010855 0.0077633605176297676 0.0086243706647375611 -0.00089870812266928729 -0.0057174274920350678 0.013264743912611864 -0.0047325553367458008 0.0034426954369309293 -0.0019244933595929138 0.015232367806130114 0.013381813276352475 0.0086314916645891231 0.011538137130728128 -0.0041966148342394939 0.0096461035710903795 -0.00023460531030666587 0.0093145576826721838 0.0064648632833995915 0.0080068772214413296 -0.0050011593596051007 -0.0061242616352425294 -0.0021366097370190576 0.010231106735457178 -0.002221463464945117 0.011991448084747214 -0.0064462310435424008 -0.007127090669001088 0.012734383075078348 0.0061114015149253652 -0.0076869493675688185 -0.0040382968487296545
leaf_weight=122 1143 55 49 71 51 59 53 43 100 174 51 44 36 36 55 44 314 45 65 31 78 53 59 36 50 56 256 35 118 81 32 49 70 38 103 39 30 50 68 46 32 34 64 67 35 68 7331 127 41 193 51 37 41 134 121 72 34 33 66 183 33 66
leaf_count=122 1143 55 49 71 51 59 53 43 100 174 51 44 36 36 55 44 314 45 65 31 78 53 59 36 50 56 256 35 118 81 32 49 70 38 103 39 30 50 68 46 32 34 64 67 35 68 7331 127 41 193 51 37 41 134 121 72 34 33 66 183 33 66
internal_value=-0.000125895 4.85467e-05 -0.000197165 0.000779164 0.000936652 0.00479221 -0.000158084 0.000757282 -0.000122891 0.00109378 0.000733764 -0.000248555 0.000466518 -0.00474126 -0.00193478 0.00126996 0.00172081 0.00283721 0.000443515 0.00188889 0.00137942 0.00201838 0.00429482 0.00238542 0.00696053 0.0044902 -0.00128536 6.12245e-05 0.00339594 -0.000408284 -0.000586022 0.000566308 -0.00315 -0.00402128 0.000811628 -0.00128448 0.000196891 -0.00334737 0.00158665 0.00335 0.00541243 0.00357241 0.0060404 0.00396154 0.00132584 0.00361616 -0.000259351 0.0033625 -0.00352212 0.000165714 0.00129796 -0.00243396 0.0020942 0.00288511 0.000918919 0.00273913 -0.000878788 -0.000535971 0.00079562 -0.00183039 -0.00104808 -0.000712
internal_weight=12851 12729 9524 3205 3093 153 9475 102 9422 948 2940 1037 895 142 91 1903 1532 816 716 665 621 543 250 191 151 101 402 293 393 337 371 278 119 93 859 231 192 94 628 279 176 144 98 155 88 98 8474 159 112 349 244 105 275 234 258 137 65 555 273 282 207 249
internal_count=12851 12729 9524 3205 3093 153 9475 102 9422 948 2940 1037 895 142 91 1903 1532 816 716 665 621 543 250 191 151 101 402 293 393 337 371 278 119 93 859 231 192 94 628 279 176 144 98 155 88 98 8474 159 112 349 244 105 275 234 258 137 65 555 273 282 207 249
is_linear=0
shrinkage=0.02


Tree=11
num_leaves=63
num_cat=0
split_feature=15 13 5 13 12 5 1 13 1 1 12 13 13 13 5 5 12 1 10 11 12 12 13 14 14 1 14 13 10 13 13 13 12 13 12 12 11 1 10 12 14 13 12 12 10 14 1 13 13 13 10 10 14 10 12 12 5 1 13 3 1 13
split_gain=101.263 7.54408 5.60026 4.54963 11.164 6.50458 5.54118 4.48275 5.61877 8.7507 5.0557 4.45518 3.62062 5.79006 4.07413 8.23668 5.55101 3.76004 3.61557 4.80547 3.57255 5.43946 5.09557 3.49691 4.18471 3.59198 3.19949 3.03095 2.96366 3.46186 3.19626 3.94961 3.72026 2.99141 4.35027 6.01991 3.7244 3.66186 2.86197 3.92089 3.6128 3.57707 6.42462 4.95001 4.57909 7.20997 4.13964 3.81787 3.70038 3.72452 3.29656 3.21384 2.79401 2.69959 8.79719 7.1695 2.69893 2.77 4.21657 3.37729 3.83256 7.57112
threshold=0.87500000000000011 1.4635277635338317 25.500000000000004 2.1526370123646896 353.36827132954835 1.0000000180025095e-35 0.0068860157220807933 1.0007222943987559 0.22545869461403298 0.091677154016469614 399.52195683423639 0.71903026741185527 3.1018384738798042 2.9511099534682628 10.500000000000002 14.500000000000002 311.15392711988255 1.0853159477757492 2.5000000000000004 4.5000000000000009 361.57805232281959 341.32625469601271 2.112140945275756 2.5000000000000004 5.5000000000000009 0.16686065035881389 7.5000000000000009 0.71387089426428296 2.5000000000000004 1.0079240671469241 1.0973219865299362 1.433418810946955 202.14263425260853 1.4060337939449765 254.0202498999225 228.07971717178944 7.5000000000000009 0.0070852824784943856 2.5000000000000004 239.51476764622075 3.5000000000000004 1.8493816574988 148.42844442151039 198.23641897561876 4.5000000000000009 5.5000000000000009 1.0000000180025095e-35 1.8877656212921121 2.0290604060080617 1.9339987003859795 6.5000000000000009 3.5000000000000004 8.5000000000000018 2.5000000000000004 249.39187211895097 162.64057497511484 8.5000000000000018 0.31060017968590903 1.2374625233797358 1.0000000180025095e-35 0.019187110837966606 1.1950658255251729
decision_type=2 2 2 2 2 2 2 2 2 2 2 2 2 2 2 2 2 2 2 2 2 2 2 2 2 2 2 2 2 2 2 2 2 2 2 2 2 2 2 2 2 2 2 2 2 2 2 2 2 2 2 2 2 2 2 2 2 2 2 2 2 2
left_child=-1 7 3 5 12 26 -6 8 9 18 -10 -11 13 14 16 -16 17 53 52 -20 21 22 -7 25 -25 -22 38 -12 29 -9 32 33 -30 34 35 36 -32 -36 39 40 -3 42 -40 51 46 50 47 -43 49 -48 -46 -44 -2 54 55 -5 57 59 -59 60 -31 -62
right_child=1 2 -4 4 6 20 -8 28 10 11 27 -13 -14 -15 15 -17 -18 -19 19 -21 23 -23 -24 24 -26 -27 -28 -29 30 56 31 -33 -34 -35 37 -37 -38 -39 41 -41 -42 44 43 -45 45 -47 48 -49 -50 -51 -52 -53 -54 -55 -56 -57 -58 58 -60 -61 61 -63
leaf_value=-0.0063162826387172634 -0.00036729382497385999 0.010699854892424306 -0.0028434131566748722 -0.0052249284139888634 -0.00094543708608576084 0.0075102666191799554 -0.0066499188658878695 -0.004017951439802543 0.0075006625149781313 0.011366685829374284 -0.005409361386668028 0.011778019250659737 0.0094751937378973229 -0.0056823240209598596 0.014425104561982857 0.0047606225984987913 0.01140807090326188 -0.005719951426134422 -0.0015837730473134482 0.014051807463779698 0.0076506442484547497 -0.0026313576835712026 0.011677551380256874 0.00031358371430297184 0.012797156686717735 0.01289521426073394 0.011766520911625902 -0.0010800232796276709 -0.00460244080816242 -0.0009521076553914476 -0.00023564909305061834 -0.0043763211133591631 -0.0019235026449858329 0.013187520639424299 -0.0022493072766798508 0.012516329711973829 -0.0037898010806990002 -0.005028146910209124 -0.0044551892904469348 0.0007302970188442792 0.0061903253331274041 0.0082472616401428316 -0.00071692725753582211 -0.0018802272027532753 0.0077116846236069316 0.012546553758399651 0.0086556846376654745 -0.0035304071595664509 0.010659128491063789 -0.0042519945320783851 -0.0042217551430981893 0.0081225439648858182 0.012111159399166347 0.0022818963425251582 -0.0068036380310968706 0.012355458175862087 -0.0062175652519690953 0.013851588945630251 -0.0035320570509513693 -0.0032945103907561445 -0.0021673494464375053 0.01336263063581665
leaf_weight=122 4987 132 94 61 43 830 51 44 43 51 47 44 48 46 30 65 63 43 58 58 34 43 60 76 35 39 50 37 30 1237 152 32 56 38 111 45 33 45 135 410 97 38 36 353 191 48 30 263 49 45 40 65 54 1539 31 42 30 30 36 60 51 65
leaf_count=122 4987 132 94 61 43 830 51 44 43 51 47 44 48 46 30 65 63 43 58 58 34 43 60 76 35 39 50 37 30 1237 152 32 56 38 111 45 33 45 135 410 97 38 36 353 191 48 30 263 49 45 40 65 54 1539 31 42 30 30 36 60 51 65
internal_value=-0.000135232 3.91202e-05 0.000619863 0.00070864 -1.84198e-05 0.0011929 -0.00671579 -0.000368963 -6.28253e-05 3.76927e-05 -0.00420313 0.00602083 0.000303707 0.000165539 0.000340267 0.00435417 0.000122472 -9.2021e-05 -7.32842e-05 0.00340171 0.00241324 0.00190364 0.00224242 0.00496216 0.00266071 0.00835135 0.000503278 -0.00703529 -0.00115363 -0.000706564 -0.00242726 -0.00174617 -0.00595402 -0.00121882 -0.00175194 0 -0.00160215 -0.00431847 0.000371443 0.00146562 0.00355652 -0.00016847 -0.00131864 -0.000171429 0.000791489 0.00277857 -0.000511737 -0.00178146 0.002544 -0.000236842 0.00128448 0.00370588 -0.000154304 5.85424e-05 -0.00265185 0.000173077 -0.000541722 -0.000417568 0.00355224 -0.000606789 -0.000397341 0.00305983
internal_weight=12851 12729 5255 5161 2062 3099 94 7474 5379 5252 127 95 1968 1920 1874 95 1779 1716 5157 116 1117 933 890 184 111 73 1982 84 2095 1553 542 456 86 424 386 230 185 156 1932 639 229 1293 589 454 704 279 425 301 124 75 231 101 5041 1673 134 103 1509 1479 66 1413 1353 116
internal_count=12851 12729 5255 5161 2062 3099 94 7474 5379 5252 127 95 1968 1920 1874 95 1779 1716 5157 116 1117 933 890 184 111 73 1982 84 2095 1553 542 456 86 424 386 230 185 156 1932 639 229 1293 589 454 704 279 425 301 124 75 231 101 5041 1673 134 103 1509 1479 66 1413 1353 116
is_linear=0
shrinkage=0.02


Tree=12
num_leaves=63
num_cat=0
split_feature=15 11 5 2 2 11 12 12 12 12 5 12 12 10 2 1 5 12 12 2 10 1 1 1 12 12 12 10 12 2 3 1 14 2 11 12 2 2 12 14 12 1 14 12 12 1 1 1 11 11 12 12 12 2 11 14 12 10 14 11 1 14
split_gain=97.6488 6.38458 5.07224 17.5269 5.15308 3.57269 9.46624 4.96437 4.75541 5.03921 4.00283 10.4119 3.95173 3.70159 3.34557 7.93523 5.97358 5.8256 7.38708 5.61027 4.36841 4.19749 4.40522 3.82721 3.71525 4.27914 3.51025 3.34261 3.31765 3.86814 3.10259 3.07225 3.02561 2.83162 2.78385 2.76095 2.63795 2.92921 2.52786 3.22554 2.77539 2.4849 2.46281 6.03115 5.59243 8.91603 4.60107 5.50571 2.84416 7.32505 2.38351 9.54195 4.9517 5.25222 3.79242 3.7768 3.69752 3.46763 3.46425 3.08606 3.96266 3.5754
threshold=0.87500000000000011 9.5000000000000018 18.500000000000004 49.500000000000007 67.500000000000014 18.500000000000004 353.36827132954835 389.0231469071789 311.15392711988255 277.8068145955736 1.5000000000000002 107.97384163289807 169.50322661162087 7.5000000000000009 8.5000000000000018 0.27560474050650791 4.5000000000000009 202.14263425260853 283.53461904317697 3.5000000000000004 5.5000000000000009 0.12849544284116463 0.48748757766743128 0.080820933387784163 84.940501351522684 37.819717474393968 193.07423356543882 3.5000000000000004 304.20683054347211 18.500000000000004 4.5000000000000009 0.49603268678675244 2.5000000000000004 1.5000000000000002 23.500000000000004 356.16572921342765 7.5000000000000009 5.5000000000000009 144.77931476519527 4.5000000000000009 257.4228812869103 0.33861456625005698 4.5000000000000009 195.05481819065452 148.42844442151039 0.033064545418138011 0.035282800681469911 0.0070852824784943856 19.500000000000004 20.500000000000004 226.10958987870154 252.67816076682593 152.54952770325735 2.5000000000000004 2.5000000000000004 2.5000000000000004 263.28344138116694 2.5000000000000004 7.5000000000000009 2.5000000000000004 0.0068860157220807933 2.5000000000000004
decision_type=2 2 2 2 2 2 2 2 2 2 2 2 2 2 2 2 2 2 2 2 2 2 2 2 2 2 2 2 2 2 2 2 2 2 2 2 2 2 2 2 2 2 2 2 2 2 2 2 2 2 2 2 2 2 2 2 2 2 2 2 2 2
left_child=-1 50 3 5 -5 13 8 -8 9 10 34 -12 -13 14 15 20 21 32 31 -20 24 27 26 33 25 -3 -23 -16 29 -18 -31 -19 -17 -22 42 -30 37 -26 -4 40 -40 -14 43 44 45 48 47 -44 -7 -50 52 54 58 59 -52 -56 -53 -57 -2 61 -61 -54
right_child=1 2 38 4 -6 6 7 -9 -10 -11 11 12 41 -15 16 17 28 18 19 -21 23 22 -24 -25 36 -27 -28 -29 35 30 -32 -33 -34 -35 -36 -37 -38 -39 39 -41 -42 -43 46 -45 -46 -47 -48 -49 49 -51 51 56 53 -55 55 57 -58 -59 -60 60 -62 -63
leaf_value=-0.0061899569859429262 0.0001037095918057851 0.010269229708043746 -0.0051875335119207838 0.0116184332612771 0.00934145949931919 -0.0053950202209579069 -0.0063426843877118881 -0.0012965582230308925 0.011277253616251466 -0.0066675652704749309 -0.0068288468703466519 0.011736915349904375 0.0090307804208404896 -0.0033966337222560571 -0.005040452210881714 -0.0069074840995626196 -0.0030866048380003264 0.0069894660286427173 0.0076286813379818422 -0.0068273863408138263 0.0083276060808566942 0.0083632689873607818 0.0070572368524983806 -0.0022293481689481353 0.0057533616858691603 -0.0034384028551808577 0.013182782812467169 0.0095926231006046875 -0.0049503693130675689 0.010956586916222229 -0.002013264817281426 0.01275623195668512 -0.00194830722784749 0.010807974396443711 0.0086542677046106582 0.00247710933034738 -0.005369234635851248 0.008415755901069133 -0.0048930733019279596 0.01051338944492871 0.0063924342808650897 -0.0042390612473562688 -0.0014878598410089339 0.0095908408225999341 -0.00471841955351878 0.013017413908461607 -0.0059948106093740353 0.0096515426857456451 0.010317743635838107 -0.0037595626676393936 0.012013286988594061 -0.0026242391751156637 -0.0058204594479624025 0.011243524031748402 -0.00059357354129921272 0.010872746905988037 -0.00045186811616625632 0.013753558897714343 -0.0042197772429019408 -0.001892840670232694 -0.0043866134566561497 -0.0017164169476481562
leaf_weight=122 1024 49 31 52 31 33 32 42 42 53 42 37 31 78 32 49 81 33 36 54 259 52 107 52 2390 209 78 42 33 115 58 31 57 103 52 44 32 104 47 40 31 37 77 95 70 55 44 30 33 47 32 150 37 54 118 134 5255 42 33 495 52 41
leaf_count=122 1024 49 31 52 31 33 32 42 42 53 42 37 31 78 32 49 81 33 36 54 259 52 107 52 2390 209 78 42 33 115 58 31 57 103 52 44 32 104 47 40 31 37 77 95 70 55 44 30 33 47 32 150 37 54 118 134 5255 42 33 495 52 41
internal_value=-0.000135232 3.5978e-05 0.000569637 0.000676183 0.0097381 0.000524349 -0.000654162 -0.00744 0 -0.000377205 8.47953e-05 -0.00282432 0.00054717 0.000765255 0.000848086 0.000600752 0.00217418 -0.00275096 -0.000245161 -0.00393407 0.000874648 0.00416026 0.00545378 0.00279036 0.000588151 -0.00169112 0.00792366 0 0.000295181 0.00140392 0.00309195 0.00489231 -0.00633645 0.00352066 0.00089013 -0.00330769 0.000822319 0.000896994 -0.00305333 -0.00166387 -0.00402532 -0.00228986 0.000408247 0.00137126 -0.00032636 0.00164497 -0.00169737 0.000537037 -0.0015614 0.000469136 -0.00033985 -0.000142708 -0.000989062 -0.00232059 0.00317431 0.0024339 -0.000343692 0.00428249 -0.000130435 -0.00284026 -0.00229562 -0.00655696
internal_weight=12851 12729 5262 5113 83 5030 852 74 778 736 683 147 105 4178 4100 3458 642 260 154 90 3198 311 237 414 2784 258 130 74 331 254 173 64 106 362 536 77 2526 2494 149 118 78 68 484 333 238 168 151 107 113 80 7467 5731 1736 679 326 294 5405 176 1057 625 547 78
internal_count=12851 12729 5262 5113 83 5030 852 74 778 736 683 147 105 4178 4100 3458 642 260 154 90 3198 311 237 414 2784 258 130 74 331 254 173 64 106 362 536 77 2526 2494 149 118 78 68 484 333 238 168 151 107 113 80 7467 5731 1736 679 326 294 5405 176 1057 625 547 78
is_linear=0
shrinkage=0.02


Tree=13
num_leaves=63
num_cat=0
split_feature=15 13 5 0 0 13 12 0 12 1 0 13 1 0 1 14 12 0 10 0 13 12 13 13 12 0 12 0 10 0 11 14 5 0 13 12 11 13 14 14 14 11 10 12 12 1 14 12 0 10 12 12 11 0 1 12 13 0 11 0 14 12
split_gain=97.5119 6.97451 5.51183 9.43089 5.12412 4.78719 11.6769 8.59431 9.47416 7.18585 5.49561 4.48275 5.61877 10.143 5.50495 6.452 5.0557 4.86009 4.47169 4.65933 7.06132 8.73871 5.74498 5.38453 4.98213 4.4442 4.22746 3.96858 4.95866 9.77678 5.45757 6.90238 6.32352 6.27788 5.04602 4.82992 6.41561 5.55219 4.62318 4.72201 4.61998 6.82882 4.59542 7.95457 7.43 4.21049 5.45449 4.04363 3.56876 3.92502 4.75971 4.03633 3.49879 4.28093 3.48804 5.91691 3.39415 3.32199 3.24365 3.16557 5.12664 3.14527
threshold=0.87500000000000011 1.4635277635338317 25.500000000000004 17.245211283772353 37.40304651826677 2.1526370123646896 353.36827132954835 0.20126460579392177 309.07112513061048 0.0068860157220807933 0.77660950648531279 1.0007222943987559 0.22545869461403298 0.67580326840974925 0.020827878643257122 3.5000000000000004 399.52195683423639 1.9074612717026926 2.5000000000000004 0.098971719358311602 0.31490505028815313 386.15786907452184 0.78625498823342355 0.71903026741185527 473.18213607465503 12.160608398502257 185.53923539496924 1.0000000180025095e-35 2.5000000000000004 0.030062832454115413 12.500000000000002 2.5000000000000004 4.5000000000000009 0.24705744307605901 2.112140945275756 93.276196572516554 10.500000000000002 1.6838284183232761 1.5000000000000002 2.5000000000000004 3.5000000000000004 14.500000000000002 3.5000000000000004 110.63176799025418 105.10798234187089 0.052613141622500866 4.5000000000000009 252.67816076682593 0.6059448915685669 3.5000000000000004 182.91351558326195 229.58579531641877 2.5000000000000004 1.1556768992476474 0.17320403446871899 316.28009265625303 1.7707543403863932 0.28616464741653824 4.5000000000000009 0.35984745387458023 5.5000000000000009 243.85803396612388
decision_type=2 2 2 2 2 2 2 2 2 2 2 2 2 2 2 2 2 2 2 2 2 2 2 2 2 2 2 2 2 2 2 2 2 2 2 2 2 2 2 2 2 2 2 2 2 2 2 2 2 2 2 2 2 2 2 2 2 2 2 2 2 2
left_child=-1 11 3 5 -5 27 7 26 10 -8 48 12 13 18 17 -16 -14 52 19 -2 -21 23 -23 -22 -24 -12 -7 35 29 -29 31 54 -32 -33 40 56 -37 -38 -39 -40 -30 42 44 -44 -42 47 -47 -45 49 -9 57 -52 -15 -54 55 -31 -3 -51 -20 -46 -61 -28
right_child=1 2 -4 4 -6 6 9 8 -10 -11 25 -13 16 14 15 -17 -18 -19 58 20 21 22 24 -25 -26 -27 61 28 34 30 32 33 -34 -35 -36 36 37 38 39 -41 41 -43 43 45 59 46 -48 -49 -50 50 51 -53 53 -55 -56 -57 -58 -59 -60 60 -62 -63
leaf_value=-0.0060661578462240674 -6.1091948345071148e-05 -0.0050078635776065732 -0.0027430617622268994 0.010922561953102167 -0.0022567090490340381 0.0053610968011197184 -0.00090059717990341069 0.0092677076539694168 0.011808743415529071 -0.0065149337037312448 -0.00011711378206394229 -0.0015139848657276468 0.0073596866270018955 0.013324133461366988 0.012087483805458961 0.010088837211431913 -0.0047133158621137025 -0.0045273944801738518 0.0056700299227878401 0.011721077278742751 0.0074629849646883888 -0.0022124335451384524 0.011842716502626801 -0.0035601261583954802 -0.0019458818649487598 -0.0042124561642939897 0.011551043578150235 0.012581096874415998 0.0063085510799718312 0.01161323266642798 0.0070541732622200473 0.011577660471336841 -0.0068790047430324994 -0.0021305040426190746 0.010043234969242719 0.010877924700974635 -0.0048741141873361116 -0.0044753756206556443 0.0083748310063333168 0.0056378846203790191 -0.0054569047438175564 0.0078723548809856853 0.011514039614169285 -0.003063583460805157 -0.004585818154699473 0.0029493382455622187 -0.0070005363003700621 0.01090579179243548 -0.0051064333735634194 -0.0048669530055280054 -0.006334305727773 -0.004492858414201102 -0.0011381230818344257 0.014191941663461077 0.012403529788439656 -0.0013314269314031436 -0.0021380648914331246 0.0090288522776142532 0.013034392989266399 -0.0058086783740977756 0.0095690842371941899 0.0076908840751707432
leaf_weight=122 4070 30 94 161 50 426 43 55 42 46 821 2095 43 43 76 56 84 40 55 39 40 364 71 169 70 52 101 54 793 58 337 46 31 128 109 78 107 115 51 250 31 163 45 126 78 36 58 42 81 36 31 33 69 36 46 33 41 97 54 46 55 99
leaf_count=122 4070 30 94 161 50 426 43 55 42 46 821 2095 43 43 76 56 84 40 55 39 40 364 71 169 70 52 101 54 793 58 337 46 31 128 109 78 107 115 51 250 31 163 45 126 78 36 58 42 81 36 31 33 69 36 46 33 41 97 54 46 55 99
internal_value=-0.000147681 2.34093e-05 0.000581811 0.000669895 0.00480189 0.000492426 -0.000273931 6.29333e-05 -0.000895116 -0.00731111 -0.00122452 -0.000368963 -6.28253e-05 3.76927e-05 0.00348287 0.0066015 -0.00420313 0.00125926 -0.000186094 -0.000277363 -0.00172149 -0.00217902 -0.000747036 -0.00560952 0.00266197 -0.000386728 0.00197448 0.000996653 0.00138946 0.00274932 0.00208529 0.00403205 0.000428184 0.00136 0.000756791 -0.00035364 0.000229236 -0.000568702 0.00047482 0.00178146 0.000446404 -0.000760646 -0.00188803 -0.000318182 -0.00416114 -0.0016654 -0.00503158 0.000224852 -0.00340719 -0.00220553 -0.00352525 -0.00796923 0.0029396 0.000924528 0.00737681 0.00497826 -0.00525 -0.00132836 0.0038 -0.00254444 -0.000176471 0.00436816
internal_weight=12851 12729 5255 5161 211 4950 1963 1874 1248 89 1206 7474 5379 5252 320 132 127 188 4932 4823 753 714 505 209 141 873 626 2987 2315 733 679 311 368 174 1582 672 601 523 416 301 1473 680 517 307 210 262 94 168 333 252 197 64 148 105 137 91 71 133 109 179 101 200
internal_count=12851 12729 5255 5161 211 4950 1963 1874 1248 89 1206 7474 5379 5252 320 132 127 188 4932 4823 753 714 505 209 141 873 626 2987 2315 733 679 311 368 174 1582 672 601 523 416 301 1473 680 517 307 210 262 94 168 333 252 197 64 148 105 137 91 71 133 109 179 101 200
is_linear=0
shrinkage=0.02


Tree=14
num_leaves=63
num_cat=0
split_feature=15 11 3 2 2 11 0 12 12 10 12 0 0 12 14 12 10 12 11 2 1 12 12 10 11 11 2 1 2 10 2 12 12 0 12 12 12 12 1 12 11 14 10 0 0 12 0 12 1 12 0 14 0 12 11 12 12 12 0 10 11 11
split_gain=97.3751 5.73029 4.11546 8.01444 10.7637 3.46908 9.43997 6.17358 8.12776 5.3243 4.35118 4.16643 4.45607 10.4809 3.64959 3.67822 3.58531 3.34154 7.24312 3.33896 8.33663 5.33492 8.14301 4.60936 7.83783 5.85076 4.76281 4.6219 4.46599 4.21582 3.89386 3.53026 4.27914 3.81631 3.70234 3.82266 3.091 3.79894 3.07225 3.04215 3.22689 3.02561 2.85939 3.88762 2.85786 4.65585 4.59206 2.84357 2.79086 2.75968 2.73449 4.752 3.64232 5.48719 5.6588 4.01552 3.65736 5.31063 5.61036 3.44969 5.314 3.37695
threshold=0.87500000000000011 9.5000000000000018 12.500000000000002 49.500000000000007 65.500000000000014 18.500000000000004 0.16406106347410049 353.36827132954835 309.07112513061048 2.5000000000000004 257.4228812869103 0.89298515693235125 2.6015153511364111 105.10798234187089 1.5000000000000002 158.56524280932328 7.5000000000000009 160.54143922951815 19.500000000000004 8.5000000000000018 0.27560474050650791 202.14263425260853 283.53461904317697 3.5000000000000004 16.500000000000004 11.500000000000002 13.500000000000002 0.18303092991102324 3.5000000000000004 5.5000000000000009 9.5000000000000018 84.940501351522684 37.819717474393968 0.35984745387458023 71.954570975073793 57.324373148820406 198.23641897561876 107.97384163289807 0.49603268678675244 141.12978789421507 20.500000000000004 2.5000000000000004 5.5000000000000009 5.0268355802480036 10.811931788659427 265.08308539690557 8.0044489291462089 272.62302118634398 1.6543687203062774 75.035318839416277 0.7397038692845036 4.5000000000000009 0.14067246582715801 776.5424556517911 4.5000000000000009 98.672255390824532 426.14683039003415 524.70933179757765 0.32227127693247859 2.5000000000000004 8.5000000000000018 5.5000000000000009
decision_type=2 2 2 2 2 2 2 2 2 2 2 2 2 2 2 2 2 2 2 2 2 2 2 2 2 2 2 2 2 2 2 2 2 2 2 2 2 2 2 2 2 2 2 2 2 2 2 2 2 2 2 2 2 2 2 2 2 2 2 2 2 2
left_child=-1 50 3 5 48 16 9 8 10 -7 11 14 17 -14 -8 -16 19 18 -13 20 29 41 38 24 26 -25 27 -21 -24 31 -27 32 -3 49 35 -35 37 -11 -23 -15 -41 -22 43 -32 45 46 -45 -38 -5 -34 52 -52 -2 54 55 -54 -57 58 -58 60 -56 -53
right_child=1 2 -4 4 -6 6 7 -9 -10 36 -12 12 13 39 15 -17 -18 -19 -20 23 21 22 28 25 -26 30 -28 -29 -30 -31 42 -33 33 34 -36 -37 47 -39 -40 40 -42 -43 -44 44 -46 -47 -48 -49 -50 -51 51 61 53 -55 59 56 57 -59 -60 -61 -62 -63
leaf_value=-0.0059448346892995918 -0.00040572872002809569 0.010106606411711532 -0.002243348746286955 0.010485643589936249 0.0015169117177611291 -0.0026824701039077858 -0.0056367778041708227 -0.005490537607476682 0.01126604123457672 0.0095882284798086293 -0.0052381845989152081 -0.0033623103286847568 -0.0070491918074282369 0.0099164139991022894 0.0084035152743603628 -0.005179014757117191 -0.0034592208565738325 -0.0034796170939832651 0.01213297217654823 -0.001127044483130737 -0.0068955054391708079 0.0068922867889222418 0.0074125240110696211 -0.0072238654095009734 -0.0049460161342379828 0.011848203382707699 -0.0010368914952500585 0.012188899142228387 -0.0067387842761399861 0.0083963222181215619 0.011473680425488216 0.0055757654578140149 -0.0033356355029888541 0.0075614508114809631 0.011437146334425243 -0.0055198501545616809 0.012102475126948873 -0.0016504895889329775 0.012503449593192694 -0.0046501042243913739 0.010277904525133988 -0.0020229864517099117 -0.00017188241312047659 0.0080682547686533289 0.010375683449876619 0.0082488539809323497 -0.0070582556379777906 0.008211494556863012 0.011362353339558196 -0.008315309567334471 0.0094927337786475004 0.0092553195844628892 0.0105777859680728 0.011231761255517139 -0.00037162823067502518 -0.003368087458710587 -0.0038602071573820675 -0.0032413474993638136 0.011857804818804675 -0.0020023867915433869 0.010816570064916214 -0.0030226792578530847
leaf_weight=122 5694 49 91 31 72 32 49 53 34 50 67 33 43 30 59 58 78 49 47 30 49 33 36 31 47 33 182 68 54 414 30 2526 75 30 33 40 40 81 31 53 39 57 60 43 60 31 31 35 34 31 488 122 43 59 341 199 34 154 34 123 46 130
leaf_count=122 5694 49 91 31 72 32 49 53 34 50 67 33 43 30 59 58 78 49 47 30 49 33 36 31 47 33 182 68 54 414 30 2526 75 30 33 40 40 81 31 53 39 57 60 43 60 31 31 35 34 31 488 122 43 59 341 199 34 154 34 123 46 130
internal_value=-0.000160131 1.08405e-05 0.000516435 0.000591261 0.00534783 0.000460377 -0.000701055 -0.00201301 -0.00138434 0.00266946 -0.00200379 -0.00129718 0.000128814 -0.00203614 -0.00382036 -0.00184746 0.000697585 0.00290769 0.00540741 0.00077905 0.000531367 -0.00290421 -0.000503226 0.00209892 0.000420732 0.00380625 0.00170107 0.00523232 -0.00437363 0.000812129 0.00469896 0.0005307 -0.00169112 -0.00294286 -0.000173077 -0.00278873 0.00385507 0.00195455 0.00489231 0.00095935 -0.00083871 -0.00633645 0.00382031 0.0049898 0.00372289 0.00167925 -0.00104 0.00707895 0.0111818 -0.00558879 -0.000345206 0.000807018 -0.000472354 -0.0015648 -0.00192615 -0.00352258 -0.00411848 -0.00232287 0.00228986 -0.000465753 0.000458763 -0.00141502
internal_weight=12851 12729 5262 5171 137 5034 852 614 561 238 527 460 294 165 166 117 4182 129 80 4104 3458 260 154 646 327 319 280 98 90 3198 288 2784 258 209 103 70 206 131 64 122 92 106 255 195 165 105 74 75 65 106 7467 740 6727 1033 974 464 421 222 68 510 387 252
internal_count=12851 12729 5262 5171 137 5034 852 614 561 238 527 460 294 165 166 117 4182 129 80 4104 3458 260 154 646 327 319 280 98 90 3198 288 2784 258 209 103 70 206 131 64 122 92 106 255 195 165 105 74 75 65 106 7467 740 6727 1033 974 464 421 222 68 510 387 252
is_linear=0
shrinkage=0.02


Tree=15
num_leaves=63
num_cat=0
split_feature=10 0 3 14 10 1 2 2 1 1 1 10 13 1 2 3 0 10 11 2 14 0 0 10 1 13 1 11 1 14 13 13 10 10 2 13 13 2 0 0 2 14 2 13 11 1 1 13 5 2 10 14 13 0 1 11 0 0 10 14 1 11
split_gain=7.06683 6.27575 6.49106 6.03024 10.5942 10.3816 9.62355 4.70958 4.53673 10.3315 4.7177 4.38724 4.31568 4.28083 5.62774 5.17343 4.43314 3.85731 3.83233 3.68535 5.72694 3.62838 3.79085 3.29875 3.27437 2.99372 2.90039 5.71856 5.59029 4.43113 6.57989 8.33443 4.81095 5.2061 6.00378 4.38123 4.16067 4.08599 3.81576 3.46971 4.64227 3.23707 2.86798 2.74566 2.61292 2.61022 2.52283 10.3066 4.74302 7.55928 7.329 7.13267 6.76138 5.46174 7.57672 4.66332 4.40997 3.95035 3.62741 3.45537 2.78612 6.06206
threshold=4.5000000000000009 0.018905016820305636 1.5000000000000002 1.5000000000000002 5.5000000000000009 0.0070852824784943856 1.5000000000000002 1.0000000180025095e-35 0.096915783869974612 0.029454136754002935 0.044730513706002055 6.5000000000000009 2.4778962122365007 0.66030849015750348 19.500000000000004 9.5000000000000018 20.740345430693527 5.5000000000000009 14.500000000000002 56.500000000000007 4.5000000000000009 0.22669296517129009 0.11638026617450555 6.5000000000000009 0.88384761738484252 2.7771702938809577 0.22944705603805676 4.5000000000000009 0.17320403446871899 2.5000000000000004 1.7200737399979977 1.5773095291055694 3.5000000000000004 2.5000000000000004 6.5000000000000009 1.325191918881389 1.3631193745447028 8.5000000000000018 7.3243529791194559 7.3243529791194559 5.5000000000000009 4.5000000000000009 3.5000000000000004 2.5984584586377819 18.500000000000004 0.37467181973372571 0.0078342069261432782 2.6744418888735821 1.5000000000000002 4.5000000000000009 3.5000000000000004 2.5000000000000004 1.2736374104912367 0.29408580221040959 0.12363894101805961 8.5000000000000018 0.13369594130303122 0.085976337745152745 2.5000000000000004 8.5000000000000018 0.016486837787460497 11.500000000000002
decision_type=2 2 2 2 2 2 2 2 2 2 2 2 2 2 2 2 2 2 2 2 2 2 2 2 2 2 2 2 2 2 2 2 2 2 2 2 2 2 2 2 2 2 2 2 2 2 2 2 2 2 2 2 2 2 2 2 2 2 2 2 2 2
left_child=19 12 3 5 7 6 21 -5 9 25 -11 44 18 17 -15 16 -16 -4 -2 24 -21 22 -3 -20 26 -6 28 -28 46 30 31 36 33 34 -31 -30 -29 42 -39 40 -35 -37 -32 -10 -7 -34 47 59 51 -50 52 53 -51 56 60 58 -48 -57 -53 -1 -55 -62
right_child=1 2 13 4 8 11 -8 -9 43 10 -12 -13 -14 14 15 -17 -18 -19 23 20 -22 -23 -24 -25 -26 -27 27 29 35 32 37 -33 45 39 -36 41 -38 38 -40 -41 -42 -43 -44 -45 -46 -47 48 -49 49 50 -52 55 -54 54 -56 57 -58 -59 -60 -61 61 -63
leaf_value=-0.00061504945454089472 0.0094870751483441939 -0.0044297375885369219 0.0081640710866071227 -0.00089782898378107487 -0.0039305836373741167 -0.0052546818447749997 0.011810890297615995 0.0098769812115154752 -0.0048439529810682556 0.014178949965535139 0.0085920803558610544 -0.0011077342472842044 0.010074905554059193 -0.0052781327786261831 0.0050817079515520103 -0.0018579076491973901 0.010786079952276878 0.013423599910144147 0.0070303368812793116 -0.004518654481406266 0.0075829397655916078 -0.0060306924167682395 0.010573188253145648 -0.0038755629088848397 0.0076609711487534505 0.0086181360441862156 -0.0041112957043630159 0.011167468490890257 0.01175218431548208 -0.0019893823163301149 -0.00094628102480844413 0.021623175405882895 -0.0030067078639723732 -0.0061865403258487463 0.0082890096288169533 0.011000574134161624 -0.0039557064660368192 0.0071536469648097439 -0.0039831764309391105 -0.0059765336717875605 0.00032887308426810869 -0.0056224441401205192 -0.0076779310280210922 -0.0055423246694125614 -0.0057518384315529579 0.0085948930606464212 0.0073864469826097692 -0.0064283092114834611 -0.0057428639619213498 0.011304498832856478 0.0089409906359061795 -0.0018058408611597355 -0.0056652146902260907 0.0080809948582953161 -0.0041039414425975097 0.010855199047455039 -0.0044496271628803362 0.0042776568705788342 -0.0052099076859503587 0.012548736667258585 0.012181701046612431 0.0079376335938565919
leaf_weight=8254 125 32 43 108 242 98 45 275 76 31 61 54 75 53 48 41 50 48 131 92 49 44 32 46 247 40 61 34 36 61 42 32 48 33 87 68 31 36 37 37 42 32 39 35 37 41 107 42 38 36 47 244 91 50 43 38 57 397 40 77 110 95
leaf_count=8254 125 32 43 108 242 98 45 275 76 31 61 54 75 53 48 41 50 48 131 92 49 44 32 46 247 40 61 34 36 61 42 32 48 33 87 68 31 36 37 37 42 32 39 35 37 41 107 42 38 36 47 244 91 50 43 38 57 397 40 77 110 95
internal_value=-0.000110591 0.00102512 0.000440428 -0.000196532 0.000688147 -0.00244315 0.00141558 0.00317188 -0.0012716 -0.000208 0.00556989 -0.00556842 0.00332804 0.00316197 0.00144041 0.00355714 0.0060404 0.00671739 0.00223762 -0.000304785 -0.00350704 -0.00181651 0.0012 0.000325843 -0.00026251 -0.00211307 -0.000315979 -0.00159819 -0.000230031 -0.000995008 0.00102381 0.00508163 -0.00245143 -0.00382375 -0.00132886 0.00378102 0.000878788 -0.00153548 0.00186486 -0.00706195 -0.00444737 0.00156436 -0.00460976 -0.00480357 -0.00748529 0.00153333 -0.000286475 -0.000417722 0.000500717 -0.00224413 -0.000445714 0.000996616 -0.00295313 0.00293305 0.00454181 -0.000247222 0 0.00105046 -0.0022386 -0.000367019 0.00585156 0.0068835
internal_weight=12821 1870 1493 1210 868 342 153 383 485 374 92 189 377 283 192 139 98 91 302 10951 141 108 64 177 10810 282 10563 661 9902 600 251 97 349 260 148 136 65 154 73 112 75 100 81 111 135 89 9766 8373 1393 212 174 1181 127 462 298 719 164 435 284 8331 255 205
internal_count=12821 1870 1493 1210 868 342 153 383 485 374 92 189 377 283 192 139 98 91 302 10951 141 108 64 177 10810 282 10563 661 9902 600 251 97 349 260 148 136 65 154 73 112 75 100 81 111 135 89 9766 8373 1393 212 174 1181 127 462 298 719 164 435 284 8331 255 205
is_linear=0
shrinkage=0.02


Tree=16
num_leaves=63
num_cat=0
split_feature=15 10 0 2 5 2 2 13 1 1 5 2 0 0 1 13 12 12 12 2 14 1 13 14 12 12 12 12 12 12 12 10 12 12 13 10 10 13 14 12 12 14 0 12 12 12 14 13 0 0 0 0 0 1 12 14 12 12 12 12 13 12
split_gain=91.4809 6.24144 5.46862 6.26136 6.97747 10.2553 7.02056 4.41032 3.92534 6.58617 4.07592 5.57763 4.49168 5.90968 5.57775 5.00995 4.29479 6.51164 3.96284 3.86847 4.75494 3.40405 3.20813 4.07498 6.03185 3.07747 3.07626 8.91524 3.07208 4.70565 2.94826 2.9216 2.71221 4.85596 4.39281 5.08702 5.29571 4.64296 3.09682 2.55168 2.44909 5.49046 7.9553 2.89455 2.70996 10.3172 5.15698 2.86009 3.6574 8.01808 4.69559 6.89108 4.87736 4.28136 3.3349 2.76119 2.40358 2.37339 5.68007 4.54669 3.92456 2.03486
threshold=0.87500000000000011 4.5000000000000009 0.018905016820305636 19.500000000000004 18.500000000000004 45.500000000000007 34.500000000000007 2.4778962122365007 0.66030849015750348 0.52021155025042598 2.5000000000000004 1.5000000000000002 0.22669296517129009 0.11939539548136281 0.17002356345468425 2.4778962122365007 51.796783846959016 75.035318839416277 146.6551239224645 58.500000000000007 4.5000000000000009 2.3719238352583454 2.1237230861892855 2.5000000000000004 183.90823529072657 292.82000592956882 196.75615208540702 226.10958987870154 169.50322661162087 98.672255390824532 204.08757761417095 5.5000000000000009 160.54143922951815 123.53047335893143 2.104637333677895 6.5000000000000009 5.5000000000000009 1.9433365594072181 3.5000000000000004 254.0202498999225 865.70293446433982 2.5000000000000004 0.069766492027792129 906.54325206704152 634.33433328368551 621.80318271946965 6.5000000000000009 0.74690725727237295 0.11939539548136281 0.37848423342802212 0.011411386274892941 0.019948823765690387 0.075941471509847744 0.047474617483822028 744.491997628994 4.5000000000000009 114.79073808266845 697.76918389099603 723.01750788386528 744.491997628994 0.47766801428393552 689.96786174064152
decision_type=2 2 2 2 2 2 2 2 2 2 2 2 2 2 2 2 2 2 2 2 2 2 2 2 2 2 2 2 2 2 2 2 2 2 2 2 2 2 2 2 2 2 2 2 2 2 2 2 2 2 2 2 2 2 2 2 2 2 2 2 2 2
left_child=-1 19 7 8 5 6 -5 25 9 10 11 12 13 28 22 -15 -13 -18 -12 21 -21 40 -14 -24 56 26 -3 -28 29 -4 -30 -10 33 -19 37 36 -36 -34 -35 -29 44 43 -43 -42 45 -2 47 48 50 54 57 -52 -53 -51 -50 -47 -25 60 -59 -60 -46 -49
right_child=1 2 3 4 -6 -7 -8 -9 31 -11 18 16 14 15 -16 -17 17 32 -20 20 -22 -23 23 24 -26 -27 27 39 30 -31 -32 -33 34 38 35 -37 -38 -39 -40 -41 41 42 -44 -45 46 55 -48 61 49 53 51 52 -54 -55 -56 -57 -58 58 59 -61 -62 -63
leaf_value=-0.0054428342973594649 -0.00016307311173811457 0.0072971876368460187 -0.0069136256984524995 0.010378055181621609 -0.0018435941462662875 0.010888461246802334 -0.0027096228078961992 0.0098734074429780178 -0.0057931808425811847 0.012241287850904801 -0.0069490161149855113 0.010563184966276236 -0.0015059078760643896 0.012599402066700396 0.012511503489683272 -0.0010390009658818222 -0.0043718613705563403 0.006672078586178261 -0.0006392173868472995 -0.0044282813917781464 0.0071959840360194694 0.010074652438972872 -0.0050806526858058199 -0.0022192493825357218 -0.0050936194777071011 0.011790453703382475 -0.0085418349443919621 0.012703678722532957 -0.0077733679214079749 0.0074449527338999568 -0.0017205872579039295 0.0041483596404135788 0.0025415624622726176 0.0097684572776509174 0.0019789370830450357 0.0090115346284447284 -0.0061753973278881706 0.01154630667259097 0.008829868103408689 -0.0032736714280512925 0.011691819656882735 -0.0033670469615600675 0.013379869057574193 0.010856485715136711 0.011654760400901961 0.0093714322713220714 0.011636931347934922 -0.00020740480891015878 -0.0054515923331217402 0.009846033145456002 0.012723483872501582 -0.002228129346717669 0.010474484877955303 -0.0038510371428596636 -0.0024929706518277595 0.013147268576709959 0.0089235645717176577 -0.0051092605188978448 0.013536176738826962 -0.0018754478786132901 -0.0018481287911669675 0.012763751210854829
leaf_weight=133 9249 179 30 63 57 30 31 75 38 31 42 36 92 72 37 44 34 88 59 90 48 42 69 40 35 31 30 31 33 55 44 32 50 43 68 57 44 47 36 30 34 112 36 61 73 61 49 63 48 59 33 80 30 32 38 39 38 81 52 259 114 54
leaf_count=133 9249 179 30 63 57 30 31 75 38 31 42 36 92 72 37 44 34 88 59 90 48 42 69 40 35 31 30 31 33 55 44 32 50 43 68 57 44 47 36 30 34 112 36 61 73 61 49 63 48 59 33 80 30 32 38 39 38 81 52 259 114 54
internal_value=-0.000113711 5.97368e-05 0.00113283 0.000581301 0.00405495 0.006704 0.00334737 0.00328382 9.11197e-05 0.000357551 0.000115578 0.000473925 -0.000844068 0.000996416 -0.00249359 0.00442735 0.00201984 0.00149145 -0.00370588 -0.000123455 -0.00343885 -8.01869e-05 -0.00348364 -0.00501639 -0.00261404 0.00217881 0.00146863 -0.0015 -0.00146012 0.00113953 -0.00433333 -0.00447887 0.00216129 0.00415476 0.000891386 -0.00104706 -0.00352212 0.00426531 0.007725 0.00287097 -0.000103021 0.00187705 -0.00052349 0.00560417 -0.000149592 -4.04278e-05 -0.00110507 -0.00141396 -0.00179778 -0.00437079 -0.00115906 0.00206944 -0.000342342 -0.000195652 -0.00871264 0.00631683 0.000481013 -0.00196207 -0.00284478 -0.00159615 -9.57447e-05 0.00150847
internal_weight=12821 12688 1851 1475 181 124 94 376 1294 1224 1193 1092 589 278 311 116 503 467 101 10837 138 10699 274 182 113 301 270 91 162 85 77 70 433 167 266 169 112 97 79 61 10657 243 148 95 10414 9349 1065 1016 899 177 722 143 110 91 86 100 78 579 392 311 187 117
internal_count=12821 12688 1851 1475 181 124 94 376 1294 1224 1193 1092 589 278 311 116 503 467 101 10837 138 10699 274 182 113 301 270 91 162 85 77 70 433 167 266 169 112 97 79 61 10657 243 148 95 10414 9349 1065 1016 899 177 722 143 110 91 86 100 78 579 392 311 187 117
is_linear=0
shrinkage=0.02


Tree=17
num_leaves=63
num_cat=0
split_feature=10 0 3 14 10 1 2 12 12 0 0 12 12 14 2 12 1 10 1 2 3 12 14 13 10 10 2 14 0 0 13 1 12 12 0 0 14 1 11 12 12 13 2 2 1 14 13 12 1 2 1 13 13 12 11 12 12 0 14 0 0 12
split_gain=6.40184 5.49728 6.61908 6.48792 10.5942 9.62414 8.15026 6.56046 4.87727 5.1958 4.71794 5.01427 5.78808 11.0896 4.70958 6.15548 4.49005 4.38724 4.28083 5.62774 5.17343 6.90335 3.87616 3.8742 3.85731 3.72941 3.68535 5.72694 3.62838 3.79085 3.50196 3.27437 3.63332 3.41156 4.12075 5.10308 3.19245 2.90039 5.71856 6.16287 7.15465 7.75179 6.60703 6.13627 5.59029 5.17098 4.38123 3.57809 3.54172 3.42467 3.38577 4.47115 4.12466 2.86268 2.76675 2.74686 2.73749 7.23797 6.04473 2.56107 2.54782 2.54615
threshold=4.5000000000000009 0.018905016820305636 1.5000000000000002 1.5000000000000002 5.5000000000000009 0.0070852824784943856 1.5000000000000002 217.38587741299608 51.796783846959016 0.075941471509847744 0.20126460579392177 135.7494265675796 160.54143922951815 5.5000000000000009 1.0000000180025095e-35 169.50322661162087 0.010023263987194607 6.5000000000000009 0.66030849015750348 19.500000000000004 9.5000000000000018 198.23641897561876 4.5000000000000009 2.7051494478031266 5.5000000000000009 6.5000000000000009 56.500000000000007 4.5000000000000009 0.22669296517129009 0.11638026617450555 2.2914904488051913 0.88384761738484252 420.59152347330638 165.93743530040175 5.9174118282230621 10.811931788659427 3.5000000000000004 0.22944705603805676 4.5000000000000009 98.672255390824532 129.53631651362838 2.104637333677895 18.500000000000004 23.500000000000004 0.17320403446871899 4.5000000000000009 1.325191918881389 211.47843628250254 0.37467181973372571 8.5000000000000018 0.39648177446235194 1.6036241188663036 1.7089239937660701 243.85803396612388 15.500000000000002 318.25984135013863 865.70293446433982 0.16406106347410049 2.5000000000000004 1.2958241375028334 1.2958241375028334 226.10958987870154
decision_type=2 2 2 2 2 2 2 2 2 2 2 2 2 2 2 2 2 2 2 2 2 2 2 2 2 2 2 2 2 2 2 2 2 2 2 2 2 2 2 2 2 2 2 2 2 2 2 2 2 2 2 2 2 2 2 2 2 2 2 2 2 2
left_child=26 23 3 5 14 6 28 8 -6 -10 -11 16 -13 60 15 -5 -12 53 24 -20 21 -21 -9 25 -4 61 31 -28 29 -3 -27 37 33 -33 -35 -36 -37 44 -39 -40 -41 43 -43 45 56 49 -46 -48 -47 50 51 -42 -52 54 -7 -51 -1 58 -58 -56 -14 -2
right_child=1 2 18 4 7 17 -8 22 9 10 11 12 13 -15 -16 -17 -18 -19 19 20 -22 -23 -24 -25 -26 30 27 -29 -30 -31 -32 32 -34 34 35 36 -38 38 39 40 41 42 -44 -45 46 48 47 -49 -50 55 52 -53 -54 -55 59 -57 57 -59 -60 -61 -62 -63
