tree
version=v4
num_class=1
num_tree_per_iteration=1
label_index=0
max_feature_idx=1
objective=regression_l1
feature_names=outlet_size cooler_count
feature_infos=[0:5] [0:5]
tree_sizes=487 511 510 508 510 595 596 694 690 693 694 691 692 692 692 778 781 783 692 951 692 693 692 691 778 777 778 946 947 1039 781 862 871 959 871 858 954 1045 956 869 1131 1128 953 870 782 951 865 868 868 868 951 955 866 953 953 859 950 954 859 951 1116 1216 1213 1219 1304 1119 1119 1119 1120 1117 1028 1031 1032 1117 1117 1128 1224 1220 1219 1222 1029 1034 1036 1037 1036 1217 1222 1307 1308 1311 1135 1127 1135 1311 1224 1212 1213

Tree=0
num_leaves=4
num_cat=0
split_feature=0 0 0
split_gain=9898.17 690.939 987.22
threshold=1.0000000180025095e-35 2.5000000000000004 4.5000000000000009
decision_type=2 2 2
left_child=-1 -2 -3
right_child=1 2 -4
leaf_value=5.0658362674713135 5.0873157024383548 5.0659360170364378 5.1233905506134034
leaf_weight=6095 5459 516 612
leaf_count=6095 5459 516 612
internal_value=5.07276 5.08975 5.0755
internal_weight=12682 6587 1128
internal_count=12682 6587 1128
is_linear=0
shrinkage=1


Tree=1
num_leaves=4
num_cat=0
split_feature=0 0 0
split_gain=9813.59 688.091 983.153
threshold=1.0000000180025095e-35 2.5000000000000004 4.5000000000000009
decision_type=2 2 2
left_child=-1 -2 -3
right_child=1 2 -4
leaf_value=-0.0067288175582885757 0.014321028709411614 -0.0066310629844665491 0.049674379920959473
leaf_weight=6095 5459 516 612
leaf_count=6095 5459 516 612
internal_value=0.000135457 0.017058 0.0028326
internal_weight=12682 6587 1128
internal_count=12682 6587 1128
is_linear=0
shrinkage=0.02


Tree=2
num_leaves=4
num_cat=0
split_feature=0 0 0
split_gain=9733.29 688.091 983.153
threshold=1.0000000180025095e-35 2.5000000000000004 4.5000000000000009
decision_type=2 2 2
left_child=-1 -2 -3
right_child=1 2 -4
leaf_value=-0.0065942412071228066 0.014034608135223383 -0.0064984417247772267 0.04868089232254029
leaf_weight=6095 5459 516 612
leaf_count=6095 5459 516 612
internal_value=0.000204841 0.017058 0.0028326
internal_weight=12682 6587 1128
internal_count=12682 6587 1128
is_linear=0
shrinkage=0.02


Tree=3
num_leaves=4
num_cat=0
split_feature=0 0 0
split_gain=9664.2 688.091 983.153
threshold=1.0000000180025095e-35 2.5000000000000004 4.5000000000000009
decision_type=2 2 2
left_child=-1 -2 -3
right_child=1 2 -4
leaf_value=-0.0064623563829803565 0.013753915972518911 -0.00636847289028168 0.047707274476089481
leaf_weight=6095 5459 516 612
leaf_count=6095 5459 516 612
internal_value=0.000264764 0.017058 0.0028326
internal_weight=12682 6587 1128
internal_count=12682 6587 1128
is_linear=0
shrinkage=0.02


Tree=4
num_leaves=4
num_cat=0
split_feature=0 0 0
split_gain=9584.51 688.091 983.153
threshold=1.0000000180025095e-35 2.5000000000000004 4.5000000000000009
decision_type=2 2 2
left_child=-1 -2 -3
right_child=1 2 -4
leaf_value=-0.0063331092553207567 0.013478837653068539 -0.006241103432476045 0.046753128986567687
leaf_weight=6095 5459 516 612
leaf_count=6095 5459 516 612
internal_value=0.000334148 0.017058 0.0028326
internal_weight=12682 6587 1128
internal_count=12682 6587 1128
is_linear=0
shrinkage=0.02


Tree=5
num_leaves=5
num_cat=0
split_feature=0 0 0 1
split_gain=9503.15 674.194 951.703 1.17175
threshold=1.0000000180025095e-35 2.5000000000000004 4.5000000000000009 2.5000000000000004
decision_type=2 2 2 2
left_child=-1 -2 3 -3
right_child=1 2 -4 -5
leaf_value=-0.006189228480431623 0.013296030957685386 -0.0060425766442830662 0.045843944359412012 -0.0062676390145833599
leaf_weight=6140 5466 427 596 80
leaf_count=6140 5466 427 596 80
internal_value=0.00039166 0.0171108 0.00284239 -0.0172795
internal_weight=12709 6569 1103 507
internal_count=12709 6569 1103 507
is_linear=0
shrinkage=0.02


Tree=6
num_leaves=5
num_cat=0
split_feature=0 0 0 1
split_gain=9424.38 671.343 947.683 1.06931
threshold=1.0000000180025095e-35 2.5000000000000004 4.5000000000000009 2.5000000000000004
decision_type=2 2 2 2
left_child=-1 -2 3 -3
right_child=1 2 -4 -5
leaf_value=-0.006065443910822985 0.013030110338531671 -0.0059217251113974001 0.044927065472223776 -0.0061422862342916853
leaf_weight=6140 5466 427 596 80
leaf_count=6140 5466 427 596 80
internal_value=0.000467191 0.0171169 0.00287862 -0.0172008
internal_weight=12709 6569 1103 507
internal_count=12709 6569 1103 507
is_linear=0
shrinkage=0.02


Tree=7
num_leaves=6
num_cat=0
split_feature=0 0 0 1 1
split_gain=9352.57 662.827 935.673 0.779665 0.0641356
threshold=1.0000000180025095e-35 2.5000000000000004 4.5000000000000009 2.5000000000000004 1.0000000180025095e-35
decision_type=2 2 2 2 2
left_child=4 -2 3 -3 -1
right_child=1 2 -4 -5 -6
leaf_value=-0.0060370658263687281 0.012769508131761037 -0.0058032906091694519 0.044028524162779303 -0.0060194405096058471 -0.0057827638015274197
leaf_weight=4278 5466 427 596 80 1862
leaf_count=4278 5466 427 596 80 1862
internal_value=0.000549017 0.0171352 0.00298732 -0.0169646 -0.0171956
internal_weight=12709 6569 1103 507 6140
internal_count=12709 6569 1103 507 6140
is_linear=0
shrinkage=0.02


Tree=8
num_leaves=6
num_cat=0
split_feature=0 0 0 1 1
split_gain=9256.08 651.557 919.78 1.04443 0.266373
threshold=1.0000000180025095e-35 2.5000000000000004 4.5000000000000009 2.5000000000000004 1.0000000180025095e-35
decision_type=2 2 2 2 2
left_child=4 -2 3 -3 -1
right_child=1 2 -4 -5 -6
leaf_value=-0.0059163245098413598 0.012514117969125813 -0.0056872247969860547 0.043147953679523725 -0.005899051699413729 -0.0056671085254968645
leaf_weight=4278 5466 427 596 80 1862
leaf_count=4278 5466 427 596 80 1862
internal_value=0.000659166 0.0171595 0.00313225 -0.0166496 -0.0169936
internal_weight=12709 6569 1103 507 6140
internal_count=12709 6569 1103 507 6140
is_linear=0
shrinkage=0.02


Tree=9
num_leaves=6
num_cat=0
split_feature=0 0 0 1 1
split_gain=9191.94 643.168 907.949 0.760523 0.482296
threshold=1.0000000180025095e-35 2.5000000000000004 4.5000000000000009 2.5000000000000004 1.0000000180025095e-35
decision_type=2 2 2 2 2
left_child=4 -2 3 -3 -1
right_child=1 2 -4 -5 -6
leaf_value=-0.0057979980196445347 0.012263835609743303 -0.0055734803010463272 0.042284994605933247 -0.0057810706654254492 -0.0055537663549869269
leaf_weight=4278 5466 427 596 80 1862
leaf_count=4278 5466 427 596 80 1862
internal_value=0.000734697 0.0171778 0.00324094 -0.0164134 -0.0168569
internal_weight=12709 6569 1103 507 6140
internal_count=12709 6569 1103 507 6140
is_linear=0
shrinkage=0.02


Tree=10
num_leaves=6
num_cat=0
split_feature=0 0 0 1 0
split_gain=9295.72 619.427 902.116 2.41198 0.159833
threshold=1.0000000180025095e-35 2.5000000000000004 4.5000000000000009 1.0000000180025095e-35 3.5000000000000004
decision_type=2 2 2 2 2
left_child=3 -2 4 -1 -3
right_child=1 2 -4 -5 -6
leaf_value=-0.0056391894722155203 0.011931707777553325 -0.0059604056611508938 0.041449637311776012 -0.0054586507675722555 -0.005383194281146011
leaf_weight=4367 5524 122 605 1857 376
leaf_count=4367 5524 122 605 1857 376
internal_value=0.000773265 0.0172568 0.00356703 -0.0167772 -0.0163487
internal_weight=12851 6627 1103 6224 498
internal_count=12851 6627 1103 6224 498
is_linear=0
shrinkage=0.02


Tree=11
num_leaves=6
num_cat=0
split_feature=0 0 0 1 0
split_gain=9217.6 605.812 882.31 2.62013 0.293457
threshold=1.0000000180025095e-35 2.5000000000000004 4.5000000000000009 1.0000000180025095e-35 3.5000000000000004
decision_type=2 2 2 2 2
left_child=3 -2 4 -1 -3
right_child=1 2 -4 -5 -6
leaf_value=-0.0055264056827712162 0.011693073622002254 -0.0058411975479278769 0.040620644565540494 -0.0053494777522208109 -0.0052755303955230913
leaf_weight=4367 5524 122 605 1857 376
leaf_count=4367 5524 122 605 1857 376
internal_value=0.00087286 0.017287 0.00374819 -0.0166037 -0.0159479
internal_weight=12851 6627 1103 6224 498
internal_count=12851 6627 1103 6224 498
is_linear=0
shrinkage=0.02


Tree=12
num_leaves=6
num_cat=0
split_feature=0 0 0 1 0
split_gain=9112.61 600.409 874.45 2.32646 0.531267
threshold=1.0000000180025095e-35 2.5000000000000004 4.5000000000000009 1.0000000180025095e-35 3.5000000000000004
decision_type=2 2 2 2 2
left_child=3 -2 4 -1 -3
right_child=1 2 -4 -5 -6
leaf_value=-0.0054158775691157861 0.011459212149562213 -0.0057243735969693251 0.039808231674229692 -0.0052424881971763959 -0.0051700197876126276
leaf_weight=4367 5524 122 605 1857 376
leaf_count=4367 5524 122 605 1857 376
internal_value=0.00097868 0.017299 0.00382065 -0.0163981 -0.0157876
internal_weight=12851 6627 1103 6224 498
internal_count=12851 6627 1103 6224 498
is_linear=0
shrinkage=0.02


Tree=13
num_leaves=6
num_cat=0
split_feature=0 0 0 1 0
split_gain=9032.43 595.03 866.624 2.86127 0.78983
threshold=1.0000000180025095e-35 2.5000000000000004 4.5000000000000009 1.0000000180025095e-35 3.5000000000000004
decision_type=2 2 2 2 2
left_child=3 -2 4 -1 -3
right_child=1 2 -4 -5 -6
leaf_value=-0.0053075600177334616 0.011230027906570968 -0.0056098861250299418 0.039012067040745092 -0.0051376384332328766 -0.0050666193918603676
leaf_weight=4367 5524 122 605 1857 376
leaf_count=4367 5524 122 605 1857 376
internal_value=0.00106271 0.0173111 0.00389312 -0.0162374 -0.0156273
internal_weight=12851 6627 1103 6224 498
internal_count=12851 6627 1103 6224 498
is_linear=0
shrinkage=0.02


Tree=14
num_leaves=6
num_cat=0
split_feature=0 0 0 1 0
split_gain=8913.92 579.037 843.357 3.79902 1.69003
threshold=1.0000000180025095e-35 2.5000000000000004 4.5000000000000009 1.0000000180025095e-35 3.5000000000000004
decision_type=2 2 2 2 2
left_child=3 -2 4 -1 -3
right_child=1 2 -4 -5 -6
leaf_value=-0.0052014088173787873 0.011005427348439553 -0.005497688402529342 0.038231825699930194 -0.0050348856645682184 -0.0049652870040231539
leaf_weight=4367 5524 122 605 1857 376
leaf_count=4367 5524 122 605 1857 376
internal_value=0.00120588 0.0173473 0.00411051 -0.0159804 -0.0151463
internal_weight=12851 6627 1103 6224 498
internal_count=12851 6627 1103 6224 498
is_linear=0
shrinkage=0.02


Tree=15
num_leaves=7
num_cat=0
split_feature=0 0 0 1 0 1
split_gain=8703.6 610.23 863.194 1.61532 0.891075 0.558285
threshold=1.0000000180025095e-35 2.5000000000000004 4.5000000000000009 1.0000000180025095e-35 3.5000000000000004 1.5000000000000002
decision_type=2 2 2 2 2 2
left_child=3 -2 4 -1 -3 -6
right_child=1 2 -4 -5 5 -7
leaf_value=-0.0050004396467685196 0.010877267310687078 -0.0052117674179870477 0.037458267562701604 -0.0049958716060620034 -0.0047771703432273509 -0.0050186100616840083
leaf_weight=4292 5509 133 622 1866 245 154
leaf_count=4292 5509 133 622 1866 245 154
internal_value=0.00137092 0.0172116 0.00398095 -0.0157685 -0.0147054 -0.014045
internal_weight=12821 6663 1154 6158 532 399
internal_count=12821 6663 1154 6158 532 399
is_linear=0
shrinkage=0.02


Tree=16
num_leaves=7
num_cat=0
split_feature=0 0 0 1 1 0
split_gain=8617.33 602.317 852.019 1.72034 0.437402 0.191394
threshold=1.0000000180025095e-35 2.5000000000000004 4.5000000000000009 1.0000000180025095e-35 1.0000000180025095e-35 3.5000000000000004
decision_type=2 2 2 2 2 2
left_child=3 -2 4 -1 5 -3
right_child=1 2 -4 -5 -6 -7
leaf_value=-0.0049004308538331464 0.010659721964473335 -0.005107532069627308 0.036709102211447568 -0.0048959541739407621 -0.004681483885215343 -0.0051220480407939565
leaf_weight=4292 5509 49 622 1866 343 140
leaf_count=4292 5509 49 622 1866 343 140
internal_value=0.00146763 0.0172296 0.00408485 -0.0155866 -0.0144803 -0.0156737
internal_weight=12821 6663 1154 6158 532 189
internal_count=12821 6663 1154 6158 532 189
is_linear=0
shrinkage=0.02


Tree=17
num_leaves=7
num_cat=0
split_feature=0 0 0 1 1 0
split_gain=8467.65 596.523 844.609 1.80935 0.736713 0.191394
threshold=1.0000000180025095e-35 2.5000000000000004 4.5000000000000009 1.0000000180025095e-35 1.0000000180025095e-35 3.5000000000000004
decision_type=2 2 2 2 2 2
left_child=3 -2 4 -1 5 -3
right_child=1 2 -4 -5 -6 -7
leaf_value=-0.0048024222367564918 0.010446527525183864 -0.0050053814282347633 0.035974920167218621 -0.0047980350904619409 -0.0045878542075110393 -0.0050196070799780838
leaf_weight=4292 5509 49 622 1866 343 140
leaf_count=4292 5509 49 622 1866 343 140
internal_value=0.00161114 0.0172356 0.00415411 -0.0152944 -0.0143302 -0.0156737
internal_weight=12821 6663 1154 6158 532 189
internal_count=12821 6663 1154 6158 532 189
is_linear=0
shrinkage=0.02


Tree=18
num_leaves=6
num_cat=0
split_feature=0 0 0 1 1
split_gain=8342 586.104 829.886 2.11828 0.525772
threshold=1.0000000180025095e-35 2.5000000000000004 4.5000000000000009 1.0000000180025095e-35 1.0000000180025095e-35
decision_type=2 2 2 2 2
left_child=3 -2 4 -1 -3
right_child=1 2 -4 -5 -6
leaf_value=-0.0047063737920213632 0.010237596974680194 -0.004905273799670074 0.035255421763874251 -0.0047020743886526974 -0.0044960971233608225
leaf_weight=4292 5509 189 622 1866 343
leaf_count=4292 5509 189 622 1866 343
internal_value=0.00175152 0.0172596 0.00429264 -0.0150281 -0.01403
internal_weight=12821 6663 1154 6158 532
internal_count=12821 6663 1154 6158 532
is_linear=0
shrinkage=0.02


Tree=19
num_leaves=9
num_cat=0
split_feature=0 0 0 1 0 1 1 1
split_gain=8251.13 565.421 804.432 1.81007 0.995106 1.33807 0.00209728 0.622229
threshold=1.0000000180025095e-35 2.5000000000000004 4.5000000000000009 1.0000000180025095e-35 3.5000000000000004 1.5000000000000002 1.0000000180025095e-35 1.5000000000000002
decision_type=2 2 2 2 2 2 2 2
left_child=3 -2 4 -1 6 -6 -3 -8
right_child=1 2 -4 -5 5 -7 7 -9
leaf_value=-0.0046122463161809438 0.010032845035186587 -0.0048071683236766737 0.034550313328596774 -0.0046080329008796458 -0.0044061751808936126 -0.0046429291561286062 -0.0046774229502665144 -0.0048718771433817485
leaf_weight=4292 5509 49 622 1866 245 154 32 52
leaf_count=4292 5509 49 622 1866 245 154 32 52
internal_value=0.00184823 0.0172716 0.00453506 -0.0148397 -0.0135047 -0.012845 -0.0153582 -0.0140941
internal_weight=12821 6663 1154 6158 532 399 133 84
internal_count=12821 6663 1154 6158 532 399 133 84
is_linear=0
shrinkage=0.02


Tree=20
num_leaves=6
num_cat=0
split_feature=0 0 0 1 1
split_gain=8009.11 547.742 815.468 2.69905 0.566197
threshold=1.0000000180025095e-35 2.5000000000000004 4.5000000000000009 2.5000000000000004 1.0000000180025095e-35
decision_type=2 2 2 2 2
left_child=4 -2 3 -3 -1
right_child=1 2 -4 -5 -6
leaf_value=-0.0045385217450819408 0.0098219409039530699 -0.004447085291805237 0.033841821443433527 -0.0034492279962356422 -0.0045436718491852976
leaf_weight=4313 5516 423 621 86 1843
leaf_count=4313 5516 423 621 86 1843
internal_value=0.00206498 0.0172887 0.00459593 -0.0141529 -0.0143703
internal_weight=12802 6646 1130 509 6156
internal_count=12802 6646 1130 509 6156
is_linear=0
shrinkage=0.02


Tree=21
num_leaves=6
num_cat=0
split_feature=0 0 0 1 1
split_gain=7881.43 538.605 804.257 3.15208 0.626714
threshold=1.0000000180025095e-35 2.5000000000000004 4.5000000000000009 2.5000000000000004 1.0000000180025095e-35
decision_type=2 2 2 2 2
left_child=4 -2 3 -3 -1
right_child=1 2 -4 -5 -6
leaf_value=-0.0044477513101803014 0.0096255020858739999 -0.0043581435859691275 0.033164985014564843 -0.0033802434363109234 -0.0044527984122015949
leaf_weight=4313 5516 423 621 86 1843
leaf_count=4313 5516 423 621 86 1843
internal_value=0.00218683 0.0172887 0.00470203 -0.0139176 -0.0141169
internal_weight=12802 6646 1130 509 6156
internal_count=12802 6646 1130 509 6156
is_linear=0
shrinkage=0.02


Tree=22
num_leaves=6
num_cat=0
split_feature=0 0 0 1 1
split_gain=7784.15 532.045 796.826 3.79177 0.222518
threshold=1.0000000180025095e-35 2.5000000000000004 4.5000000000000009 2.5000000000000004 1.0000000180025095e-35
decision_type=2 2 2 2 2
left_child=4 -2 3 -3 -1
right_child=1 2 -4 -5 -6
leaf_value=-0.0043587962839766979 0.0094329920441565216 -0.0042709807142497528 0.03250168531427354 -0.0033126385675847025 -0.0043637424439575594
leaf_weight=4313 5516 423 621 86 1843
leaf_count=4313 5516 423 621 86 1843
internal_value=0.00227431 0.0172827 0.00477277 -0.0137608 -0.0139285
internal_weight=12802 6646 1130 509 6156
internal_count=12802 6646 1130 509 6156
is_linear=0
shrinkage=0.02


Tree=23
num_leaves=6
num_cat=0
split_feature=0 0 0 1 1
split_gain=7658.99 530.509 796.826 3.79177 0.602843
threshold=1.0000000180025095e-35 2.5000000000000004 4.5000000000000009 2.5000000000000004 1.0000000180025095e-35
decision_type=2 2 2 2 2
left_child=4 -2 3 -3 -1
right_child=1 2 -4 -5 -6
leaf_value=-0.00427162035829717 0.0092443322032733904 -0.0041855610999647656 0.031851651607988071 -0.0032463857962330067 -0.0042764675950784084
leaf_weight=4313 5516 423 621 86 1843
leaf_count=4313 5516 423 621 86 1843
internal_value=0.00237741 0.0172646 0.00477277 -0.0137608 -0.0136947
internal_weight=12802 6646 1130 509 6156
internal_count=12802 6646 1130 509 6156
is_linear=0
shrinkage=0.02


Tree=24
num_leaves=7
num_cat=0
split_feature=0 0 0 1 1 1
split_gain=7588.44 524.507 789.43 3.47415 0.543154 0.123564
threshold=1.0000000180025095e-35 2.5000000000000004 4.5000000000000009 2.5000000000000004 1.0000000180025095e-35 1.5000000000000002
decision_type=2 2 2 2 2 2
left_child=4 -2 3 5 -1 -3
right_child=1 2 -4 -5 -6 -7
leaf_value=-0.0041861879511312242 0.0090594455592079189 -0.0040622782685732339 0.031214618575828315 -0.0031814580803083458 -0.0041909382431768449 -0.0042527839748823662
leaf_weight=4313 5516 314 621 86 1843 109
leaf_count=4313 5516 314 621 86 1843 109
internal_value=0.00244615 0.0172646 0.0048435 -0.0136039 -0.0135517 -0.0143821
internal_weight=12802 6646 1130 509 6156 423
internal_count=12802 6646 1130 509 6156 423
is_linear=0
shrinkage=0.02


Tree=25
num_leaves=7
num_cat=0
split_feature=0 0 0 1 0 1
split_gain=7490.68 529.345 768.088 2.17712 2.26436 1.36385
threshold=1.0000000180025095e-35 2.5000000000000004 4.5000000000000009 1.5000000000000002 3.5000000000000004 1.0000000180025095e-35
decision_type=2 2 2 2 2 2
left_child=5 -2 3 -3 -5 -1
right_child=1 2 -4 4 -6 -7
leaf_value=-0.0041495184828800906 0.0088594549588758131 -0.0039556505211528134 0.030617739572536849 -0.0044391018452296736 -0.0040193357405210505 -0.0039204568043631127
leaf_weight=4322 5482 308 602 54 150 1870
leaf_count=4322 5482 308 602 54 150 1870
internal_value=0.00240816 0.0172378 0.00466188 -0.0133294 -0.0115024 -0.013389
internal_weight=12788 6596 1114 512 204 6192
internal_count=12788 6596 1114 512 204 6192
is_linear=0
shrinkage=0.02


Tree=26
num_leaves=7
num_cat=0
split_feature=0 0 0 1 0 1
split_gain=7363.05 519.762 760.908 1.73272 2.26436 1.04587
threshold=1.0000000180025095e-35 2.5000000000000004 4.5000000000000009 1.5000000000000002 3.5000000000000004 1.0000000180025095e-35
decision_type=2 2 2 2 2 2
left_child=5 -2 3 -3 -5 -1
right_child=1 2 -4 4 -6 -7
leaf_value=-0.0040665281132224963 0.0086822658596982915 -0.0038765375107297564 0.030005384781086112 -0.0043503198083250805 -0.0039389490257106278 -0.0038420476682758499
leaf_weight=4322 5482 308 602 54 150 1870
leaf_count=4322 5482 308 602 54 150 1870
internal_value=0.00249261 0.0171954 0.00473363 -0.0131735 -0.0115024 -0.0131694
internal_weight=12788 6596 1114 512 204 6192
internal_count=12788 6596 1114 512 204 6192
is_linear=0
shrinkage=0.02


Tree=27
num_leaves=9
num_cat=0
split_feature=0 0 0 0 1 1 1 1
split_gain=7266.46 504.379 743.106 2.20516 2.93889 1.34426 0.196114 0.0936818
threshold=1.0000000180025095e-35 2.5000000000000004 4.5000000000000009 3.5000000000000004 1.5000000000000002 1.0000000180025095e-35 1.0000000180025095e-35 1.5000000000000002
decision_type=2 2 2 2 2 2 2 2
left_child=5 -2 3 6 -5 -1 -3 -8
right_child=1 2 -4 4 -6 -7 7 -9
leaf_value=-0.0039851975509580485 0.0085086205425043276 -0.0036067934973835671 0.02940527708546439 -0.0038348219994677902 -0.003860170045196423 -0.0037652067149103277 -0.002935457393013863 -0.0042633134121585758
leaf_weight=4322 5482 41 602 232 150 1870 35 54
leaf_count=4322 5482 41 602 232 150 1870 35 54
internal_value=0.00258331 0.0171893 0.004913 -0.0127836 -0.0119008 -0.0129756 -0.0152519 -0.0139778
internal_weight=12788 6596 1114 512 382 6192 130 89
internal_count=12788 6596 1114 512 382 6192 130 89
is_linear=0
shrinkage=0.02


Tree=28
num_leaves=9
num_cat=0
split_feature=0 0 0 0 1 1 1 1
split_gain=7134.4 501.391 743.106 2.20516 2.93889 1.48957 0.196114 0.0936818
threshold=1.0000000180025095e-35 2.5000000000000004 4.5000000000000009 3.5000000000000004 1.5000000000000002 1.0000000180025095e-35 1.0000000180025095e-35 1.5000000000000002
decision_type=2 2 2 2 2 2 2 2
left_child=5 -2 3 6 -5 -1 -3 -8
right_child=1 2 -4 4 -6 -7 7 -9
leaf_value=-0.0039054935999388897 0.0083384481316542396 -0.0035346576274358911 0.028817171543755099 -0.0037581255594784312 -0.0037829666442925004 -0.0036899025806121167 -0.002876748245153582 -0.0041780471439154089
leaf_weight=4322 5482 41 602 232 150 1870 35 54
leaf_count=4322 5482 41 602 232 150 1870 35 54
internal_value=0.00268027 0.0171529 0.004913 -0.0127836 -0.0119008 -0.0127366 -0.0152519 -0.0139778
internal_weight=12788 6596 1114 512 382 6192 130 89
internal_count=12788 6596 1114 512 382 6192 130 89
is_linear=0
shrinkage=0.02


Tree=29
num_leaves=10
num_cat=0
split_feature=0 0 0 0 1 1 1 1 0
split_gain=7030.89 487.227 729.016 2.95378 2.53959 1.09216 0.196114 0.0936818 0.046328
threshold=1.0000000180025095e-35 2.5000000000000004 4.5000000000000009 3.5000000000000004 1.5000000000000002 1.0000000180025095e-35 1.0000000180025095e-35 1.5000000000000002 1.5000000000000002
decision_type=2 2 2 2 2 2 2 2 2
left_child=5 8 3 6 -5 -1 -3 -8 -2
right_child=1 2 -4 4 -6 -7 7 -9 -10
leaf_value=-0.0038273837279401059 0.0065837065280299357 -0.0034639644748871668 0.028240828112879993 -0.0036829630482888565 -0.0037073073114066448 -0.0036161045289998662 -0.0028192132802505121 -0.0040944862010371084 0.029071137100539702
leaf_weight=4322 3659 41 602 232 150 1870 35 54 1823
leaf_count=4322 3659 41 602 232 150 1870 35 54 1823
internal_value=0.00275534 0.0171226 0.0050565 -0.0124717 -0.011483 -0.0125493 -0.0152519 -0.0139778 0.0195729
internal_weight=12788 6596 1114 512 382 6192 130 89 5482
internal_count=12788 6596 1114 512 382 6192 130 89 5482
is_linear=0
shrinkage=0.02


Tree=30
num_leaves=7
num_cat=0
split_feature=0 0 0 1 1 0
split_gain=6892.35 460.194 736.544 2.16756 1.04397 0.763855
threshold=1.0000000180025095e-35 2.5000000000000004 4.5000000000000009 1.5000000000000002 1.0000000180025095e-35 1.5000000000000002
decision_type=2 2 2 2 2 2
left_child=4 5 3 -3 -1 -2
right_child=1 2 -4 -5 -6 -7
leaf_value=-0.0037416283278563969 0.0064273226959312528 -0.0037412658164651981 0.027688476073937825 -0.0035301691073782136 -0.0036977293149457503 0.028496175502022558
leaf_weight=4310 3677 314 634 201 1832 1842
leaf_count=4310 3677 314 634 201 1832 1842
internal_value=0.00299102 0.0170697 0.00554609 -0.0122054 -0.0122933 0.019467
internal_weight=12810 6668 1149 515 6142 5519
internal_count=12810 6668 1149 515 6142 5519
is_linear=0
shrinkage=0.02


Tree=31
num_leaves=8
num_cat=0
split_feature=0 0 0 1 1 0 1
split_gain=6790.25 451.787 729.46 2.94347 1.44556 1.21415 0.303994
threshold=1.0000000180025095e-35 2.5000000000000004 4.5000000000000009 1.5000000000000002 1.0000000180025095e-35 1.5000000000000002 2.5000000000000004
decision_type=2 2 2 2 2 2 2
left_child=4 5 3 -3 -1 -2 -5
right_child=1 2 -4 6 -6 -7 -8
leaf_value=-0.0036667957612992732 0.0062987762420126363 -0.003666440500135888 0.027134706552459066 -0.0034595657252306468 -0.0036237747286468293 0.02792625199198211 -0.0036116477563625706
leaf_weight=4310 3677 314 634 113 1832 1842 88
leaf_count=4310 3677 314 634 113 1832 1842 88
internal_value=0.00305971 0.0170337 0.00561565 -0.0120504 -0.012111 0.0194091 -0.0099901
internal_weight=12810 6668 1149 515 6142 5519 201
internal_count=12810 6668 1149 515 6142 5519 201
is_linear=0
shrinkage=0.02


Tree=32
num_leaves=8
num_cat=0
split_feature=0 0 0 1 0 1 1
split_gain=6670.14 439.413 715.396 3.26292 1.64627 1.3047 0.0481191
threshold=1.0000000180025095e-35 2.5000000000000004 4.5000000000000009 1.5000000000000002 1.5000000000000002 1.0000000180025095e-35 1.0000000180025095e-35
decision_type=2 2 2 2 2 2 2
left_child=5 4 3 6 -2 -1 -3
right_child=1 2 -4 -5 -6 -7 -8
leaf_value=-0.0035934598460732837 0.0061728007171723753 -0.0039034982221433268 0.026592012421409877 -0.0033903744107260359 0.027367726952142474 -0.0035512992340738948 -0.0033612545989501366
leaf_weight=4310 3677 171 634 201 1842 1832 143
leaf_count=4310 3677 171 634 201 1842 1832 143
internal_value=0.00316587 0.0170157 0.00575478 -0.0117403 0.0193583 -0.0118701 -0.013073
internal_weight=12810 6668 1149 515 5519 6142 314
internal_count=12810 6668 1149 515 5519 6142 314
is_linear=0
shrinkage=0.02


Tree=33
num_leaves=9
num_cat=0
split_feature=0 0 0 1 0 1 1 1
split_gain=6570.17 432.968 711.901 3.70422 2.25411 2.00299 0.0633409 0.0481191
threshold=1.0000000180025095e-35 2.5000000000000004 4.5000000000000009 1.5000000000000002 1.5000000000000002 1.0000000180025095e-35 2.5000000000000004 1.0000000180025095e-35
decision_type=2 2 2 2 2 2 2 2
left_child=5 4 3 7 -2 -1 -5 -3
right_child=1 2 -4 6 -6 -7 -8 -9
leaf_value=-0.0035215906491518111 0.0060493447028289364 -0.0038254282577004518 0.026060172172981684 -0.0033225669225115163 0.026820372413099616 -0.0034802732493924185 -0.0034716073130207992 -0.0032940295069711391
leaf_weight=4310 3677 171 634 113 1842 1832 88 143
leaf_count=4310 3677 171 634 113 1842 1832 88 143
internal_value=0.00322207 0.0169678 0.00578957 -0.0116628 0.0192931 -0.0117008 -0.00939604 -0.013073
internal_weight=12810 6668 1149 515 5519 6142 201 314
internal_count=12810 6668 1149 515 5519 6142 201 314
is_linear=0
shrinkage=0.02


Tree=34
num_leaves=8
num_cat=0
split_feature=0 0 0 1 0 1 1
split_gain=6458.88 413.727 691.112 4.23157 3.23589 1.63891 0.319116
threshold=1.0000000180025095e-35 2.5000000000000004 4.5000000000000009 1.5000000000000002 1.5000000000000002 1.0000000180025095e-35 1.0000000180025095e-35
decision_type=2 2 2 2 2 2 2
left_child=5 4 3 6 -2 -1 -3
right_child=1 2 -4 -5 -6 -7 -8
leaf_value=-0.0034511588361687729 0.0059283578087723577 -0.0037489196925464441 0.025538968729522049 -0.0032561155840612876 0.02628396496483763 -0.0034106677844045665 -0.0032281489168317101
leaf_weight=4310 3677 171 634 201 1842 1832 143
leaf_count=4310 3677 171 634 201 1842 1832 143
internal_value=0.00329701 0.0169258 0.00599826 -0.0111977 0.0191989 -0.0114989 -0.0126921
internal_weight=12810 6668 1149 515 5519 6142 314
internal_count=12810 6668 1149 515 5519 6142 314
is_linear=0
shrinkage=0.02


Tree=35
num_leaves=8
num_cat=0
split_feature=0 0 0 1 0 0 1
split_gain=6366.6 442.956 676.828 5.93662 3.48885 1.92575 1.42768
threshold=1.0000000180025095e-35 2.5000000000000004 4.5000000000000009 1.5000000000000002 1.5000000000000002 3.5000000000000004 1.0000000180025095e-35
decision_type=2 2 2 2 2 2 2
left_child=6 4 3 -3 -2 -5 -1
right_child=1 2 -4 5 -6 -7 -8
leaf_value=-0.0034153759777437289 0.0058646698411345 -0.0035009175786368907 0.0250040137110107 -0.0037548875157572504 0.025760312223463248 -0.0031929721465866123 -0.003281662459417163
leaf_weight=4321 3630 333 606 53 1837 152 1863
leaf_count=4321 3630 333 606 53 1837 152 1863
internal_value=0.0031649 0.0168085 0.00548297 -0.0108312 0.0191767 -0.00804854 -0.0114209
internal_weight=12795 6611 1144 538 5467 205 6184
internal_count=12795 6611 1144 538 5467 205 6184
is_linear=0
shrinkage=0.02


Tree=36
num_leaves=9
num_cat=0
split_feature=0 0 0 1 0 0 1 1
split_gain=6207.08 433.167 673.569 6.50514 4.91653 1.30122 1.10566 0.0140315
threshold=1.0000000180025095e-35 2.5000000000000004 4.5000000000000009 1.5000000000000002 1.5000000000000002 3.5000000000000004 1.0000000180025095e-35 1.5000000000000002
decision_type=2 2 2 2 2 2 2 2
left_child=6 4 3 -3 7 -5 -1 -2
right_child=1 2 -4 5 -6 -7 -8 -9
leaf_value=-0.0033470684581888579 0.0056642637276370072 -0.0034308992270641525 0.024503933436790481 -0.0036797897654420987 0.025245105978993987 -0.0031291127036548795 -0.0032160292102288148 0.0058074960732180615
leaf_weight=4321 1830 333 606 53 1837 152 1863 1800
leaf_count=4321 1830 333 606 53 1837 152 1863 1800
internal_value=0.00324617 0.0167178 0.0055179 -0.010757 0.0190596 -0.00785437 -0.0111557 0.0185839
internal_weight=12795 6611 1144 538 5467 205 6184 3630
internal_count=12795 6611 1144 538 5467 205 6184 3630
is_linear=0
shrinkage=0.02


Tree=37
num_leaves=10
num_cat=0
split_feature=0 1 0 0 0 1 1 0 1
split_gain=6102.62 424.504 188.502 469.885 6.21605 2.2036 0.926913 0.184425 0.105847
threshold=1.0000000180025095e-35 1.0000000180025095e-35 2.5000000000000004 4.5000000000000009 1.5000000000000002 1.5000000000000002 1.0000000180025095e-35 3.5000000000000004 1.5000000000000002
decision_type=2 2 2 2 2 2 2 2 2
left_child=6 7 4 5 8 -4 -1 -2 -3
right_child=1 2 3 -5 -6 -7 -8 -9 -10
leaf_value=-0.0032801270890250758 -0.0036715039600790436 0.0055509784530842592 -0.003105678133264842 0.024013854768054677 0.024740203859414115 -0.0031650020911223112 -0.0031517086260242346 -0.0034589361344906423 0.0056913461517537024
leaf_weight=4321 50 1830 145 606 1837 205 1863 138 1800
leaf_count=4321 50 1830 145 606 1837 205 1863 138 1800
internal_value=0.00330556 0.0166633 0.0175308 0.0093187 0.0189645 -0.00911111 -0.0109746 -0.0128995 0.0184406
internal_weight=12795 6611 6423 956 5467 350 6184 188 3630
internal_count=12795 6611 6423 956 5467 350 6184 188 3630
is_linear=0
shrinkage=0.02


Tree=38
num_leaves=9
num_cat=0
split_feature=0 1 0 0 0 1 1 0
split_gain=6019.08 422.771 181.837 462.542 7.52663 2.81605 0.688082 0.184425
threshold=1.0000000180025095e-35 1.0000000180025095e-35 2.5000000000000004 4.5000000000000009 1.5000000000000002 1.5000000000000002 1.0000000180025095e-35 3.5000000000000004
decision_type=2 2 2 2 2 2 2 2
left_child=6 7 4 5 -3 -4 -1 -2
right_child=1 2 3 -5 -6 -7 -8 -9
leaf_value=-0.0032145245472445794 -0.0035980738808774684 0.0055209365508774337 -0.0030435645705995462 0.023533577672693581 0.024245399782225834 -0.0031017020492998706 -0.0030886744535037459 -0.0033897574118008224
leaf_weight=4321 50 3630 145 606 1837 205 1863 138
leaf_count=4321 50 3630 145 606 1837 205 1863 138
internal_value=0.00333682 0.0166028 0.0174686 0.0094023 0.0188767 -0.00888319 -0.0108453 -0.0128995
internal_weight=12795 6611 6423 956 5467 350 6184 188
internal_count=12795 6611 6423 956 5467 350 6184 188
is_linear=0
shrinkage=0.02


Tree=39
num_leaves=8
num_cat=0
split_feature=0 1 0 0 0 1 1
split_gain=5889.22 414.145 175.492 458.892 9.56575 2.39225 0.864063
threshold=1.0000000180025095e-35 1.0000000180025095e-35 2.5000000000000004 4.5000000000000009 1.5000000000000002 1.5000000000000002 1.0000000180025095e-35
decision_type=2 2 2 2 2 2 2
left_child=6 -2 4 5 -3 -4 -1
right_child=1 2 3 -5 -6 -7 -8
leaf_value=-0.003150234056299688 -0.0033395337128445846 0.0054105178198598841 -0.002982693279187547 0.023062906119239716 0.023760491786581319 -0.0030396680083138784 -0.0030269009644336721
leaf_weight=4321 188 3630 145 606 1837 205 1863
leaf_count=4321 188 3630 145 606 1837 205 1863
internal_value=0.00338997 0.0165121 0.0173689 0.0094441 0.0187524 -0.00876923 -0.0106383
internal_weight=12795 6611 6423 956 5467 350 6184
internal_count=12795 6611 6423 956 5467 350 6184
is_linear=0
shrinkage=0.02


Tree=40
num_leaves=11
num_cat=0
split_feature=0 1 0 0 0 1 0 1 1 1
split_gain=5711.52 365.21 160.825 462.918 12.0111 1.86231 0.192599 0.062621 0.00432082 0.368154
threshold=1.0000000180025095e-35 1.0000000180025095e-35 2.5000000000000004 4.5000000000000009 1.5000000000000002 1.0000000180025095e-35 3.5000000000000004 1.5000000000000002 2.5000000000000004 3.5000000000000004
decision_type=2 2 2 2 2 2 2 2 2 2
left_child=5 6 4 7 -3 -1 -2 -4 -9 -10
right_child=1 2 3 -5 -6 -7 -8 8 9 -11
leaf_value=-0.0031309076588651053 -0.0031872622883902225 0.0052851186645582618 -0.0028034009706106389 0.022607408189726019 0.023292110258955161 -0.0028766889491733138 -0.0030051420254040909 -0.0033841671591339309 -0.0037335774029116299 -0.0032535105237699292
leaf_weight=4335 47 3630 127 622 1819 1867 130 126 30 57
leaf_count=4335 47 3630 127 622 1819 1867 130 126 30 57
internal_value=0.00352732 0.0164939 0.0172767 0.00971755 0.0186088 -0.0102463 -0.0117865 -0.00902639 -0.00849533 -0.00929545
internal_weight=12790 6588 6411 962 5449 6202 177 340 213 87
internal_count=12790 6588 6411 962 5449 6202 177 340 213 87
is_linear=0
shrinkage=0.02


Tree=41
num_leaves=11
num_cat=0
split_feature=0 1 0 0 0 1 0 1 1 1
split_gain=5606.67 357.404 155.364 459.177 14.1847 1.58066 0.362545 0.175796 0.144537 0.368154
threshold=1.0000000180025095e-35 1.0000000180025095e-35 2.5000000000000004 4.5000000000000009 1.5000000000000002 1.0000000180025095e-35 3.5000000000000004 1.5000000000000002 2.5000000000000004 3.5000000000000004
decision_type=2 2 2 2 2 2 2 2 2 2
left_child=5 6 4 7 -3 -1 -2 -4 -9 -10
right_child=1 2 3 -5 -6 -7 -8 8 9 -11
leaf_value=-0.0030682895056878047 -0.0031235170426224101 0.0051794162912671025 -0.0027473329511984268 0.022155260025931493 0.02282626805377605 -0.0028191551701898555 -0.0029450391848960147 -0.0033164838159512478 -0.003658905854853396 -0.0031884403132945317
leaf_weight=4335 47 3630 127 622 1819 1867 130 126 30 57
leaf_count=4335 47 3630 127 622 1819 1867 130 126 30 57
internal_value=0.00356798 0.0164149 0.0171893 0.00975909 0.0184987 -0.0100787 -0.0115618 -0.00890909 -0.00830841 -0.00929545
internal_weight=12790 6588 6411 962 5449 6202 177 340 213 87
internal_count=12790 6588 6411 962 5449 6202 177 340 213 87
is_linear=0
shrinkage=0.02


Tree=42
num_leaves=9
num_cat=0
split_feature=0 1 0 0 0 1 0 0
split_gain=5486.11 355.857 147.6 448.044 16.2022 1.66591 0.362545 0.0566053
threshold=1.0000000180025095e-35 1.0000000180025095e-35 2.5000000000000004 4.5000000000000009 1.5000000000000002 1.0000000180025095e-35 3.5000000000000004 3.5000000000000004
decision_type=2 2 2 2 2 2 2 2
left_child=5 6 4 7 -3 -1 -2 -4
right_child=1 2 3 -5 -6 -7 -8 -9
leaf_value=-0.0030069237155740504 -0.0030610467017699607 0.0050758279654417576 -0.0032439432926583932 0.021712154825412871 0.022369742692700534 -0.0027627720667860521 -0.0028861384011980994 -0.002971180560225477
leaf_weight=4335 47 3630 82 622 1819 1867 130 258
leaf_count=4335 47 3630 82 622 1819 1867 130 258
internal_value=0.00364616 0.0163542 0.0171269 0.0098837 0.0184033 -0.00985297 -0.0115618 -0.00855718
internal_weight=12790 6588 6411 962 5449 6202 177 340
internal_count=12790 6588 6411 962 5449 6202 177 340
is_linear=0
shrinkage=0.02


Tree=43
num_leaves=8
num_cat=0
split_feature=0 1 0 0 0 1 0
split_gain=5385.88 342.652 144.048 448.044 18.514 1.70276 0.0566053
threshold=1.0000000180025095e-35 1.0000000180025095e-35 2.5000000000000004 4.5000000000000009 1.5000000000000002 1.0000000180025095e-35 3.5000000000000004
decision_type=2 2 2 2 2 2 2
left_child=5 -2 4 6 -3 -1 -4
right_child=1 2 3 -5 -6 -7 -8
leaf_value=-0.0029467852412625641 -0.0029251992711746234 0.0049743114061329228 -0.0031790644268052228 0.021277911728904614 0.021922347838846525 -0.0027075166254503279 -0.0029117569490209761
leaf_weight=4335 177 3630 82 622 1819 1867 258
leaf_count=4335 177 3630 82 622 1819 1867 258
internal_value=0.00368994 0.0162814 0.0170396 0.0098837 0.0183006 -0.00968531 -0.00855718
internal_weight=12790 6588 6411 962 5449 6202 340
internal_count=12790 6588 6411 962 5449 6202 340
is_linear=0
shrinkage=0.02


Tree=44
num_leaves=7
num_cat=0
split_feature=0 1 0 0 0 1
split_gain=5254.03 339.022 136.416 444.363 23.0006 2.01888
threshold=1.0000000180025095e-35 1.0000000180025095e-35 2.5000000000000004 4.5000000000000009 1.5000000000000002 1.0000000180025095e-35
decision_type=2 2 2 2 2 2
left_child=5 -2 4 -4 -3 -1
right_child=1 2 3 -5 -6 -7
leaf_value=-0.0028878495364373083 -0.002866695285751124 0.004874825178010269 -0.0029908852071787086 0.020852353494326525 0.021483900882069591 -0.0026533662929413282
leaf_weight=4335 177 3630 340 622 1819 1867
leaf_count=4335 177 3630 340 622 1819 1867
internal_value=0.00369932 0.0161357 0.0168899 0.00992523 0.0181171 -0.0095112
internal_weight=12790 6588 6411 962 5449 6202
internal_count=12790 6588 6411 962 5449 6202
is_linear=0
shrinkage=0.02


Tree=45
num_leaves=9
num_cat=0
split_feature=0 1 0 0 0 1 1 0
split_gain=5105.2 354.059 122.853 430.768 30.9961 3.51944 0.488295 0.27694
threshold=1.0000000180025095e-35 1.0000000180025095e-35 2.5000000000000004 4.5000000000000009 1.5000000000000002 1.0000000180025095e-35 4.5000000000000009 3.5000000000000004
decision_type=2 2 2 2 2 2 2 2
left_child=5 -2 4 6 -3 -1 7 -4
right_child=1 2 3 -5 -6 -7 -8 -9
leaf_value=-0.0028030272686089576 -0.0028093613800361083 0.0047051427041436616 -0.0022708681284472742 0.020445172185243214 0.021012618822374981 -0.0026290903946948065 -0.003415630340175735 -0.0029149399533701372
leaf_weight=4290 189 3635 80 619 1832 1864 30 229
leaf_count=4290 189 3635 80 619 1832 1864 30 229
internal_value=0.0036869 0.0158848 0.0166788 0.0100501 0.017838 -0.00942291 -0.00805294 -0.00831613
internal_weight=12768 6614 6425 958 5467 6154 339 309
internal_count=12768 6614 6425 958 5467 6154 339 309
is_linear=0
shrinkage=0.02


Tree=46
num_leaves=8
num_cat=0
split_feature=0 1 0 0 0 1 1
split_gain=5008.04 346.805 115.51 419.975 34.3471 4.40431 0.340629
threshold=1.0000000180025095e-35 1.0000000180025095e-35 2.5000000000000004 4.5000000000000009 1.5000000000000002 1.0000000180025095e-35 4.5000000000000009
decision_type=2 2 2 2 2 2 2
left_child=5 -2 4 6 -3 -1 -4
right_child=1 2 3 -5 -6 -7 -8
leaf_value=-0.0027469667232367812 -0.0027531741524353848 0.0046110398500607813 -0.0026486862963490767 0.020036268741538344 0.020592366445927476 -0.0025765085868009051 -0.0033473177333722148
leaf_weight=4290 189 3635 309 619 1832 1864 30
leaf_count=4290 189 3635 309 619 1832 1864 30
internal_value=0.00373702 0.0158183 0.0166041 0.0101752 0.0177282 -0.00924744 -0.0077
internal_weight=12768 6614 6425 958 5467 6154 339
internal_count=12768 6614 6425 958 5467 6154 339
is_linear=0
shrinkage=0.02


Tree=47
num_leaves=8
num_cat=0
split_feature=0 1 0 0 0 1 1
split_gain=4903.92 334.373 111.34 416.407 37.3854 2.80387 0.295961
threshold=1.0000000180025095e-35 1.0000000180025095e-35 2.5000000000000004 4.5000000000000009 1.5000000000000002 1.0000000180025095e-35 4.5000000000000009
decision_type=2 2 2 2 2 2 2
left_child=5 -2 4 6 -3 -1 -4
right_child=1 2 3 -5 -6 -7 -8
leaf_value=-0.0026920273887720472 -0.0026981106693866686 0.0045188190530595666 -0.0025957125704220907 0.019635543366707572 0.020180519117008924 -0.0025249784150648937 -0.0032803713787047783
leaf_weight=4290 189 3635 309 619 1832 1864 30
leaf_count=4290 189 3635 309 619 1832 1864 30
internal_value=0.0038028 0.0157578 0.0165294 0.0102169 0.0176331 -0.00904598 -0.00758235
internal_weight=12768 6614 6425 958 5467 6154 339
internal_count=12768 6614 6425 958 5467 6154 339
is_linear=0
shrinkage=0.02


Tree=48
num_leaves=8
num_cat=0
split_feature=0 1 0 0 0 1 1
split_gain=4788.19 332.831 107.68 412.855 40.0536 2.83495 0.910344
threshold=1.0000000180025095e-35 1.0000000180025095e-35 2.5000000000000004 4.5000000000000009 1.5000000000000002 1.0000000180025095e-35 4.5000000000000009
decision_type=2 2 2 2 2 2 2
left_child=5 -2 4 6 -3 -1 -4
right_child=1 2 3 -5 -6 -7 -8
leaf_value=-0.0026381868409966103 -0.0026441484559989272 0.0044284426719983826 -0.002543798319013657 0.019242832499373429 0.019776908734668749 -0.0024744788467635993 -0.0032147639511306814
leaf_weight=4290 189 3635 309 619 1832 1864 30
leaf_count=4290 189 3635 309 619 1832 1864 30
internal_value=0.00388425 0.0156974 0.0164672 0.0102586 0.0175527 -0.00881202 -0.00746471
internal_weight=12768 6614 6425 958 5467 6154 339
internal_count=12768 6614 6425 958 5467 6154 339
is_linear=0
shrinkage=0.02


Tree=49
num_leaves=8
num_cat=0
split_feature=0 1 0 0 0 1 1
split_gain=4685.11 324.886 100.962 405.796 45.1334 2.54301 0.780781
threshold=1.0000000180025095e-35 1.0000000180025095e-35 2.5000000000000004 4.5000000000000009 1.5000000000000002 1.0000000180025095e-35 4.5000000000000009
decision_type=2 2 2 2 2 2 2
left_child=5 -2 4 6 -3 -1 -4
right_child=1 2 3 -5 -6 -7 -8
leaf_value=-0.0025854231041766698 -0.0025912654868789531 0.0043398738185584131 -0.002492922352633382 0.018857975849385956 0.019381370559975367 -0.0024249892698283305 -0.0031504686721080689
leaf_weight=4290 189 3635 309 619 1832 1864 30
leaf_count=4290 189 3635 309 619 1832 1864 30
internal_value=0.00390931 0.0155946 0.0163551 0.010342 0.0174064 -0.00864955 -0.00722941
internal_weight=12768 6614 6425 958 5467 6154 339
internal_count=12768 6614 6425 958 5467 6154 339
is_linear=0
shrinkage=0.02


Tree=50
num_leaves=9
num_cat=0
split_feature=0 1 0 0 0 1 0 1
split_gain=4600.15 332.245 93.7764 406.581 44.76 0.84006 0.494759 0.0821983
threshold=1.0000000180025095e-35 1.0000000180025095e-35 2.5000000000000004 4.5000000000000009 1.5000000000000002 1.0000000180025095e-35 3.5000000000000004 2.5000000000000004
decision_type=2 2 2 2 2 2 2 2
left_child=5 6 4 7 -3 -1 -2 -4
right_child=1 2 3 -5 -6 -7 -8 -9
leaf_value=-0.0024463485379671644 -0.0020929599537305955 0.004319921736321764 -0.0023706270910033747 0.018477888552246871 0.019048317161532199 -0.0023154066444659449 -0.002914844535051522 -0.0030211567538790973
leaf_weight=4339 51 3601 247 631 1845 1830 140 78
leaf_count=4339 51 3601 247 631 1845 1830 140 78
internal_value=0.00402711 0.0156412 0.016417 0.0106144 0.0174331 -0.00838541 -0.0103021 -0.00753988
internal_weight=12762 6593 6402 956 5446 6169 191 325
internal_count=12762 6593 6402 956 5446 6169 191 325
is_linear=0
shrinkage=0.02


Tree=51
num_leaves=9
num_cat=0
split_feature=0 1 0 0 0 1 0 1
split_gain=4532.17 320.423 89.0767 399.352 47.9697 0.854454 0.819929 0.245844
threshold=1.0000000180025095e-35 1.0000000180025095e-35 2.5000000000000004 4.5000000000000009 1.5000000000000002 1.0000000180025095e-35 3.5000000000000004 2.5000000000000004
decision_type=2 2 2 2 2 2 2 2
left_child=5 6 4 7 -3 -1 -2 -4
right_child=1 2 3 -5 -6 -7 -8 -9
leaf_value=-0.0023974215672078183 -0.0020511007546559767 0.0042335233015953298 -0.0023232145491833122 0.018108330781201935 0.018667350818301554 -0.0022690985115766259 -0.0028565476443504958 -0.0029607336188015232
leaf_weight=4339 51 3601 247 631 1845 1830 140 78
leaf_count=4339 51 3601 247 631 1845 1830 140 78
internal_value=0.00406472 0.0155927 0.0163545 0.010698 0.017345 -0.00825575 -0.00988542 -0.00729448
internal_weight=12762 6593 6402 956 5446 6169 191 325
internal_count=12762 6593 6402 956 5446 6169 191 325
is_linear=0
shrinkage=0.02


Tree=52
num_leaves=8
num_cat=0
split_feature=0 1 0 0 0 0 1
split_gain=4461.94 319.509 82.6885 385.087 50.7272 0.819929 0.368449
threshold=1.0000000180025095e-35 1.0000000180025095e-35 2.5000000000000004 4.5000000000000009 1.5000000000000002 3.5000000000000004 1.0000000180025095e-35
decision_type=2 2 2 2 2 2 2
left_child=6 5 4 -4 -3 -2 -1
right_child=1 2 3 -5 -6 -7 -8
leaf_value=-0.0023494731358636579 -0.0020100787395628573 0.0041488528355634281 -0.0023146702357843552 0.01774616416557789 0.018294003801935528 -0.002799416691463481 -0.0022237165413450909
leaf_weight=4339 51 3601 325 631 1845 140 1830
leaf_count=4339 51 3601 325 631 1845 140 1830
internal_value=0.004118 0.0155563 0.016317 0.0108652 0.0172715 -0.00988542 -0.00810665
internal_weight=12762 6593 6402 956 5446 191 6169
internal_count=12762 6593 6402 956 5446 191 6169
is_linear=0
shrinkage=0.02


Tree=53
num_leaves=9
num_cat=0
split_feature=0 1 0 0 0 0 1 1
split_gain=4364.44 317.383 78.7816 381.562 55.0046 0.819929 0.21415 0.0402907
threshold=1.0000000180025095e-35 1.0000000180025095e-35 2.5000000000000004 4.5000000000000009 1.5000000000000002 3.5000000000000004 1.0000000180025095e-35 2.5000000000000004
decision_type=2 2 2 2 2 2 2 2
left_child=6 5 4 7 -3 -2 -1 -4
right_child=1 2 3 -5 -6 -7 -8 -9
leaf_value=-0.0023024836731463873 -0.0019698771647716031 0.004065875778852153 -0.0022304568534839576 0.017391240882266335 0.017928123725896816 -0.0027434283576342191 -0.0021792422105181863 -0.002855225541709814
leaf_weight=4339 51 3601 247 631 1845 140 1830 78
leaf_count=4339 51 3601 247 631 1845 140 1830 78
internal_value=0.00415874 0.0154713 0.0162296 0.010907 0.0171614 -0.00988542 -0.0079316 -0.00668098
internal_weight=12762 6593 6402 956 5446 191 6169 325
internal_count=12762 6593 6402 956 5446 191 6169 325
is_linear=0
shrinkage=0.02


Tree=54
num_leaves=9
num_cat=0
split_feature=0 1 0 0 0 0 1 1
split_gain=4242.21 309.63 75.4627 376.251 60.3608 1.39926 0.196946 0.107765
threshold=1.0000000180025095e-35 1.0000000180025095e-35 2.5000000000000004 4.5000000000000009 1.5000000000000002 3.5000000000000004 1.0000000180025095e-35 2.5000000000000004
decision_type=2 2 2 2 2 2 2 2
left_child=6 5 4 7 -3 -2 -1 -4
right_child=1 2 3 -5 -6 -7 -8 -9
leaf_value=-0.0022564339996834627 -0.0019304796214761667 0.0039845582632751153 -0.0021858477164142798 0.017043416064621012 0.017569561251378884 -0.0026885597904815306 -0.0021356573663078218 -0.0027981210308756135
leaf_weight=4339 51 3601 247 631 1845 140 1830 78
leaf_count=4339 51 3601 247 631 1845 140 1830 78
internal_value=0.00421515 0.0153682 0.0161171 0.010907 0.0170292 -0.00967708 -0.0077047 -0.00655828
internal_weight=12762 6593 6402 956 5446 191 6169 325
internal_count=12762 6593 6402 956 5446 191 6169 325
is_linear=0
shrinkage=0.02


Tree=55
num_leaves=8
num_cat=0
split_feature=0 1 0 0 0 1 1
split_gain=4141.73 321.314 86.1317 382.895 68.4398 2.29739 0.34658
threshold=1.0000000180025095e-35 1.0000000180025095e-35 2.5000000000000004 4.5000000000000009 1.5000000000000002 4.5000000000000009 3.5000000000000004
decision_type=2 2 2 2 2 2 2
left_child=-1 -2 4 5 -3 6 -4
right_child=1 2 3 -5 -6 -7 -8
leaf_value=-0.0022595230931272961 -0.0024302016119448488 0.0039182781659722644 -0.0020745171398171892 0.016674147322186014 0.017184514859725334 -0.0024409961358188427 -0.0024233968892873391
leaf_weight=6055 192 3678 287 619 1837 32 31
leaf_count=6055 192 3678 287 619 1837 32 31
internal_value=0.00423327 0.0150963 0.0158517 0.0103278 0.0168198 -0.00637607 -0.00689028
internal_weight=12731 6676 6484 969 5515 350 318
internal_count=12731 6676 6484 969 5515 350 318
is_linear=0
shrinkage=0.02


Tree=56
num_leaves=9
num_cat=0
split_feature=0 1 0 0 0 1 1 1
split_gain=4065.27 319.805 82.9272 379.561 71.9771 2.19569 0.407931 0.113805
threshold=1.0000000180025095e-35 1.0000000180025095e-35 2.5000000000000004 4.5000000000000009 1.5000000000000002 4.5000000000000009 3.5000000000000004 1.0000000180025095e-35
decision_type=2 2 2 2 2 2 2 2
left_child=7 -2 4 5 -3 6 -4 -1
right_child=1 2 3 -5 -6 -7 -8 -9
leaf_value=-0.0022237167865381837 -0.0023815975797059608 0.0038399126026528131 -0.0020330267970208381 0.0163406643757423 0.016840824562530835 -0.0023921762131024595 -0.0023749289515015981 -0.0021769575535058295
leaf_weight=4218 192 3678 287 619 1837 32 31 1837
leaf_count=4218 192 3678 287 619 1837 32 31 1837
internal_value=0.00427411 0.0150364 0.01579 0.0103691 0.01674 -0.00626211 -0.00676489 -0.00759214
internal_weight=12731 6676 6484 969 5515 350 318 6055
internal_count=12731 6676 6484 969 5515 350 318 6055
is_linear=0
shrinkage=0.02


Tree=57
num_leaves=9
num_cat=0
split_feature=0 1 0 0 0 1 1 1
split_gain=3990.83 312.211 79.7283 369.219 77.6161 1.99915 0.53873 0.0485174
threshold=1.0000000180025095e-35 1.0000000180025095e-35 2.5000000000000004 4.5000000000000009 1.5000000000000002 4.5000000000000009 3.5000000000000004 1.0000000180025095e-35
decision_type=2 2 2 2 2 2 2 2
left_child=7 -2 4 5 -3 6 -4 -1
right_child=1 2 3 -5 -6 -7 -8 -9
leaf_value=-0.0021792424508074149 -0.0023339656281118337 0.0037631143505997499 -0.001992366261080427 0.016013851088227452 0.016504008071280225 -0.0023443326888404137 -0.002327430372471575 -0.0021334184024357052
leaf_weight=4218 192 3678 287 619 1837 32 31 1837
leaf_count=4218 192 3678 287 619 1837 32 31 1837
internal_value=0.00427725 0.0149405 0.0156851 0.0103691 0.0166168 -0.00603419 -0.00651411 -0.00747985
internal_weight=12731 6676 6484 969 5515 350 318 6055
internal_count=12731 6676 6484 969 5515 350 318 6055
is_linear=0
shrinkage=0.02


Tree=58
num_leaves=8
num_cat=0
split_feature=0 1 0 0 0 1 1
split_gain=3891.71 304.561 76.4096 364.102 83.815 1.90431 0.608179
threshold=1.0000000180025095e-35 1.0000000180025095e-35 2.5000000000000004 4.5000000000000009 1.5000000000000002 4.5000000000000009 3.5000000000000004
decision_type=2 2 2 2 2 2 2
left_child=-1 -2 4 5 -3 6 -4
right_child=1 2 3 -5 -6 -7 -8
leaf_value=-0.0021262734465178211 -0.0022872863155495972 0.0036878520635877619 -0.0019525189358588159 0.015693574066462899 0.016173927909854627 -0.0022974460350635973 -0.0022808817650221513
leaf_weight=6055 192 3678 287 619 1837 32 31
leaf_count=6055 192 3678 287 619 1837 32 31
internal_value=0.00430867 0.0148387 0.0155741 0.0103691 0.0164862 -0.00592023 -0.00638871
internal_weight=12731 6676 6484 969 5515 350 318
internal_count=12731 6676 6484 969 5515 350 318
is_linear=0
shrinkage=0.02


Tree=59
num_leaves=9
num_cat=0
split_feature=0 1 0 0 0 1 1 1
split_gain=3832.05 297.587 75.0848 357.194 88.4379 1.81176 0.680327 0.0941726
threshold=1.0000000180025095e-35 1.0000000180025095e-35 2.5000000000000004 4.5000000000000009 1.5000000000000002 4.5000000000000009 3.5000000000000004 1.0000000180025095e-35
decision_type=2 2 2 2 2 2 2 2
left_child=7 -2 4 5 -3 6 -4 -1
right_child=1 2 3 -5 -6 -7 -8 -9
leaf_value=-0.0020931321328609086 -0.0022415405892386 0.003614095022316004 -0.0019134685571416377 0.01537970258513365 0.015850449351657529 -0.0022514971143623263 -0.0022352641297217167 -0.0020482245654566355
leaf_weight=4218 192 3678 287 619 1837 32 31 1837
leaf_count=4218 192 3678 287 619 1837 32 31 1837
internal_value=0.00431181 0.0147608 0.0154877 0.0103278 0.016392 -0.00580627 -0.00626332 -0.00720905
internal_weight=12731 6676 6484 969 5515 350 318 6055
internal_count=12731 6676 6484 969 5515 350 318 6055
is_linear=0
shrinkage=0.02


Tree=60
num_leaves=11
num_cat=0
split_feature=0 1 1 0 0 0 0 0 0 0
split_gain=3735.61 274.095 74.4998 121.371 132.035 30.515 18.9159 108.095 0.519834 0.236387
threshold=1.0000000180025095e-35 1.0000000180025095e-35 2.5000000000000004 2.5000000000000004 4.5000000000000009 1.5000000000000002 2.5000000000000004 4.5000000000000009 3.5000000000000004 3.5000000000000004
decision_type=2 2 2 2 2 2 2 2 2 2
left_child=-1 8 3 5 9 -3 -4 -8 -2 -5
right_child=1 2 6 4 -6 -7 7 -9 -10 -11
leaf_value=-0.0020086497850035022 -0.0019189315545409436 0.0034907867775703671 0.015551898731018419 -0.0010181735882990495 0.015099521901656079 0.015576317561890001 -0.0013898157440999448 0.015124241139937329 -0.0020258924022707172 -0.0019756497017458761
leaf_weight=6131 48 3612 1370 71 150 452 89 464 145 181
leaf_count=6131 48 3612 1370 71 150 452 89 464 145 181
internal_value=0.00422353 0.014686 0.0153956 0.0139687 0.00346898 0.0150057 0.0186996 0.0154838 -0.00875258 -0.00536759
internal_weight=12713 6582 6389 4466 402 4064 1923 553 193 252
internal_count=12713 6582 6389 4466 402 4064 1923 553 193 252
is_linear=0
shrinkage=0.02


Tree=61
num_leaves=12
num_cat=0
split_feature=0 1 1 0 0 0 0 0 0 1 0
split_gain=3653.17 267.041 76.5262 120.775 124.462 32.1603 20.8917 105.787 0.389457 0.239616 0.153435
threshold=1.0000000180025095e-35 1.0000000180025095e-35 2.5000000000000004 2.5000000000000004 4.5000000000000009 1.5000000000000002 2.5000000000000004 4.5000000000000009 3.5000000000000004 1.0000000180025095e-35 3.5000000000000004
decision_type=2 2 2 2 2 2 2 2 2 2 2
left_child=9 8 3 5 10 -3 -4 -8 -2 -1 -5
right_child=1 2 6 4 -6 -7 7 -9 -10 -11 -12
leaf_value=-0.0019465756586271609 -0.0018805529234501251 0.0034209710420189587 0.015240860756398043 -0.00099781011653305991 0.014797531463622953 0.015264791210652202 -0.0013620194292179378 0.014821756317138579 -0.0019853745542252987 -0.0020213988307667742 -0.0019361367077109649
leaf_weight=4292 48 3612 1370 71 150 452 89 464 145 1839 181
leaf_count=4292 48 3612 1370 71 150 452 89 464 145 1839 181
internal_value=0.00424241 0.0145888 0.0152892 0.0138433 0.00336973 0.0148777 0.0186372 0.0152671 -0.00854639 -0.0068653 -0.00520949
internal_weight=12713 6582 6389 4466 402 4064 1923 553 193 6131 252
internal_count=12713 6582 6389 4466 402 4064 1923 553 193 6131 252
is_linear=0
shrinkage=0.02


Tree=62
num_leaves=12
num_cat=0
split_feature=0 1 1 0 0 0 0 0 1 0 0
split_gain=3580.44 260.078 80.5339 115.229 122.752 34.3746 21.5708 105.023 0.274405 0.272637 0.0828187
threshold=1.0000000180025095e-35 1.0000000180025095e-35 2.5000000000000004 2.5000000000000004 4.5000000000000009 1.5000000000000002 2.5000000000000004 4.5000000000000009 1.0000000180025095e-35 3.5000000000000004 3.5000000000000004
decision_type=2 2 2 2 2 2 2 2 2 2 2
left_child=8 9 3 5 10 -3 -4 -8 -1 -2 -5
right_child=1 2 6 4 -6 -7 7 -9 -10 -11 -12
leaf_value=-0.0019076441454546256 -0.0018429418649811248 0.0033525516211785878 0.01493604354127008 -0.00097785391420240225 0.014501580834350492 0.014959495386439165 -0.0013347790406335847 0.014525321190795816 -0.0019809708541514404 -0.0019456670631407924 -0.0018974139735567518
leaf_weight=4292 48 3612 1370 71 150 452 89 464 1839 145 181
leaf_count=4292 48 3612 1370 71 150 452 89 464 1839 145 181
internal_value=0.0042487 0.0144916 0.0151828 0.0137 0.00346898 0.0147105 0.0186164 0.0151949 -0.00674788 -0.00834021 -0.00505138
internal_weight=12713 6582 6389 4466 402 4064 1923 553 6131 193 252
internal_count=12713 6582 6389 4466 402 4064 1923 553 6131 193 252
is_linear=0
shrinkage=0.02


Tree=63
num_leaves=12
num_cat=0
split_feature=0 1 1 0 0 0 0 0 1 0 0
split_gain=3516.25 249.398 84.1313 112.816 122.752 35.9805 21.5708 105.023 0.280093 0.0828187 0.0796702
threshold=1.0000000180025095e-35 1.0000000180025095e-35 2.5000000000000004 2.5000000000000004 4.5000000000000009 1.5000000000000002 2.5000000000000004 4.5000000000000009 1.0000000180025095e-35 3.5000000000000004 3.5000000000000004
decision_type=2 2 2 2 2 2 2 2 2 2 2
left_child=8 10 3 5 9 -3 -4 -8 -1 -5 -2
right_child=1 2 6 4 -6 -7 7 -9 -10 -11 -12
leaf_value=-0.0018694912625455374 -0.0018060830276814955 0.0032855005887550172 0.014637322670444685 -0.00095829683591835751 0.014211549217663481 0.014660305478710374 -0.0013080834598209101 0.014234814766979902 -0.0019413514370684127 -0.0018594656940856247 -0.0019067537218779762
leaf_weight=4292 48 3612 1370 71 150 452 89 464 1839 181 145
leaf_count=4292 48 3612 1370 71 150 452 89 464 1839 181 145
internal_value=0.00428016 0.0144308 0.0151077 0.0135926 0.00346898 0.0145924 0.0186164 0.0151949 -0.00661742 -0.00505138 -0.00792784
internal_weight=12713 6582 6389 4466 402 4064 1923 553 6131 252 193
internal_count=12713 6582 6389 4466 402 4064 1923 553 6131 252 193
is_linear=0
shrinkage=0.02


Tree=64
num_leaves=13
num_cat=0
split_feature=0 1 1 0 0 0 0 0 1 0 0 1
split_gain=3440.89 246.968 88.639 109.443 122.752 38.3163 22.2603 104.262 0.110503 0.0828187 0.0796702 0.0781147
threshold=1.0000000180025095e-35 1.0000000180025095e-35 2.5000000000000004 2.5000000000000004 4.5000000000000009 1.5000000000000002 2.5000000000000004 4.5000000000000009 1.0000000180025095e-35 3.5000000000000004 3.5000000000000004 1.5000000000000002
decision_type=2 2 2 2 2 2 2 2 2 2 2 2
left_child=8 10 3 5 9 11 -4 -8 -1 -5 -2 -3
right_child=1 2 6 4 -6 -7 7 -9 -10 -11 -12 -13
leaf_value=-0.0018321014372946287 -0.0017699613671278592 0.0031950618019554967 0.014344576217035793 -0.00093913089919999142 0.013927318233310207 0.014367099369136174 -0.0012819217906244874 0.013950118471640299 -0.0019025244083270465 -0.0018222763802039133 -0.001868618647440421 0.0032462287903283027
leaf_weight=4292 48 1835 1370 71 150 452 89 464 1839 181 145 1777
leaf_count=4292 48 1835 1370 71 150 452 89 464 1839 181 145 1777
internal_value=0.00428016 0.0143214 0.014995 0.0134403 0.00346898 0.0144251 0.0185956 0.0151227 -0.0065 -0.00505138 -0.00792784 0.0137277
internal_weight=12713 6582 6389 4466 402 4064 1923 553 6131 252 193 3612
internal_count=12713 6582 6389 4466 402 4064 1923 553 6131 252 193 3612
is_linear=0
shrinkage=0.02


Tree=65
num_leaves=11
num_cat=0
split_feature=0 1 1 0 0 0 0 0 1 1
split_gain=3445.03 252.275 94.2332 104.568 109.014 40.8558 20.9424 118.825 1.60161 0.269108
threshold=1.0000000180025095e-35 1.0000000180025095e-35 2.5000000000000004 2.5000000000000004 4.5000000000000009 1.5000000000000002 2.5000000000000004 4.5000000000000009 1.5000000000000002 1.5000000000000002
decision_type=2 2 2 2 2 2 2 2 2 2
left_child=-1 -2 3 5 9 8 -4 -8 -3 -5
right_child=1 2 6 4 -6 -7 7 -9 -10 -11
leaf_value=-0.0018897444198402447 -0.0019335516867840853 0.0031561659064925605 0.01405693605835669 -0.0011072992264555559 0.013647784815726514 0.014054065395669469 -0.002057026457839335 0.013671979177463846 0.0032688562851394209 -0.0020333856316525714
leaf_weight=6230 192 1851 1381 133 135 457 87 466 1800 117
leaf_count=6230 192 1851 1381 133 135 457 87 466 1800 117
internal_value=0.00422241 0.0142686 0.0149437 0.0133462 0.00336269 0.0142804 0.018645 0.0152671 0.0135646 -0.00445418
internal_weight=12849 6619 6427 4493 385 4108 1934 553 3651 250
internal_count=12849 6619 6427 4493 385 4108 1934 553 3651 250
is_linear=0
shrinkage=0.02


Tree=66
num_leaves=11
num_cat=0
split_feature=0 1 1 0 0 0 0 0 1 1
split_gain=3374.57 250.388 98.7585 101.968 109.014 42.8838 20.9424 118.825 1.22115 0.269108
threshold=1.0000000180025095e-35 1.0000000180025095e-35 2.5000000000000004 2.5000000000000004 4.5000000000000009 1.5000000000000002 2.5000000000000004 4.5000000000000009 1.5000000000000002 1.5000000000000002
decision_type=2 2 2 2 2 2 2 2 2 2
left_child=-1 -2 3 5 9 8 -4 -8 -3 -5
right_child=1 2 6 4 -6 -7 7 -9 -10 -11
leaf_value=-0.001851949531443431 -0.0018948806530483964 0.0030930425883627065 0.013775797337189548 -0.0010851532419264487 0.013374829119411978 0.013772984087756086 -0.0020158859286825504 0.013398539593914568 0.0032034791594366396 -0.0019927179190195156
leaf_weight=6230 192 1851 1381 133 135 457 87 466 1800 117
leaf_count=6230 192 1851 1381 133 135 457 87 466 1800 117
internal_value=0.00424109 0.014184 0.0148566 0.0132216 0.00336269 0.0141441 0.018645 0.0152671 0.0134113 -0.00445418
internal_weight=12849 6619 6427 4493 385 4108 1934 553 3651 250
internal_count=12849 6619 6427 4493 385 4108 1934 553 3651 250
is_linear=0
shrinkage=0.02


Tree=67
num_leaves=11
num_cat=0
split_feature=0 1 1 0 0 0 0 0 1 1
split_gain=3303.11 248.107 104.395 98.8561 109.014 45.4105 20.9424 118.825 1.30386 0.269108
threshold=1.0000000180025095e-35 1.0000000180025095e-35 2.5000000000000004 2.5000000000000004 4.5000000000000009 1.5000000000000002 2.5000000000000004 4.5000000000000009 1.5000000000000002 1.5000000000000002
decision_type=2 2 2 2 2 2 2 2 2 2
left_child=-1 -2 3 5 9 8 -4 -8 -3 -5
right_child=1 2 6 4 -6 -7 7 -9 -10 -11
leaf_value=-0.0018149105408145694 -0.0018569830399874298 0.0030311817365954495 0.01350028139044575 -0.0010634501770879191 0.013107332537023737 0.013497524406000955 -0.0019755682101088999 0.013130568802036269 0.0031394095762479067 -0.0019528635606391198
leaf_weight=6230 192 1851 1381 133 135 457 87 466 1800 117
leaf_count=6230 192 1851 1381 133 135 457 87 466 1800 117
internal_value=0.0042442 0.0140813 0.0147508 0.0130703 0.00336269 0.0139786 0.018645 0.0152671 0.0132251 -0.00445418
internal_weight=12849 6619 6427 4493 385 4108 1934 553 3651 250
internal_count=12849 6619 6427 4493 385 4108 1934 553 3651 250
is_linear=0
shrinkage=0.02


Tree=68
num_leaves=11
num_cat=0
split_feature=0 1 1 0 0 0 0 0 1 1
split_gain=3239.97 242.065 108.466 92.534 105.91 47.5442 20.9424 118.825 1.29781 0.0277145
threshold=1.0000000180025095e-35 1.0000000180025095e-35 2.5000000000000004 2.5000000000000004 4.5000000000000009 1.5000000000000002 2.5000000000000004 4.5000000000000009 1.5000000000000002 1.5000000000000002
decision_type=2 2 2 2 2 2 2 2 2 2
left_child=-1 -2 3 5 9 8 -4 -8 -3 -5
right_child=1 2 6 4 -6 -7 7 -9 -10 -11
leaf_value=-0.0017786123299982747 -0.0018198433791876845 0.0029705581018635388 0.013230275762636837 -0.0010421811735461617 0.012845185886283268 0.013227573917880929 -0.0019360568459067197 0.012867957425995549 0.0030766213847229552 -0.0019138062894263363
leaf_weight=6230 192 1851 1381 133 135 457 87 466 1800 117
leaf_count=6230 192 1851 1381 133 135 457 87 466 1800 117
internal_value=0.00427222 0.0140148 0.0146761 0.0129635 0.00356995 0.0138423 0.018645 0.0152671 0.0130717 -0.00413546
internal_weight=12849 6619 6427 4493 385 4108 1934 553 3651 250
internal_count=12849 6619 6427 4493 385 4108 1934 553 3651 250
is_linear=0
shrinkage=0.02


Tree=69
num_leaves=11
num_cat=0
split_feature=0 1 1 0 0 0 0 0 1 1
split_gain=3191.44 236.489 111.571 86.9304 102.85 49.2541 20.9424 118.825 1.38394 0.0267538
threshold=1.0000000180025095e-35 1.0000000180025095e-35 2.5000000000000004 2.5000000000000004 4.5000000000000009 1.5000000000000002 2.5000000000000004 4.5000000000000009 1.5000000000000002 1.5000000000000002
decision_type=2 2 2 2 2 2 2 2 2 2
left_child=-1 -2 3 5 9 8 -4 -8 -3 -5
right_child=1 2 6 4 -6 -7 7 -9 -10 -11
leaf_value=-0.0017430400833983129 -0.0017834465116039235 0.0029111469398262636 0.0129656702473841 -0.0010213375500752343 0.012588282168557594 0.012963022439523311 -0.0018973357089885922 0.012610598277475642 0.003015088957028489 -0.0018755301636378086
leaf_weight=6230 192 1851 1381 133 135 457 87 466 1800 117
leaf_count=6230 192 1851 1381 133 135 457 87 466 1800 117
internal_value=0.00429712 0.0139665 0.0146201 0.0128834 0.0037772 0.0137352 0.018645 0.0152671 0.0129513 -0.00381673
internal_weight=12849 6619 6427 4493 385 4108 1934 553 3651 250
internal_count=12849 6619 6427 4493 385 4108 1934 553 3651 250
is_linear=0
shrinkage=0.02


Tree=70
num_leaves=10
num_cat=0
split_feature=0 1 1 0 0 0 0 0 1
split_gain=3075.63 219.615 121.848 69.6258 112.909 57.5153 19.7805 95.8041 0.690901
threshold=1.0000000180025095e-35 1.0000000180025095e-35 2.5000000000000004 2.5000000000000004 4.5000000000000009 1.5000000000000002 2.5000000000000004 4.5000000000000009 1.5000000000000002
decision_type=2 2 2 2 2 2 2 2 2
left_child=-1 -2 3 5 -5 8 -4 -8 -3
right_child=1 2 6 4 -6 -7 7 -9 -10
leaf_value=-0.0016599710450360128 -0.00154868853107887 0.0027681471226727971 0.012707105476774797 -0.0012909374638076089 0.012326889182962316 0.01271940224952191 -0.0015754394412669903 0.0123141548971312 0.0029312886427316619
leaf_weight=6229 190 1838 1380 240 156 481 84 452 1818
leaf_count=6229 190 1838 1380 240 156 481 84 452 1818
internal_value=0.00436382 0.013834 0.0144586 0.0126639 0.00462972 0.0134311 0.0186948 0.0153408 0.0125671
internal_weight=12868 6639 6449 4533 396 4137 1916 536 3656
internal_count=12868 6639 6449 4533 396 4137 1916 536 3656
is_linear=0
shrinkage=0.02


Tree=71
num_leaves=10
num_cat=0
split_feature=0 1 1 0 0 0 0 0 1
split_gain=3000.88 218.119 126.193 67.7965 112.909 59.6072 19.7805 95.8041 0.695644
threshold=1.0000000180025095e-35 1.0000000180025095e-35 2.5000000000000004 2.5000000000000004 4.5000000000000009 1.5000000000000002 2.5000000000000004 4.5000000000000009 1.5000000000000002
decision_type=2 2 2 2 2 2 2 2 2
left_child=-1 -2 3 5 -5 8 -4 -8 -3
right_child=1 2 6 4 -6 -7 7 -9 -10
leaf_value=-0.0016267716241353015 -0.0015177147604572916 0.002712784180219341 0.012452963367239302 -0.0012651187145314503 0.012080351399303062 0.012465014204531465 -0.0015439306524416452 0.01206787179918857 0.0028726628698770361
leaf_weight=6229 190 1838 1380 240 156 481 84 452 1818
leaf_count=6229 190 1838 1380 240 156 481 84 452 1818
internal_value=0.00440734 0.0137617 0.0143842 0.012558 0.00462972 0.0133151 0.0186948 0.0153408 0.0124359
internal_weight=12868 6639 6449 4533 396 4137 1916 536 3656
internal_count=12868 6639 6449 4533 396 4137 1916 536 3656
is_linear=0
shrinkage=0.02


Tree=72
num_leaves=10
num_cat=0
split_feature=0 1 1 0 0 0 0 0 1
split_gain=2925.31 212.078 131.731 65.5441 112.909 62.2735 19.7805 95.8041 0.775025
threshold=1.0000000180025095e-35 1.0000000180025095e-35 2.5000000000000004 2.5000000000000004 4.5000000000000009 1.5000000000000002 2.5000000000000004 4.5000000000000009 1.5000000000000002
decision_type=2 2 2 2 2 2 2 2 2
left_child=-1 -2 3 5 -5 8 -4 -8 -3
right_child=1 2 6 4 -6 -7 7 -9 -10
leaf_value=-0.0015942361916525983 -0.0014873604652481376 0.002658528496614956 0.012203904099894523 -0.0012398163402408181 0.01183874437131701 0.012215713920440834 -0.0015130520393928039 0.011826514363204801 0.0028152096124794924
leaf_weight=6229 190 1838 1380 240 156 481 84 452 1818
leaf_count=6229 190 1838 1380 240 156 481 84 452 1818
internal_value=0.00444153 0.0136774 0.0142912 0.0124257 0.00462972 0.0131701 0.0186948 0.0153408 0.0122718
internal_weight=12868 6639 6449 4533 396 4137 1916 536 3656
internal_count=12868 6639 6449 4533 396 4137 1916 536 3656
is_linear=0
shrinkage=0.02


Tree=73
num_leaves=11
num_cat=0
split_feature=0 1 1 0 0 0 0 0 1 1
split_gain=2858.37 206.243 138.287 61.6617 111.195 65.1807 19.115 91.9332 1.26705 0.0309125
threshold=1.0000000180025095e-35 1.0000000180025095e-35 2.5000000000000004 2.5000000000000004 4.5000000000000009 1.5000000000000002 2.5000000000000004 4.5000000000000009 1.5000000000000002 1.5000000000000002
decision_type=2 2 2 2 2 2 2 2 2 2
left_child=-1 -2 3 5 9 8 -4 -8 -3 -5
right_child=1 2 6 4 -6 -7 7 -9 -10 -11
leaf_value=-0.0015623514678195427 -0.0014576132559431798 0.0026053579266826611 0.011959826017896625 -0.0010084255462729174 0.011601969483890678 0.011971399642032025 -0.0014827909986049549 0.01158998407594071 0.0027589054202299046 -0.0017295372353591
leaf_weight=6229 190 1838 1380 128 156 481 84 452 1818 112
leaf_count=6229 190 1838 1380 128 156 481 84 452 1818 112
internal_value=0.0044695 0.0135991 0.0142043 0.0122933 0.00473048 0.0130155 0.0187157 0.0154153 0.0120968 -0.00380913
internal_weight=12868 6639 6449 4533 396 4137 1916 536 3656 240
internal_count=12868 6639 6449 4533 396 4137 1916 536 3656 240
is_linear=0
shrinkage=0.02


Tree=74
num_leaves=11
num_cat=0
split_feature=0 1 1 0 0 0 0 0 1 1
split_gain=2820.9 200.727 142.911 58.318 109.493 67.5907 19.115 91.9332 1.35932 0.128079
threshold=1.0000000180025095e-35 1.0000000180025095e-35 2.5000000000000004 2.5000000000000004 4.5000000000000009 1.5000000000000002 2.5000000000000004 4.5000000000000009 1.5000000000000002 1.5000000000000002
decision_type=2 2 2 2 2 2 2 2 2 2
left_child=-1 -2 3 5 9 8 -4 -8 -3 -5
right_child=1 2 6 4 -6 -7 7 -9 -10 -11
leaf_value=-0.00153110443846316 -0.0014284609908243161 0.0025532507681490023 0.011720629497538689 -0.00098825703534746625 0.011369930094212872 0.01173197164919138 -0.0014531351786328628 0.011358184394421898 0.0027037273118253147 -0.0016949464906519118
leaf_weight=6229 190 1838 1380 128 156 481 84 452 1818 112
leaf_count=6229 190 1838 1380 128 156 481 84 452 1818 112
internal_value=0.00446328 0.0135328 0.0141299 0.0121875 0.00483123 0.0128898 0.0187157 0.0154153 0.0119546 -0.00364315
internal_weight=12868 6639 6449 4533 396 4137 1916 536 3656 240
internal_count=12868 6639 6449 4533 396 4137 1916 536 3656 240
is_linear=0
shrinkage=0.02


Tree=75
num_leaves=11
num_cat=0
split_feature=0 1 0 0 0 0 0 1 1 1
split_gain=2680.11 207.057 182.244 148.548 74.4866 18.0204 102.48 0.988406 0.198511 0.0689517
threshold=1.0000000180025095e-35 2.5000000000000004 2.5000000000000004 4.5000000000000009 1.5000000000000002 2.5000000000000004 4.5000000000000009 1.0000000180025095e-35 1.5000000000000002 1.0000000180025095e-35
decision_type=2 2 2 2 2 2 2 2 2 2
left_child=9 2 4 7 -2 -3 -7 -4 -9 -1
right_child=1 5 3 -5 -6 6 -8 8 -10 -11
leaf_value=-0.0015035150340200686 0.002553489015893984 0.011479746227351094 -0.0016798380982173101 0.011142107107257822 0.011497332216207549 -0.0016654910569511917 0.011122203987478284 -0.001453273159899311 -0.0019256683417837018 -0.0014455048950581073
leaf_weight=4326 3665 1385 181 153 471 84 462 142 118 1893
leaf_count=4326 3665 1385 181 153 471 84 462 142 118 1893
internal_value=0.00440944 0.013224 0.0109655 0.000601681 0.012453 0.0187464 0.0155722 -0.00528959 -0.00443678 -0.00503183
internal_weight=12880 6661 4730 594 4136 1931 546 441 260 6219
internal_count=12880 6661 4730 594 4136 1931 546 441 260 6219
is_linear=0
shrinkage=0.02


Tree=76
num_leaves=12
num_cat=0
split_feature=0 1 0 0 0 0 0 1 1 1 1
split_gain=2629.24 213.428 178.103 148.548 77.2259 18.0204 102.48 0.988406 0.198511 0.0599528 0.00554177
threshold=1.0000000180025095e-35 2.5000000000000004 2.5000000000000004 4.5000000000000009 1.5000000000000002 2.5000000000000004 4.5000000000000009 1.0000000180025095e-35 1.5000000000000002 1.0000000180025095e-35 1.5000000000000002
decision_type=2 2 2 2 2 2 2 2 2 2 2
left_child=9 2 4 7 10 -3 -7 -4 -9 -1 -2
right_child=1 5 3 -5 -6 6 -8 8 -10 -11 -12
leaf_value=-0.0014734447333396618 0.0024927867717235053 0.011250151302804063 -0.0016462413362529559 0.010919264965112667 0.011267385571883394 -0.0016321812358121601 0.010899759907728726 -0.0014242076967013162 -0.0018871549749480288 -0.0014165947971569537 0.0025258891605028566
leaf_weight=4326 1860 1385 181 153 471 84 462 142 118 1893 1805
leaf_count=4326 1860 1385 181 153 471 84 462 142 118 1893 1805
internal_value=0.00440944 0.0131399 0.0108472 0.000601681 0.0123176 0.0187464 0.0155722 -0.00528959 -0.00443678 -0.0049418 0.0113306
internal_weight=12880 6661 4730 594 4136 1931 546 441 260 6219 3665
internal_count=12880 6661 4730 594 4136 1931 546 441 260 6219 3665
is_linear=0
shrinkage=0.02


Tree=77
num_leaves=12
num_cat=0
split_feature=0 1 0 0 0 0 0 1 1 1 1
split_gain=2572.81 219.638 174.883 148.548 79.4124 17.3909 98.4691 0.988406 0.198511 0.14646 0.145515
threshold=1.0000000180025095e-35 2.5000000000000004 2.5000000000000004 4.5000000000000009 1.5000000000000002 2.5000000000000004 4.5000000000000009 1.0000000180025095e-35 1.5000000000000002 1.5000000000000002 1.0000000180025095e-35
decision_type=2 2 2 2 2 2 2 2 2 2 2
left_child=10 2 4 7 9 -3 -7 -4 -9 -2 -1
right_child=1 5 3 -5 -6 6 -8 8 -10 -11 -12
leaf_value=-0.0014439758386728663 0.0024429310362890358 0.011025148276747974 -0.0016133165095278913 0.010700879665810419 0.011042037860445735 -0.0015995376110959202 0.010681764709574146 -0.001395723542767282 -0.0018494118754490607 0.0024753713772927986 -0.0013882629012138103
leaf_weight=4326 1860 1385 181 153 471 84 462 142 118 1805 1893
leaf_count=4326 1860 1385 181 153 471 84 462 142 118 1805 1893
internal_value=0.0044436 0.0130799 0.0107542 0.000601681 0.0122113 0.0187671 0.0156453 -0.00528959 -0.00443678 0.0112106 -0.00480675
internal_weight=12880 6661 4730 594 4136 1931 546 441 260 3665 6219
internal_count=12880 6661 4730 594 4136 1931 546 441 260 3665 6219
is_linear=0
shrinkage=0.02


Tree=78
num_leaves=12
num_cat=0
split_feature=0 1 0 0 0 0 0 1 1 1 1
split_gain=2520.77 224.784 171.692 148.548 81.6289 17.3909 98.4691 0.988406 0.240405 0.198511 0.196854
threshold=1.0000000180025095e-35 2.5000000000000004 2.5000000000000004 4.5000000000000009 1.5000000000000002 2.5000000000000004 4.5000000000000009 1.0000000180025095e-35 1.0000000180025095e-35 1.5000000000000002 1.5000000000000002
decision_type=2 2 2 2 2 2 2 2 2 2 2
left_child=8 2 4 7 10 -3 -7 -4 -1 -9 -2
right_child=1 5 3 -5 -6 6 -8 9 -10 -11 -12
leaf_value=-0.0014150963218994052 0.002394072415563251 0.010804645311213008 -0.0015810501793373354 0.010486862072494212 0.010821197103236813 -0.0015675468588740049 0.010468129415382671 -0.0013678090719119319 -0.0013604976431895288 -0.001812423637940075 0.0024258639497469403
leaf_weight=4326 1860 1385 181 153 471 84 462 142 1893 118 1805
leaf_count=4326 1860 1385 181 153 471 84 462 142 1893 118 1805
internal_value=0.00446534 0.0130138 0.0106612 0.000601681 0.0121049 0.0187671 0.0156453 -0.00528959 -0.004691 -0.00443678 0.0110906
internal_weight=12880 6661 4730 594 4136 1931 546 441 6219 260 3665
internal_count=12880 6661 4730 594 4136 1931 546 441 6219 260 3665
is_linear=0
shrinkage=0.02


Tree=79
num_leaves=12
num_cat=0
split_feature=0 1 0 0 0 0 0 1 1 1 1
split_gain=2462.38 231.42 167.673 148.548 84.4934 17.3909 98.4691 0.988406 0.483172 0.418837 0.198511
threshold=1.0000000180025095e-35 2.5000000000000004 2.5000000000000004 4.5000000000000009 1.5000000000000002 2.5000000000000004 4.5000000000000009 1.0000000180025095e-35 1.0000000180025095e-35 1.5000000000000002 1.5000000000000002
decision_type=2 2 2 2 2 2 2 2 2 2 2
left_child=8 2 4 7 9 -3 -7 -4 -1 -2 -9
right_child=1 5 3 -5 -6 6 -8 10 -10 -11 -12
leaf_value=-0.0013867943954614149 0.0023461909672519887 0.010588552404988754 -0.0015494291757505963 0.010277124831044322 0.010604773161172077 -0.0015361959216965194 0.010258766827075015 -0.0013404528904736957 -0.0013332876903257328 0.0023773466707520011 -0.0017761751651812752
leaf_weight=4326 1860 1385 181 153 471 84 462 142 1893 1805 118
leaf_count=4326 1860 1385 181 153 471 84 462 142 1893 1805 118
internal_value=0.00448086 0.0129298 0.0105428 0.000601681 0.0119695 0.0187671 0.0156453 -0.00528959 -0.00456881 0.0109378 -0.00443678
internal_weight=12880 6661 4730 594 4136 1931 546 441 6219 3665 260
internal_count=12880 6661 4730 594 4136 1931 546 441 6219 3665 260
is_linear=0
shrinkage=0.02


Tree=80
num_leaves=10
num_cat=0
split_feature=0 1 0 0 0 0 0 1 1
split_gain=2464.3 221.021 164.421 148.699 85.7591 20.0697 100.119 2.90057 2.84309
threshold=1.0000000180025095e-35 2.5000000000000004 2.5000000000000004 4.5000000000000009 1.5000000000000002 2.5000000000000004 4.5000000000000009 1.5000000000000002 1.0000000180025095e-35
decision_type=2 2 2 2 2 2 2 2 2
left_child=-1 2 4 8 7 -3 -7 -2 -4
right_child=1 5 3 -5 -6 6 -8 -9 -10
leaf_value=-0.001325530308400449 0.0022349418152653477 0.010343874824601383 -0.001335277903026597 0.010063213842296968 0.01038053742390078 -0.0011476314233997797 0.010057210684564276 0.0023978587049272981 -0.0013104680971905936
leaf_weight=6232 1837 1380 183 146 483 84 473 1824 244
leaf_count=6232 1837 1380 183 146 483 84 473 1824 244
internal_value=0.00451292 0.0129764 0.0106354 0.00058885 0.0120236 0.0186677 0.0153728 0.0109716 -0.00536916
internal_weight=12886 6654 4717 573 4144 1937 557 3661 427
internal_count=12886 6654 4717 573 4144 1937 557 3661 427
is_linear=0
shrinkage=0.02


Tree=81
num_leaves=10
num_cat=0
split_feature=0 1 0 0 0 0 0 1 1
split_gain=2420.92 227.624 158.305 147.51 88.9439 20.0697 100.119 3.14186 2.78567
threshold=1.0000000180025095e-35 2.5000000000000004 2.5000000000000004 4.5000000000000009 1.5000000000000002 2.5000000000000004 4.5000000000000009 1.0000000180025095e-35 1.5000000000000002
decision_type=2 2 2 2 2 2 2 2 2
left_child=-1 2 4 7 8 -3 -7 -4 -2
right_child=1 5 3 -5 -6 6 -8 -9 -10
leaf_value=-0.0012990197022324423 0.0021902429789600396 0.010136997328109363 -0.0013085723449660592 0.0098619495654510211 0.010172926675422769 -0.0011246787949317927 0.0098560664708729814 -0.0012842587352467837 0.0023499015308287596
leaf_weight=6232 1837 1380 183 146 483 84 473 244 1824
leaf_count=6232 1837 1380 183 146 483 84 473 244 1824
internal_value=0.00450361 0.0128923 0.0105167 0.000658537 0.0118789 0.0186677 0.0153728 -0.0052757 0.0108078
internal_weight=12886 6654 4717 573 4144 1937 557 427 3661
internal_count=12886 6654 4717 573 4144 1937 557 427 3661
is_linear=0
shrinkage=0.02


Tree=82
num_leaves=10
num_cat=0
split_feature=0 1 0 0 0 0 0 1 1
split_gain=2377.69 233.361 152.84 146.326 91.7503 20.0697 100.119 3.45459 2.90823
threshold=1.0000000180025095e-35 2.5000000000000004 2.5000000000000004 4.5000000000000009 1.5000000000000002 2.5000000000000004 4.5000000000000009 1.0000000180025095e-35 1.5000000000000002
decision_type=2 2 2 2 2 2 2 2 2
left_child=-1 2 4 7 8 -3 -7 -4 -2
right_child=1 5 3 -5 -6 6 -8 -9 -10
leaf_value=-0.0012730393081877979 0.0021464381193808356 0.0099342573815471812 -0.0012824008980667401 0.0096647105741419995 0.0099694681419143193 -0.0011021852190331494 0.0096589451414555143 -0.0012585735605418512 0.0023029035002121922
leaf_weight=6232 1837 1380 183 146 483 84 473 244 1824
leaf_count=6232 1837 1380 183 146 483 84 473 244 1824
internal_value=0.00450671 0.0128201 0.010415 0.000728223 0.0117534 0.0186677 0.0153728 -0.00518224 0.0106658
internal_weight=12886 6654 4717 573 4144 1937 557 427 3661
internal_count=12886 6654 4717 573 4144 1937 557 427 3661
is_linear=0
shrinkage=0.02


Tree=83
num_leaves=10
num_cat=0
split_feature=0 1 0 0 0 0 0 1 1
split_gain=2327.82 239.169 149.644 146.326 94.3791 20.0697 100.119 3.45459 2.67584
threshold=1.0000000180025095e-35 2.5000000000000004 2.5000000000000004 4.5000000000000009 1.5000000000000002 2.5000000000000004 4.5000000000000009 1.0000000180025095e-35 1.5000000000000002
decision_type=2 2 2 2 2 2 2 2 2
left_child=-1 2 4 7 8 -3 -7 -4 -2
right_child=1 5 3 -5 -6 6 -8 -9 -10
leaf_value=-0.0012475785220240354 0.0021035093569932253 0.0097355722339162298 -0.0012567528801054096 0.0094714163626591664 0.0097700787790760309 -0.0010801415146524818 0.0094657662386264003 -0.0012334020893310083 0.0022568454302079564
leaf_weight=6232 1837 1380 183 146 483 84 473 244 1824
leaf_count=6232 1837 1380 183 146 483 84 473 244 1824
internal_value=0.00452223 0.012748 0.0103133 0.000728223 0.0116376 0.0186677 0.0153728 -0.00518224 0.0105347
internal_weight=12886 6654 4717 573 4144 1937 557 427 3661
internal_count=12886 6654 4717 573 4144 1937 557 427 3661
is_linear=0
shrinkage=0.02


Tree=84
num_leaves=10
num_cat=0
split_feature=0 1 0 0 0 0 0 1 1
split_gain=2288.7 244.063 138.484 141.635 97.4923 20.0697 100.119 2.67962 1.98129
threshold=1.0000000180025095e-35 2.5000000000000004 2.5000000000000004 4.5000000000000009 1.5000000000000002 2.5000000000000004 4.5000000000000009 1.5000000000000002 1.0000000180025095e-35
decision_type=2 2 2 2 2 2 2 2 2
left_child=-1 2 4 8 7 -3 -7 -2 -4
right_child=1 5 3 -5 -6 6 -8 -9 -10
leaf_value=-0.0012226269515835497 0.0020614391698533653 0.0095408607892379042 -0.0012316178225032991 0.0092819880354059765 0.0095746772034945062 -0.0010585386843594336 0.0092764509138538644 0.0022117085216038037 -0.0012087340475443931
leaf_weight=6232 1837 1380 183 146 483 84 473 1824 244
leaf_count=6232 1837 1380 183 146 483 84 473 1824 244
internal_value=0.00453154 0.0126879 0.0102285 0.00100697 0.0115025 0.0186677 0.0153728 0.0103818 -0.00480841
internal_weight=12886 6654 4717 573 4144 1937 557 3661 427
internal_count=12886 6654 4717 573 4144 1937 557 3661 427
is_linear=0
shrinkage=0.02


Tree=85
num_leaves=12
num_cat=0
split_feature=0 1 1 1 0 0 0 0 0 0 1
split_gain=2305.87 248.143 114.807 36.0676 47.3609 34.3474 48.2537 67.369 16.6501 97.7377 0.069004
threshold=1.0000000180025095e-35 2.5000000000000004 1.0000000180025095e-35 1.5000000000000002 2.5000000000000004 1.5000000000000002 2.5000000000000004 4.5000000000000009 2.5000000000000004 4.5000000000000009 1.0000000180025095e-35
decision_type=2 2 2 2 2 2 2 2 2 2 2
left_child=10 2 -2 4 -4 -5 -7 -8 -3 -10 -1
right_child=1 8 3 5 -6 6 7 -9 9 -11 -12
leaf_value=-0.0012809312799165085 -0.001365457527210463 0.0093691981220981723 0.002014640928448479 0.0022451082088987741 -0.00082198669661059042 0.0093414890183113296 -0.0011376737879705702 0.0090564465412994195 -0.00063699635915856587 0.0091137623954547203 -0.0012995720556853031
leaf_weight=4295 179 1368 1858 1809 127 471 108 156 85 477 1847
leaf_count=4295 179 1368 1858 1809 127 471 108 156 85 477 1847
internal_value=0.00455348 0.0127245 0.0102438 0.0108649 0.00883082 0.0124472 0.0161114 0.0092 0.0187664 0.0157691 -0.00427771
internal_weight=12780 6638 4708 4529 1985 2544 735 264 1930 562 6142
internal_count=12780 6638 4708 4529 1985 2544 735 264 1930 562 6142
is_linear=0
shrinkage=0.02


Tree=86
num_leaves=12
num_cat=0
split_feature=0 1 1 1 0 0 0 0 0 0 1
split_gain=2266.47 252.128 113.815 36.4299 46.7169 36.6138 46.8811 64.9671 16.6501 97.7377 0.0123576
threshold=1.0000000180025095e-35 2.5000000000000004 1.0000000180025095e-35 1.5000000000000002 2.5000000000000004 1.5000000000000002 2.5000000000000004 4.5000000000000009 2.5000000000000004 4.5000000000000009 1.0000000180025095e-35
decision_type=2 2 2 2 2 2 2 2 2 2 2
left_child=10 2 -2 4 -4 -5 -7 -8 -3 -10 -1
right_child=1 8 3 5 -6 6 7 -9 9 -11 -12
leaf_value=-0.0012553126543181747 -0.0013381483766662506 0.009181814159656217 0.0019743481098795181 0.002200206044720794 -0.00080554696267837406 0.0091546592379451036 -0.0011149203122111651 0.0088753176104734346 -0.0006242564319753896 0.0089314871475456321 -0.0012735806145716033
leaf_weight=4295 179 1368 1858 1809 127 471 108 156 85 477 1847
leaf_count=4295 179 1368 1858 1809 127 471 108 156 85 477 1847
internal_value=0.00457539 0.0126763 0.0101758 0.0107943 0.00875025 0.0123843 0.0161658 0.00935094 0.0187664 0.0157691 -0.00418004
internal_weight=12780 6638 4708 4529 1985 2544 735 264 1930 562 6142
internal_count=12780 6638 4708 4529 1985 2544 735 264 1930 562 6142
is_linear=0
shrinkage=0.02


Tree=87
num_leaves=13
num_cat=0
split_feature=0 1 1 1 0 0 0 0 0 0 0 1
split_gain=2222.6 257.659 109.255 35.5267 46.0774 39.1276 46.8811 64.9671 16.6501 97.7377 0.230228 0.0330834
threshold=1.0000000180025095e-35 2.5000000000000004 1.0000000180025095e-35 1.5000000000000002 2.5000000000000004 1.5000000000000002 2.5000000000000004 4.5000000000000009 2.5000000000000004 4.5000000000000009 3.5000000000000004 1.0000000180025095e-35
decision_type=2 2 2 2 2 2 2 2 2 2 2 2
left_child=11 2 10 4 -4 -5 -7 -8 -3 -10 -2 -1
right_child=1 8 3 5 -6 6 7 -9 9 -11 -12 -13
leaf_value=-0.0012302064012318149 -0.00062611255982702118 0.0089981778764630961 0.0019348611476819322 0.002156201923826373 -0.00078943602342480552 0.0089715660531862092 -0.0010926219059669508 0.008697811258263962 -0.0006117713033358818 0.0087528574045947147 -0.0013544676463765803 -0.0012481090022801666
leaf_weight=4295 47 1368 1858 1809 127 471 108 156 85 477 132 1847
leaf_count=4295 47 1368 1858 1809 127 471 108 156 85 477 132 1847
internal_value=0.0045879 0.01261 0.0100824 0.0106883 0.00866969 0.0122585 0.0161658 0.00935094 0.0187664 0.0157691 -0.00521111 -0.00408237
internal_weight=12780 6638 4708 4529 1985 2544 735 264 1930 562 179 6142
internal_count=12780 6638 4708 4529 1985 2544 735 264 1930 562 179 6142
is_linear=0
shrinkage=0.02


Tree=88
num_leaves=13
num_cat=0
split_feature=0 1 1 1 0 0 0 0 0 0 0 1
split_gain=2199.42 263.473 105.027 36.7022 45.1263 40.4151 46.8811 64.9671 16.0557 93.8373 0.140454 0.00583327
threshold=1.0000000180025095e-35 2.5000000000000004 1.0000000180025095e-35 1.5000000000000002 2.5000000000000004 1.5000000000000002 2.5000000000000004 4.5000000000000009 2.5000000000000004 4.5000000000000009 3.5000000000000004 1.0000000180025095e-35
decision_type=2 2 2 2 2 2 2 2 2 2 2 2
left_child=11 2 10 4 -4 -5 -7 -8 -3 -10 -2 -1
right_child=1 8 3 5 -6 6 7 -9 9 -11 -12 -13
leaf_value=-0.0012056022732071802 -0.000613590308630485 0.0088182143189338372 0.0018961639247282848 0.0021130778853498456 -0.00077364730295631295 0.0087921347321224808 -0.0010707694678476188 0.0085238550330986838 -0.00059953587726916172 0.008577800256502819 -0.0013273782934490441 -0.0012231468222345576
leaf_weight=4295 47 1368 1858 1809 127 471 108 156 85 477 132 1847
leaf_count=4295 47 1368 1858 1809 127 471 108 156 85 477 132 1847
internal_value=0.00458164 0.0125618 0.0100059 0.0106 0.00854884 0.0121957 0.0161658 0.00935094 0.0187872 0.0158401 -0.00498889 -0.0040433
internal_weight=12780 6638 4708 4529 1985 2544 735 264 1930 562 179 6142
internal_count=12780 6638 4708 4529 1985 2544 735 264 1930 562 179 6142
is_linear=0
shrinkage=0.02


Tree=89
num_leaves=13
num_cat=0
split_feature=0 1 1 1 0 0 0 0 0 0 1 0
split_gain=2145.15 272.754 102.899 34.6345 44.7407 46.8811 64.9671 44.3413 16.0557 93.8373 0.161 0.140454
threshold=1.0000000180025095e-35 2.5000000000000004 1.0000000180025095e-35 1.5000000000000002 1.5000000000000002 2.5000000000000004 4.5000000000000009 2.5000000000000004 2.5000000000000004 4.5000000000000009 1.0000000180025095e-35 3.5000000000000004
decision_type=2 2 2 2 2 2 2 2 2 2 2 2
left_child=10 2 11 7 -5 -6 -7 -4 -3 -10 -1 -2
right_child=1 8 3 4 5 6 -8 -9 9 -11 -12 -13
leaf_value=-0.0011814902277430407 -0.00060131850245786827 0.0086418500325551578 0.0018582406462337175 0.0020708163276428417 0.0086162920374800219 -0.0010493540784906586 0.0083533779324367081 -0.00075817435689717882 -0.00058754515972378127 0.0084062442513727648 -0.0011986838857898619 -0.0013008307275800667
leaf_weight=4295 47 1368 1858 1809 471 108 156 127 85 477 1847 132
leaf_count=4295 47 1368 1858 1809 471 108 156 127 85 477 1847 132
internal_value=0.00457226 0.0124534 0.00985305 0.0104411 0.0119914 0.0161658 0.00935094 0.00844814 0.0187872 0.0158401 -0.00394563 -0.00498889
internal_weight=12780 6638 4708 4529 2544 735 264 1985 1930 562 6142 179
internal_count=12780 6638 4708 4529 2544 735 264 1985 1930 562 6142 179
is_linear=0
shrinkage=0.02


Tree=90
num_leaves=11
num_cat=0
split_feature=0 1 1 0 0 0 0 0 1 1
split_gain=2065.03 270.537 105.448 30.7969 107.881 101.727 18.1333 100.626 1.10896 0.392222
threshold=1.0000000180025095e-35 2.5000000000000004 1.0000000180025095e-35 2.5000000000000004 1.5000000000000002 4.5000000000000009 2.5000000000000004 4.5000000000000009 1.0000000180025095e-35 1.5000000000000002
decision_type=2 2 2 2 2 2 2 2 2 2
left_child=8 2 -2 4 9 -5 -3 -8 -1 -4
right_child=1 6 3 5 -6 -7 7 -9 -10 -11
leaf_value=-0.0011244341383981472 -0.0010788006624059144 0.0084564245309274883 0.0018678964738730031 -0.00092735381332708755 0.0085089781748798297 0.0082446323266077929 -0.001724445892796176 0.0082303659941529266 -0.0010314349471487638 0.0019290543895177238
leaf_weight=4359 183 1346 1860 254 465 151 85 469 1864 1785
leaf_count=4359 183 1346 1860 254 465 151 85 469 1864 1785
internal_value=0.00454048 0.0123349 0.00975484 0.0103583 0.0108776 0.00506897 0.0187049 0.015564 -0.00372397 0.00971421
internal_weight=12821 6598 4698 4515 4110 405 1900 554 6223 3645
internal_count=12821 6598 4698 4515 4110 405 1900 554 6223 3645
is_linear=0
shrinkage=0.02


Tree=91
num_leaves=11
num_cat=0
split_feature=0 1 1 0 0 0 0 0 1 1
split_gain=2024.05 280.43 103.167 28.8549 112.347 101.727 18.1333 100.626 0.87149 0.32798
threshold=1.0000000180025095e-35 2.5000000000000004 1.0000000180025095e-35 2.5000000000000004 1.5000000000000002 4.5000000000000009 2.5000000000000004 4.5000000000000009 1.0000000180025095e-35 1.5000000000000002
decision_type=2 2 2 2 2 2 2 2 2 2
left_child=8 2 -2 4 9 -5 -3 -8 -1 -4
right_child=1 6 3 5 -6 -7 7 -9 -10 -11
leaf_value=-0.0011019454556301866 -0.0010572246491577886 0.008287296040308938 0.001830538544395548 -0.00090880673706054797 0.0083387986113822345 0.0080797396800756441 -0.0016899569749402588 0.008065758674269877 -0.001010806248205789 0.0018904733017273757
leaf_weight=4359 183 1346 1860 254 465 151 85 469 1864 1785
leaf_count=4359 183 1346 1860 254 465 151 85 469 1864 1785
internal_value=0.00450304 0.0122197 0.0095931 0.01019 0.0106928 0.00506897 0.0187049 0.015564 -0.00367898 0.00950576
internal_weight=12821 6598 4698 4515 4110 405 1900 554 6223 3645
internal_count=12821 6598 4698 4515 4110 405 1900 554 6223 3645
is_linear=0
shrinkage=0.02


Tree=92
num_leaves=11
num_cat=0
split_feature=0 1 1 0 0 0 0 0 1 1
split_gain=1998.69 286.487 102.095 26.8605 114.733 100.187 17.5102 96.6734 0.633065 0.221894
threshold=1.0000000180025095e-35 2.5000000000000004 1.0000000180025095e-35 2.5000000000000004 1.5000000000000002 4.5000000000000009 2.5000000000000004 4.5000000000000009 1.0000000180025095e-35 1.5000000000000002
decision_type=2 2 2 2 2 2 2 2 2 2
left_child=8 2 -2 4 9 -5 -3 -8 -1 -4
right_child=1 6 3 5 -6 -7 7 -9 -10 -11
leaf_value=-0.0010799065465175773 -0.0010360801561746413 0.0081215501195027601 0.0017939277735076332 -0.00089063060231934447 0.0081720226391545844 0.0079181448864741287 -0.0016561578354414585 0.00790444350078447 -0.0009905901232416703 0.0018526638356928338
leaf_weight=4359 183 1346 1860 254 465 151 85 469 1864 1785
leaf_count=4359 183 1346 1860 254 465 151 85 469 1864 1785
internal_value=0.00450304 0.0121712 0.00951649 0.0101103 0.0105955 0.00516749 0.0187259 0.015636 -0.00362757 0.00939605
internal_weight=12821 6598 4698 4515 4110 405 1900 554 6223 3645
internal_count=12821 6598 4698 4515 4110 405 1900 554 6223 3645
is_linear=0
shrinkage=0.02


Tree=93
num_leaves=13
num_cat=0
split_feature=0 1 1 1 0 0 0 0 0 0 1 0
split_gain=1962.56 292.894 100.675 26.9061 53.0203 51.4968 70.689 41.5911 17.5102 96.6734 0.362654 0.133889
threshold=1.0000000180025095e-35 2.5000000000000004 1.0000000180025095e-35 1.5000000000000002 1.5000000000000002 2.5000000000000004 4.5000000000000009 2.5000000000000004 2.5000000000000004 4.5000000000000009 1.0000000180025095e-35 3.5000000000000004
decision_type=2 2 2 2 2 2 2 2 2 2 2 2
left_child=10 2 -2 7 -5 -6 -7 -4 -3 -10 -1 -9
right_child=1 8 3 4 5 6 -8 11 9 -11 -12 -13
leaf_value=-0.0010583084155872235 -0.0010153585530511401 0.0079591191171127038 0.0017580492180374742 0.0018156105589789816 0.0080085821863714914 -0.00097637271591992207 0.0077597819887446386 -0.00029000867482979585 -0.0016230346787326332 0.0077463546307687814 -0.00097077832077683722 -0.00076431122834572205
leaf_weight=4359 183 1346 1860 1785 465 121 151 30 85 469 1864 103
leaf_count=4359 183 1346 1860 1785 465 121 151 30 85 469 1864 103
internal_value=0.00449992 0.0120985 0.00941434 0.010004 0.0113825 0.0159051 0.0089304 0.00825376 0.0187259 0.015636 -0.00355688 -0.00252239
internal_weight=12821 6598 4698 4515 2522 737 272 1993 1900 554 6223 133
internal_count=12821 6598 4698 4515 2522 737 272 1993 1900 554 6223 133
is_linear=0
shrinkage=0.02


Tree=94
num_leaves=12
num_cat=0
split_feature=0 1 1 0 0 0 0 0 1 1 0
split_gain=1928.18 298.287 96.5194 27.7675 116.439 98.6592 17.5102 96.6734 0.472759 0.312309 0.0575614
threshold=1.0000000180025095e-35 2.5000000000000004 1.0000000180025095e-35 1.5000000000000002 2.5000000000000004 4.5000000000000009 2.5000000000000004 4.5000000000000009 1.0000000180025095e-35 1.5000000000000002 3.5000000000000004
decision_type=2 2 2 2 2 2 2 2 2 2 2
left_child=8 2 -2 9 -5 10 -3 -8 -1 -4 -6
right_child=1 6 3 4 5 -7 7 -9 -10 -11 -12
leaf_value=-0.0010371422472754866 -0.00099505138199011971 0.007799936734770441 0.0017228882336767272 0.0078484105426440652 -0.00027515813207051209 0.0076045863489697394 -0.001590573985157988 0.0075914275381533973 -0.00095136275436130907 0.0017792983477994007 -0.00095684526160152224
leaf_weight=4359 183 1346 1860 465 59 151 85 469 1864 1785 195
leaf_count=4359 183 1346 1860 465 59 151 85 469 1864 1785 195
internal_value=0.00450616 0.0120379 0.00932922 0.00990655 0.013132 0.00526601 0.0187259 0.015636 -0.00347976 0.00913275 -0.0023451
internal_weight=12821 6598 4698 4515 870 405 1900 554 6223 3645 254
internal_count=12821 6598 4698 4515 870 405 1900 554 6223 3645 254
is_linear=0
shrinkage=0.02


Tree=95
num_leaves=12
num_cat=0
split_feature=0 1 1 1 0 0 0 0 0 0 0
split_gain=1858.73 316.36 109.75 27.7071 55.9435 49.406 64.3991 42.2887 17.7647 78.9709 0.0944347
threshold=1.0000000180025095e-35 2.5000000000000004 1.0000000180025095e-35 1.5000000000000002 1.5000000000000002 2.5000000000000004 4.5000000000000009 2.5000000000000004 2.5000000000000004 4.5000000000000009 3.5000000000000004
decision_type=2 2 2 2 2 2 2 2 2 2 2
left_child=-1 2 10 7 -5 -6 -7 -4 -3 -10 -2
right_child=1 8 3 4 5 6 -8 -9 9 -11 -12
leaf_value=-0.00098911954850917634 -0.0017292426696900343 0.0076682853053728905 0.0017335011171965497 0.0017452859434654755 0.0076836365075113912 -0.0010776934409031825 0.0074438161857110427 -0.0010165530613153351 -0.00041011086918794958 0.0074452161291139697 -0.0011176292972214163
leaf_weight=6162 44 1388 1866 1770 450 118 149 135 85 467 143
leaf_count=6162 44 1388 1866 1770 450 118 149 135 85 467 143
internal_value=0.00459994 0.0119616 0.00913986 0.00976565 0.0111809 0.0159025 0.00902239 0.008001 0.0187522 0.0156203 -0.00584043
internal_weight=12777 6615 4675 4488 2487 717 267 2001 1940 552 187
internal_count=12777 6615 4675 4488 2487 717 267 2001 1940 552 187
is_linear=0
shrinkage=0.02


Tree=96
num_leaves=12
num_cat=0
split_feature=0 1 1 0 0 0 0 0 1 1 0
split_gain=1823.73 322.598 108.377 29.55 114.351 92.7699 17.7647 78.9709 0.30214 0.167502 0.0944347
threshold=1.0000000180025095e-35 2.5000000000000004 1.0000000180025095e-35 1.5000000000000002 2.5000000000000004 4.5000000000000009 2.5000000000000004 4.5000000000000009 1.5000000000000002 1.5000000000000002 3.5000000000000004
decision_type=2 2 2 2 2 2 2 2 2 2 2
left_child=-1 2 10 9 -5 8 -3 -8 -6 -4 -2
right_child=1 6 3 4 5 -7 7 -9 -10 -11 -12
leaf_value=-0.00096933715753898752 -0.001694657816296239 0.0075149195992654325 0.0016988310948526219 0.007529963777361157 -0.00099622200008901989 0.0072949398619968162 -0.00040190865180418813 0.0072963118065316832 -0.0010561395720851152 0.0017103802245961575 -0.0010952767112769911
leaf_weight=6162 44 1388 1866 450 135 149 85 467 118 1770 143
leaf_count=6162 44 1388 1866 450 135 149 85 467 118 1770 143
internal_value=0.00460307 0.0118951 0.00904577 0.00966763 0.013034 0.00525558 0.0187522 0.0156203 -0.00211811 0.0088749 -0.00584043
internal_weight=12777 6615 4675 4488 852 402 1940 552 253 3636 187
internal_count=12777 6615 4675 4488 852 402 1940 552 253 3636 187
is_linear=0
shrinkage=0.02


end of trees

feature_importances:
outlet_size=486
cooler_count=283

parameters:
[boosting: gbdt]
[objective: regression_l1]
[metric: rmse]
[tree_learner: serial]
[device_type: cpu]
[data_sample_strategy: bagging]
[data: ]
[valid: ]
[num_iterations: 97]
[learning_rate: 0.02]
[num_leaves: 63]
[num_threads: -1]
[seed: 42]
[deterministic: 0]
[force_col_wise: 0]
[force_row_wise: 0]
[histogram_pool_size: -1]
[max_depth: -1]
[min_data_in_leaf: 30]
[min_sum_hessian_in_leaf: 0.001]
[bagging_fraction: 0.8]
[pos_bagging_fraction: 1]
[neg_bagging_fraction: 1]
[bagging_freq: 5]
[bagging_seed: 400]
[bagging_by_query: 0]
[feature_fraction: 0.8]
[feature_fraction_bynode: 1]
[feature_fraction_seed: 30056]
[extra_trees: 0]
[extra_seed: 12879]
[early_stopping_round: 0]
[early_stopping_min_delta: 0]
[first_metric_only: 0]
[max_delta_step: 0]
[lambda_l1: 0.1]
[lambda_l2: 1]
[linear_lambda: 0]
[min_gain_to_split: 0]
[drop_rate: 0.1]
[max_drop: 50]
[skip_drop: 0.5]
[xgboost_dart_mode: 0]
[uniform_drop: 0]
[drop_seed: 17869]
[top_rate: 0.2]
[other_rate: 0.1]
[min_data_per_group: 100]
[max_cat_threshold: 32]
[cat_l2: 10]
[cat_smooth: 10]
[max_cat_to_onehot: 4]
[top_k: 20]
[monotone_constraints: ]
[monotone_constraints_method: basic]
[monotone_penalty: 0]
[feature_contri: ]
[forcedsplits_filename: ]
[refit_decay_rate: 0.9]
[cegb_tradeoff: 1]
[cegb_penalty_split: 0]
[cegb_penalty_feature_lazy: ]
[cegb_penalty_feature_coupled: ]
[path_smooth: 0]
[interaction_constraints: ]
[verbosity: -1]
[saved_feature_importance_type: 0]
[use_quantized_grad: 0]
[num_grad_quant_bins: 4]
[quant_train_renew_leaf: 0]
[stochastic_rounding: 1]
[linear_tree: 0]
[max_bin: 255]
[max_bin_by_feature: ]
[min_data_in_bin: 3]
[bin_construct_sample_cnt: 200000]
[data_random_seed: 175]
[is_enable_sparse: 1]
[enable_bundle: 1]
[use_missing: 1]
[zero_as_missing: 0]
[feature_pre_filter: 1]
[pre_partition: 0]
[two_round: 0]
[header: 0]
[label_column: ]
[weight_column: ]
[group_column: ]
[ignore_column: ]
[categorical_feature: ]
[forcedbins_filename: ]
[precise_float_parser: 0]
[parser_config_file: ]
[objective_seed: 16083]
[num_class: 1]
[is_unbalance: 0]
[scale_pos_weight: 1]
[sigmoid: 1]
[boost_from_average: 1]
[reg_sqrt: 0]
[alpha: 0.9]
[fair_c: 1]
[poisson_max_delta_step: 0.7]
[tweedie_variance_power: 1.5]
[lambdarank_truncation_level: 30]
[lambdarank_norm: 1]
[label_gain: ]
[lambdarank_position_bias_regularization: 0]
[eval_at: ]
[multi_error_top_k: 1]
[auc_mu_weights: ]
[num_machines: 1]
[local_listen_port: 12400]
[time_out: 120]
[machine_list_filename: ]
[machines: ]
[gpu_platform_id: -1]
[gpu_device_id: -1]
[gpu_use_dp: 0]
[num_gpu: 1]

end of parameters

pandas_categorical:[]
